{"learner":{"attributes":{"scikit_learn":"{\"_estimator_type\": \"classifier\"}"},"feature_names":["0","1","2","3","4","5","6","7","8","9","10","11","12","13","14","15","16","17","18","19","20","21","22","23","24","25","26","27","28","29","30","31","32","33","34","35","36","37","38","39","40","41","42","43","44","45","46","47","48","49","50","51","52","53","54","55","56","57","58","59","60","61","62","63","64","65","66","67","68","69","70","71","72","73","74","75","76","77","78","79","80","81","82","83","84","85","86","87","88","89","90","91","92","93","94","95","96","97","98","99","100","101","102","103","104","105","106","107","108","109","110","111","112","113","114","115","116","117","118","119","120","121","122","123","124","125","126","127","128","129","130","131","132","133","134","135","136","137","138","139","140","141","142","143","144","145","146","147","148","149","150","151","152","153","154","155","156","157","158","159","160","161","162","163","164","165","166","167","168","169","170","171","172","173","174","175","176","177","178","179","180","181","182","183","184","185","186"],"feature_types":["float","float","float","float","float","float","float","float","float","float","float","float","float","float","float","float","float","float","float","float","float","float","float","float","float","float","float","float","float","float","float","float","float","float","float","float","float","float","float","float","float","float","float","float","float","float","float","float","float","float","float","float","float","float","float","float","float","float","float","float","float","float","float","float","float","float","float","float","float","float","float","float","float","float","float","float","float","float","float","float","float","float","float","float","float","float","float","float","float","float","float","float","float","float","float","float","float","float","float","float","float","float","float","float","float","float","float","float","float","float","float","float","float","float","float","float","float","float","float","float","float","float","float","float","float","float","float","float","float","float","float","float","float","float","float","float","float","float","float","float","float","float","float","float","float","float","float","float","float","float","float","float","float","float","float","float","float","float","float","float","float","float","float","float","float","float","float","float","float","float","float","float","float","float","float","float","float","float","float","float","float","float","float","float","float","float","float"],"gradient_booster":{"model":{"gbtree_model_param":{"num_parallel_tree":"1","num_trees":"100"},"iteration_indptr":[0,1,2,3,4,5,6,7,8,9,10,11,12,13,14,15,16,17,18,19,20,21,22,23,24,25,26,27,28,29,30,31,32,33,34,35,36,37,38,39,40,41,42,43,44,45,46,47,48,49,50,51,52,53,54,55,56,57,58,59,60,61,62,63,64,65,66,67,68,69,70,71,72,73,74,75,76,77,78,79,80,81,82,83,84,85,86,87,88,89,90,91,92,93,94,95,96,97,98,99,100],"tree_info":[0,0,0,0,0,0,0,0,0,0,0,0,0,0,0,0,0,0,0,0,0,0,0,0,0,0,0,0,0,0,0,0,0,0,0,0,0,0,0,0,0,0,0,0,0,0,0,0,0,0,0,0,0,0,0,0,0,0,0,0,0,0,0,0,0,0,0,0,0,0,0,0,0,0,0,0,0,0,0,0,0,0,0,0,0,0,0,0,0,0,0,0,0,0,0,0,0,0,0,0],"trees":[{"base_weights":[-0E0,-6.216157E-1,1.205109E0,-1.1272633E0,1.5379189E0,1.6132023E0,1.2354813E-1,5.729149E-1,-1.2688383E0,1.7816188E0,-1.4510949E0,3.3411118E-1,1.9395745E0,5.2267736E-1,-1.2480315E0,-1.7088607E-1,1.4106314E0,-1.5499396E0,-6.287442E-1,-1.2164948E0,1.8340913E0,-1.968282E0,1.0292886E0,1.7064847E0,-5.8866715E-1,8.5253453E-1,1.973398E0,1.155835E0,-8.4166163E-1,5.833334E-1,-1.4044017E0,3.1408113E-1,-1.1206735E0,1.622957E0,-1.7954545E0,4.8119527E-1,-1.6323514E0,4.1557965E-1,-9.7529733E-1,-1.4736842E0,1.3103448E0,1.0466139E0,1.891913E0,-1.9752213E0,-6.666667E-2,-1.375E0,1.3744075E0,1.8428319E0,-1.8899083E0,-1.2185185E0,1.2306322E0,-8.2697946E-1,1.9246705E0,-4.8571432E-1,1.9758409E0,1.40055E0,-1.4649266E0,8.2421875E-1,-1.5812337E0,1.6487455E-1,-1.7740017E0,-2.858268E-1,2.1533628E-1,2.028169E-1,-4.16971E-1,5.4174757E-1,2.3135594E-1,1.20000005E-1,-5.647059E-1,-2.9138577E-1,4.4895107E-1,-1.8904929E-1,-5.028629E-1,-4.595745E-1,3.8780296E-1,-4.5764616E-1,-1.8641827E-1,6.206897E-2,-5.716981E-1,-0E0,4.9565217E-1,4.7138265E-1,-3.9807695E-1,5.71423E-1,-2.2597402E-1,-1.5E-1,-5.936057E-1,1.5E-1,-5.1428574E-1,4.8808292E-1,-3.2727274E-1,-1.3246754E-1,5.7122093E-1,-5.771429E-1,-1.5E-1,-4.2966753E-2,-4.6742487E-1,-4.659899E-1,5.4451615E-1,-5.101322E-1,2.644068E-1,2.1818183E-1,5.883041E-1,5.258661E-1,5.971299E-1,5.361932E-1,2.4952956E-1,2.8073394E-1,-5.905512E-1,5.09344E-1,-5.714286E-3,4.8923078E-1,-5.014726E-1,-4.9440002E-1,4.846154E-1,-5.440898E-1,2.1000001E-1],"categories":[],"categories_nodes":[],"categories_segments":[],"categories_sizes":[],"default_left":[0,0,0,0,0,0,0,0,0,0,0,0,0,0,0,0,0,0,0,0,0,0,0,0,0,0,0,0,0,0,0,0,0,0,0,0,0,0,0,0,0,0,0,0,0,0,0,0,0,0,0,0,0,0,0,0,0,0,0,0,0,0,0,0,0,0,0,0,0,0,0,0,0,0,0,0,0,0,0,0,0,0,0,0,0,0,0,0,0,0,0,0,0,0,0,0,0,0,0,0,0,0,0,0,0,0,0,0,0,0,0,0,0,0,0,0,0],"id":0,"left_children":[1,3,5,7,9,11,13,15,17,19,21,23,25,27,29,31,33,35,37,39,41,43,45,47,49,51,53,55,57,-1,59,61,63,65,67,69,71,73,75,77,79,81,83,85,-1,87,89,91,93,95,97,99,101,-1,103,105,107,109,111,113,115,-1,-1,-1,-1,-1,-1,-1,-1,-1,-1,-1,-1,-1,-1,-1,-1,-1,-1,-1,-1,-1,-1,-1,-1,-1,-1,-1,-1,-1,-1,-1,-1,-1,-1,-1,-1,-1,-1,-1,-1,-1,-1,-1,-1,-1,-1,-1,-1,-1,-1,-1,-1,-1,-1,-1,-1],"loss_changes":[2.7146043E4,2.6106488E4,5.442541E3,4.6634355E3,3.306709E3,3.7368691E3,1.8505806E3,9.2849585E2,3.2166465E3,6.6210547E2,4.4139264E2,2.307429E3,2.605703E2,2.2627266E3,3.831272E2,3.6423846E2,4.7993835E2,2.0805996E3,1.9759114E3,4.9209534E1,1.8574121E2,2.9990234E0,5.1468292E1,3.6267017E2,1.2502312E3,3.923365E2,6.390039E1,1.1492476E3,1.0245115E3,0E0,4.219558E2,2.6854544E2,1.3021735E2,1.0105969E2,9.147324E0,7.170595E2,5.23791E2,2.3263335E3,7.9713574E2,4.867134E1,3.2473764E0,3.5606247E2,1.3173926E2,4.5446777E-1,0E0,5.9464283E0,3.4615936E1,9.9638916E1,3.221054E-1,2.9553394E2,4.5959665E2,1.2870572E2,4.3507385E0,0E0,1.9001953E1,3.5851636E2,1.8711234E2,1.8862054E2,1.6972278E2,3.6949036E2,5.896997E1,0E0,0E0,0E0,0E0,0E0,0E0,0E0,0E0,0E0,0E0,0E0,0E0,0E0,0E0,0E0,0E0,0E0,0E0,0E0,0E0,0E0,0E0,0E0,0E0,0E0,0E0,0E0,0E0,0E0,0E0,0E0,0E0,0E0,0E0,0E0,0E0,0E0,0E0,0E0,0E0,0E0,0E0,0E0,0E0,0E0,0E0,0E0,0E0,0E0,0E0,0E0,0E0,0E0,0E0,0E0,0E0],"parents":[2147483647,0,0,1,1,2,2,3,3,4,4,5,5,6,6,7,7,8,8,9,9,10,10,11,11,12,12,13,13,14,14,15,15,16,16,17,17,18,18,19,19,20,20,21,21,22,22,23,23,24,24,25,25,26,26,27,27,28,28,30,30,31,31,32,32,33,33,34,34,35,35,36,36,37,37,38,38,39,39,40,40,41,41,42,42,43,43,45,45,46,46,47,47,48,48,49,49,50,50,51,51,52,52,54,54,55,55,56,56,57,57,58,58,59,59,60,60],"right_children":[2,4,6,8,10,12,14,16,18,20,22,24,26,28,30,32,34,36,38,40,42,44,46,48,50,52,54,56,58,-1,60,62,64,66,68,70,72,74,76,78,80,82,84,86,-1,88,90,92,94,96,98,100,102,-1,104,106,108,110,112,114,116,-1,-1,-1,-1,-1,-1,-1,-1,-1,-1,-1,-1,-1,-1,-1,-1,-1,-1,-1,-1,-1,-1,-1,-1,-1,-1,-1,-1,-1,-1,-1,-1,-1,-1,-1,-1,-1,-1,-1,-1,-1,-1,-1,-1,-1,-1,-1,-1,-1,-1,-1,-1,-1,-1,-1,-1],"split_conditions":[2.9224592E-1,5.282043E-1,2.8807947E-1,7.9800487E-1,6.182873E-1,3.4797892E-1,2.2943723E-1,3.137255E-1,2.1752392E-1,2.6418272E-1,8.8429767E-1,9.1028446E-1,1.8835616E-1,9.994464E-1,1.7220543E-1,2.4203822E-1,5.034325E-1,1.2820513E-2,3.9106146E-2,5.339998E-1,5.5063885E-1,7.2E-1,5.385448E-1,7.507599E-1,1.5633918E-1,4.1530564E-1,3.508772E-2,7.5E-1,3.1428573E-1,5.833334E-1,2.7419356E-1,1.0526316E-1,9.005707E-2,6.082662E-1,1.1971831E-1,2.061635E-1,2.3483366E-2,4.7368422E-2,1.6346154E-1,8.451957E-1,8.4584177E-1,3.5460994E-1,5.0210375E-1,1.04166664E-1,-6.666667E-2,3.6270493E-1,4.5061728E-1,1.747851E-1,5.3598773E-1,5.249344E-3,1.8141593E-1,3.058104E-2,4.3619138E-1,-4.8571432E-1,4.5633802E-1,1.6981132E-1,9.009009E-3,2.751938E-1,5.714286E-1,5.925851E-1,7.441176E-1,-2.858268E-1,2.1533628E-1,2.028169E-1,-4.16971E-1,5.4174757E-1,2.3135594E-1,1.20000005E-1,-5.647059E-1,-2.9138577E-1,4.4895107E-1,-1.8904929E-1,-5.028629E-1,-4.595745E-1,3.8780296E-1,-4.5764616E-1,-1.8641827E-1,6.206897E-2,-5.716981E-1,-0E0,4.9565217E-1,4.7138265E-1,-3.9807695E-1,5.71423E-1,-2.2597402E-1,-1.5E-1,-5.936057E-1,1.5E-1,-5.1428574E-1,4.8808292E-1,-3.2727274E-1,-1.3246754E-1,5.7122093E-1,-5.771429E-1,-1.5E-1,-4.2966753E-2,-4.6742487E-1,-4.659899E-1,5.4451615E-1,-5.101322E-1,2.644068E-1,2.1818183E-1,5.883041E-1,5.258661E-1,5.971299E-1,5.361932E-1,2.4952956E-1,2.8073394E-1,-5.905512E-1,5.09344E-1,-5.714286E-3,4.8923078E-1,-5.014726E-1,-4.9440002E-1,4.846154E-1,-5.440898E-1,2.1000001E-1],"split_indices":[4,36,11,0,2,5,134,39,3,16,0,0,42,0,29,70,2,61,20,2,36,3,34,66,113,5,7,52,32,0,3,3,23,0,12,44,26,8,50,0,1,2,6,6,0,40,6,54,2,88,58,30,5,0,3,1,82,17,1,23,160,0,0,0,0,0,0,0,0,0,0,0,0,0,0,0,0,0,0,0,0,0,0,0,0,0,0,0,0,0,0,0,0,0,0,0,0,0,0,0,0,0,0,0,0,0,0,0,0,0,0,0,0,0,0,0,0],"split_type":[0,0,0,0,0,0,0,0,0,0,0,0,0,0,0,0,0,0,0,0,0,0,0,0,0,0,0,0,0,0,0,0,0,0,0,0,0,0,0,0,0,0,0,0,0,0,0,0,0,0,0,0,0,0,0,0,0,0,0,0,0,0,0,0,0,0,0,0,0,0,0,0,0,0,0,0,0,0,0,0,0,0,0,0,0,0,0,0,0,0,0,0,0,0,0,0,0,0,0,0,0,0,0,0,0,0,0,0,0,0,0,0,0,0,0,0,0],"sum_hessian":[3.62355E4,2.390525E4,1.233025E4,1.937025E4,4.535E3,8.952E3,3.37825E3,1.48875E3,1.78815E4,4.1935E3,3.415E2,1.82025E3,7.13175E3,2.61725E3,7.61E2,7.89E2,6.9975E2,1.2424E4,5.4575E3,7.175E1,4.12175E3,2.8275E2,5.875E1,7.315E2,1.08875E3,2.16E2,6.91575E3,1.78775E3,8.295E2,3.5E1,7.26E2,5.2275E2,2.6625E2,6.5675E2,4.3E1,4.8425E2,1.193975E4,1.35975E3,4.09775E3,6.55E1,6.25E0,2.8325E2,3.8385E3,2.815E2,1.25E0,7E0,5.175E1,7.0525E2,2.625E1,8.09E2,2.7975E2,8.425E1,1.3175E2,4.25E0,6.9115E3,1.6355E3,1.5225E2,2.55E2,5.745E2,1.385E2,5.875E2,1.26E2,3.9675E2,3.45E1,2.3175E2,5.3975E2,1.17E2,1.5E0,4.15E1,1.9925E2,2.85E2,5.0125E2,1.14385E4,4.22E2,9.3775E2,1.60275E3,2.495E3,1.35E1,5.2E1,1.5E0,4.75E0,2.3225E2,5.1E1,3.82025E3,1.825E1,1E0,2.805E2,1E0,6E0,4.725E1,4.5E0,1.825E1,6.87E2,2.525E1,1E0,1.945E2,6.145E2,4.825E1,2.315E2,5.575E1,2.85E1,4.5E0,1.2725E2,4.32E2,6.4795E3,9.7225E2,6.6325E2,2.625E1,1.26E2,1.2475E2,1.3025E2,1.525E1,5.5925E2,6.15E1,7.7E1,5.785E2,9E0],"tree_param":{"num_deleted":"0","num_feature":"187","num_nodes":"117","size_leaf_vector":"1"}},{"base_weights":[1.6001953E-3,-4.5899153E-1,9.306227E-1,-8.700223E-1,1.0034318E0,2.9769957E-2,1.2945629E0,9.5383525E-1,-9.959726E-1,1.1527001E0,-1.2449796E0,-1.16588E0,5.18608E-1,-1.3948284E0,1.4405161E0,-3.6570355E-1,1.146453E0,-1.2363961E0,-6.491534E-1,1.2975191E0,7.6221414E-2,1.0386287E0,-1.5293424E0,1.3863429E0,-1.3307015E0,1.2876952E0,-3.6304364E-1,3.3183622E-1,-1.556644E0,-1.2611738E0,1.4604502E0,-8.904019E-1,1.6567246E0,1.2080972E0,-1.0722921E0,3.6487433E-1,-1.3255974E0,-1.3365213E0,-5.113286E-1,-1.12008E0,1.3511531E0,-9.9010867E-1,1.253362E0,-8.063263E-1,1.4057337E0,5.349612E-1,-1.5542756E0,-1.2892041E0,1.76027E0,-1.5015063E0,1.4018158E0,2.282557E-1,1.4802946E0,6.709034E-1,-9.1028756E-1,1.1963443E0,-1.0796005E0,-1.5848665E0,-5.776231E-1,1.455128E0,-1.6895741E0,5.0596803E-1,1.5024766E0,-3.218602E-1,2.8191075E-1,5.223959E-1,-7.6115265E-2,3.7495637E-1,-3.7684813E-1,-5.4797816E-1,3.840095E-1,-3.16276E-1,3.482545E-1,-4.0324315E-1,4.3955922E-2,-4.3430907E-1,1.2965605E-1,1.925872E-1,-2.0418732E-1,-4.4807878E-1,-1.9775836E-2,-1.6787826E-1,4.1189212E-1,1.2124021E-1,-3.900784E-1,4.731403E-1,-3.017095E-1,2.6131433E-1,-4.0337935E-1,4.496676E-1,-1.3778324E-1,-1.2048285E-1,3.1635445E-1,-4.7709092E-1,-2.972584E-1,-4.4183674E-1,-4.8003886E-2,-2.922419E-2,5.5349E-1,-1.7431458E-2,-4.8442423E-1,4.609845E-1,-2.5119343E-1,4.694638E-1,-2.1283527E-1,4.5239684E-1,-1.0936038E-1,2.4831267E-1,-4.6731722E-1,3.9745167E-1,-3.34603E-1,4.192438E-1,-4.0124568E-1,2.078651E-1,-4.975486E-1,-4.7802153E-1,1.7076282E-1,3.2816485E-1,-4.323343E-1,6.1743185E-3,5.265271E-1,-2.1624534E-1,-5.1740867E-1,4.4549423E-1,-2.4167806E-1,-3.15472E-1,4.534933E-1],"categories":[],"categories_nodes":[],"categories_segments":[],"categories_sizes":[],"default_left":[0,0,0,0,0,0,0,0,0,0,0,0,0,0,0,0,0,0,0,0,0,0,0,0,0,0,0,0,0,0,0,0,0,0,0,0,0,0,0,0,0,0,0,0,0,0,0,0,0,0,0,0,0,0,0,0,0,0,0,0,0,0,0,0,0,0,0,0,0,0,0,0,0,0,0,0,0,0,0,0,0,0,0,0,0,0,0,0,0,0,0,0,0,0,0,0,0,0,0,0,0,0,0,0,0,0,0,0,0,0,0,0,0,0,0,0,0,0,0,0,0,0,0,0,0,0,0],"id":1,"left_children":[1,3,5,7,9,11,13,15,17,19,21,23,25,27,29,31,33,35,37,39,41,43,45,47,49,51,53,55,57,59,61,63,65,67,69,71,73,75,77,79,81,83,85,87,89,91,93,95,97,99,101,103,105,107,109,111,113,115,117,119,121,123,125,-1,-1,-1,-1,-1,-1,-1,-1,-1,-1,-1,-1,-1,-1,-1,-1,-1,-1,-1,-1,-1,-1,-1,-1,-1,-1,-1,-1,-1,-1,-1,-1,-1,-1,-1,-1,-1,-1,-1,-1,-1,-1,-1,-1,-1,-1,-1,-1,-1,-1,-1,-1,-1,-1,-1,-1,-1,-1,-1,-1,-1,-1,-1,-1],"loss_changes":[1.4585167E4,1.3698599E4,3.7039941E3,4.087288E3,1.6795278E3,1.901277E3,3.160586E3,2.9260767E2,1.3867051E3,7.309336E2,2.040365E2,3.989536E2,1.5660547E3,1.1639209E2,4.1292676E2,1.5767104E2,1.3853357E2,1.4040391E3,6.449209E2,5.374429E2,7.005329E2,2.491864E1,1.5121582E1,6.0051277E1,4.162113E2,2.5133215E2,6.097209E2,4.5658623E1,9.566711E0,6.8140366E1,3.0320508E2,4.025241E1,5.3986206E0,1.02078E2,5.1406372E1,5.8781134E2,2.5432812E2,2.24318E2,1.1090765E3,3.543724E1,1.6937354E2,1.2717093E2,1.9558554E2,7.0070257E0,5.8406143E0,2.3977966E0,3.9978638E0,1.3521099E0,8.219162E0,1.3647717E2,1.7197762E1,2.4039323E2,5.3863525E1,1.3169078E2,3.2430225E2,1.3602833E1,1.5860115E1,7.678406E0,1.9189697E1,3.5038624E0,4.3138123E-1,4.1347974E2,1.7152637E2,0E0,0E0,0E0,0E0,0E0,0E0,0E0,0E0,0E0,0E0,0E0,0E0,0E0,0E0,0E0,0E0,0E0,0E0,0E0,0E0,0E0,0E0,0E0,0E0,0E0,0E0,0E0,0E0,0E0,0E0,0E0,0E0,0E0,0E0,0E0,0E0,0E0,0E0,0E0,0E0,0E0,0E0,0E0,0E0,0E0,0E0,0E0,0E0,0E0,0E0,0E0,0E0,0E0,0E0,0E0,0E0,0E0,0E0,0E0,0E0,0E0,0E0,0E0,0E0],"parents":[2147483647,0,0,1,1,2,2,3,3,4,4,5,5,6,6,7,7,8,8,9,9,10,10,11,11,12,12,13,13,14,14,15,15,16,16,17,17,18,18,19,19,20,20,21,21,22,22,23,23,24,24,25,25,26,26,27,27,28,28,29,29,30,30,31,31,32,32,33,33,34,34,35,35,36,36,37,37,38,38,39,39,40,40,41,41,42,42,43,43,44,44,45,45,46,46,47,47,48,48,49,49,50,50,51,51,52,52,53,53,54,54,55,55,56,56,57,57,58,58,59,59,60,60,61,61,62,62],"right_children":[2,4,6,8,10,12,14,16,18,20,22,24,26,28,30,32,34,36,38,40,42,44,46,48,50,52,54,56,58,60,62,64,66,68,70,72,74,76,78,80,82,84,86,88,90,92,94,96,98,100,102,104,106,108,110,112,114,116,118,120,122,124,126,-1,-1,-1,-1,-1,-1,-1,-1,-1,-1,-1,-1,-1,-1,-1,-1,-1,-1,-1,-1,-1,-1,-1,-1,-1,-1,-1,-1,-1,-1,-1,-1,-1,-1,-1,-1,-1,-1,-1,-1,-1,-1,-1,-1,-1,-1,-1,-1,-1,-1,-1,-1,-1,-1,-1,-1,-1,-1,-1,-1,-1,-1,-1,-1],"split_conditions":[3.8622844E-1,5.1778436E-1,1.8915352E-1,6.447167E-1,5.820432E-1,1.2092131E-1,4.5357144E-1,1.07407406E-1,1.5561225E-1,3.5902703E-1,2.2568093E-1,2.9316777E-2,1.9753087E-1,5.892242E-1,1.6319445E-1,5.030303E-1,6.223162E-1,1.1527377E-2,4.1884817E-2,2.704E-1,8.746269E-1,5.3425765E-1,1.5714286E-1,1.356784E-1,3.9344263E-1,4.3898574E-1,8.4584177E-1,3.8551858E-1,8.28125E-1,7.180851E-2,1.826923E-1,3.869977E-3,3.0650315E-1,4.7107437E-1,3.6511627E-1,1.2871288E-1,2.2687882E-3,2.9381442E-1,3.5443038E-2,2.0302376E-1,4.9583334E-1,3.165241E-1,7.5E-1,1.5352698E-1,5.505108E-1,1.6945606E-1,3.5822144E-1,1.2793747E-1,6.394316E-1,8.086253E-3,4.9679488E-1,5.2550912E-2,3.8437977E-1,1.7741308E-1,7.129337E-2,5.579428E-1,4.6494466E-1,9.6797264E-1,7.7434975E-1,1.1640212E-1,1.5163934E-1,5.6804232E-2,8.713693E-2,-3.218602E-1,2.8191075E-1,5.223959E-1,-7.6115265E-2,3.7495637E-1,-3.7684813E-1,-5.4797816E-1,3.840095E-1,-3.16276E-1,3.482545E-1,-4.0324315E-1,4.3955922E-2,-4.3430907E-1,1.2965605E-1,1.925872E-1,-2.0418732E-1,-4.4807878E-1,-1.9775836E-2,-1.6787826E-1,4.1189212E-1,1.2124021E-1,-3.900784E-1,4.731403E-1,-3.017095E-1,2.6131433E-1,-4.0337935E-1,4.496676E-1,-1.3778324E-1,-1.2048285E-1,3.1635445E-1,-4.7709092E-1,-2.972584E-1,-4.4183674E-1,-4.8003886E-2,-2.922419E-2,5.5349E-1,-1.7431458E-2,-4.8442423E-1,4.609845E-1,-2.5119343E-1,4.694638E-1,-2.1283527E-1,4.5239684E-1,-1.0936038E-1,2.4831267E-1,-4.6731722E-1,3.9745167E-1,-3.34603E-1,4.192438E-1,-4.0124568E-1,2.078651E-1,-4.975486E-1,-4.7802153E-1,1.7076282E-1,3.2816485E-1,-4.323343E-1,6.1743185E-3,5.265271E-1,-2.1624534E-1,-5.1740867E-1,4.4549423E-1,-2.4167806E-1,-3.15472E-1,4.534933E-1],"split_indices":[3,36,100,0,2,6,0,3,3,4,7,25,25,35,4,23,65,66,9,17,22,33,48,49,31,3,1,107,93,26,52,140,5,2,9,4,186,31,21,53,34,109,52,21,80,4,3,81,2,84,3,16,90,114,12,76,38,96,31,53,24,19,93,0,0,0,0,0,0,0,0,0,0,0,0,0,0,0,0,0,0,0,0,0,0,0,0,0,0,0,0,0,0,0,0,0,0,0,0,0,0,0,0,0,0,0,0,0,0,0,0,0,0,0,0,0,0,0,0,0,0,0,0,0,0,0,0],"split_type":[0,0,0,0,0,0,0,0,0,0,0,0,0,0,0,0,0,0,0,0,0,0,0,0,0,0,0,0,0,0,0,0,0,0,0,0,0,0,0,0,0,0,0,0,0,0,0,0,0,0,0,0,0,0,0,0,0,0,0,0,0,0,0,0,0,0,0,0,0,0,0,0,0,0,0,0,0,0,0,0,0,0,0,0,0,0,0,0,0,0,0,0,0,0,0,0,0,0,0,0,0,0,0,0,0,0,0,0,0,0,0,0,0,0,0,0,0,0,0,0,0,0,0,0,0,0,0],"sum_hessian":[3.408345E4,2.2786729E4,1.1296722E4,1.77877E4,4.999031E3,3.250908E3,8.045814E3,1.148594E3,1.6639104E4,4.6882715E3,3.1075912E2,9.4301086E2,2.3078972E3,4.137284E2,7.6320854E3,1.4619287E2,1.0024011E3,9.825361E3,6.8137437E3,4.1321646E3,5.561069E2,3.4118023E1,2.766411E2,5.675539E1,8.8625543E2,1.2323907E3,1.0755065E3,3.536052E1,3.7836786E2,5.5443947E1,7.5766416E3,1.1652213E2,2.9670742E1,9.757471E2,2.665404E1,5.182931E2,9.307067E3,1.1365886E3,5.677155E3,8.9250374E1,4.0429143E3,2.9187054E2,2.6423633E2,5.463539E0,2.8654486E1,3.0573356E0,2.7358377E2,6.659214E0,5.0096176E1,8.345403E2,5.1715164E1,1.8991316E2,1.0424777E3,3.721503E2,7.0335614E2,2.202348E1,1.3337038E1,3.6716464E2,1.1203223E1,7.2265906E0,4.8217354E1,3.2008417E2,7.256557E3,1.0633416E2,1.0187978E1,2.8497393E1,1.17335E0,9.5997296E2,1.5774132E1,2.0351555E1,6.3024836E0,1.8612666E2,3.3216638E2,9.191358E3,1.1570981E2,1.069542E3,6.704664E1,7.2634143E2,4.9508135E3,6.5592445E1,2.3657928E1,4.537009E1,3.9975442E3,5.3057194E1,2.3881334E2,2.3137686E2,3.2859444E1,1.1771246E0,4.2864146E0,2.7478243E1,1.1762425E0,1.1718736E0,1.885462E0,2.5542783E2,1.8155941E1,5.4662232E0,1.1929905E0,2.1778703E0,4.791831E1,6.082035E1,7.737199E2,4.9074543E1,2.6406238E0,7.802546E1,1.1188771E2,1.0272391E3,1.5238469E1,3.482744E2,2.3875864E1,5.8646233E1,6.447099E2,2.0819319E1,1.204162E0,3.235018E0,1.010202E1,3.6597424E2,1.1903874E0,3.725248E0,7.4779754E0,1.4345548E0,5.792036E0,2.4399357E0,4.577742E1,1.8320152E2,1.3688266E2,2.5547579E1,7.23101E3],"tree_param":{"num_deleted":"0","num_feature":"187","num_nodes":"127","size_leaf_vector":"1"}},{"base_weights":[3.9909044E-3,-5.578792E-1,5.277829E-1,7.7425385E-1,-7.082198E-1,1.0828355E-1,1.1439872E0,1.3514453E-1,1.1398433E0,-7.8756654E-1,1.2081703E0,-3.56626E-1,8.382647E-1,-1.1578876E0,1.2415829E0,-3.9403152E-1,1.2382716E0,1.2022305E0,-1.4380885E0,-1.1199422E0,-4.5449898E-1,1.3523844E0,-5.498147E-1,1.1588136E0,-5.247835E-1,1.0486897E0,-8.17458E-1,6.275615E-1,-1.3425138E0,-1.1627363E0,1.2662016E0,-9.4437355E-1,1.4147333E0,1.3357207E0,-1.4509786E0,1.2613523E0,-1.1119529E0,1.4433289E-1,-4.6686062E-1,-3.1464893E-1,-1.2075351E0,8.278514E-1,-6.2509763E-1,-3.921264E-1,1.3748968E0,-1.336823E0,6.7472464E-1,-5.651052E-1,1.4544679E0,6.2105906E-1,-8.221863E-1,1.1571226E0,-1.198892E0,-1.151164E0,7.8765315E-1,8.7097394E-1,-3.417949E-1,-5.9629E-1,-1.3786359E0,-1.3975334E0,1.5374807E0,1.2795684E0,-5.9426343E-1,2.9030535E-1,-3.5956308E-1,4.6802095E-1,3.886213E-2,-3.407809E-1,4.2304495E-1,-5.8400536E-1,1.5501027E-1,3.8822564E-1,9.033047E-2,-3.1195212E-2,-5.569652E-1,1.559361E-1,-1.8226008E-1,-2.1375401E-1,-3.8559088E-1,-2.8967178E-1,3.5915205E-1,1.01262614E-1,-2.3626249E-1,-1.02755144E-1,4.1464224E-1,-4.3296033E-1,8.2724065E-2,3.5459262E-1,-2.2531411E-1,-3.297434E-1,3.939573E-1,5.1772135E-1,-3.0526686E-1,-7.77519E-2,2.8010002E-1,-2.7044913E-1,1.0026448E-2,3.697189E-1,5.0873812E-2,3.355304E-1,-3.822056E-1,-1.67314E-1,-4.0024677E-1,4.087028E-1,-2.9616517E-1,1.134354E-2,3.6995187E-1,3.063018E-1,-4.1385952E-1,-4.1637385E-1,-2.493581E-2,2.5815156E-1,-4.4485542E-1,5.8446413E-1,-1.7544322E-2,-2.1731602E-1,3.8722044E-1,2.0195699E-1,-3.8060343E-1],"categories":[],"categories_nodes":[],"categories_segments":[],"categories_sizes":[],"default_left":[0,0,0,0,0,0,0,0,0,0,0,0,0,0,0,0,0,0,0,0,0,0,0,0,0,0,0,0,0,0,0,0,0,0,0,0,0,0,0,0,0,0,0,0,0,0,0,0,0,0,0,0,0,0,0,0,0,0,0,0,0,0,0,0,0,0,0,0,0,0,0,0,0,0,0,0,0,0,0,0,0,0,0,0,0,0,0,0,0,0,0,0,0,0,0,0,0,0,0,0,0,0,0,0,0,0,0,0,0,0,0,0,0,0,0,0,0,0,0],"id":2,"left_children":[1,3,5,7,9,11,13,15,17,19,21,23,25,27,29,31,33,35,37,39,41,43,45,47,49,51,53,55,57,59,61,63,65,67,69,71,73,-1,-1,75,77,79,81,-1,83,85,87,89,91,93,95,97,99,101,103,105,-1,107,109,111,113,115,117,-1,-1,-1,-1,-1,-1,-1,-1,-1,-1,-1,-1,-1,-1,-1,-1,-1,-1,-1,-1,-1,-1,-1,-1,-1,-1,-1,-1,-1,-1,-1,-1,-1,-1,-1,-1,-1,-1,-1,-1,-1,-1,-1,-1,-1,-1,-1,-1,-1,-1,-1,-1,-1,-1,-1,-1],"loss_changes":[8.926149E3,2.9311538E3,4.0574507E3,3.4668787E2,2.0004639E3,3.1700933E3,1.4297109E3,3.164663E2,1.5357605E2,1.3973862E3,1.3338757E2,1.4548707E3,1.2670854E3,8.625537E1,3.6251465E2,3.662335E2,4.798889E1,1.2760181E2,5.908985E0,4.4538965E2,1.3806775E3,3.0763916E1,3.9814014E1,2.914947E2,1.7512295E3,7.873535E2,2.2071426E2,1.1728798E1,5.5162964E0,4.1675095E1,1.5092285E2,1.3804034E2,1.5845596E1,3.2893707E1,7.467066E0,2.7895264E1,1.7451275E1,0E0,0E0,1.521593E2,2.1848633E2,4.920782E2,8.710586E2,0E0,6.44812E0,4.6719246E0,1.2793282E1,8.591204E1,3.2839233E2,2.9170383E2,2.768418E2,2.2852832E2,2.7350357E1,3.6194244E1,7.399501E1,6.7456093E0,0E0,1.739364E1,2.5710144E0,1.2426765E1,3.695406E0,1.3509473E2,3.825641E1,0E0,0E0,0E0,0E0,0E0,0E0,0E0,0E0,0E0,0E0,0E0,0E0,0E0,0E0,0E0,0E0,0E0,0E0,0E0,0E0,0E0,0E0,0E0,0E0,0E0,0E0,0E0,0E0,0E0,0E0,0E0,0E0,0E0,0E0,0E0,0E0,0E0,0E0,0E0,0E0,0E0,0E0,0E0,0E0,0E0,0E0,0E0,0E0,0E0,0E0,0E0,0E0,0E0,0E0,0E0,0E0],"parents":[2147483647,0,0,1,1,2,2,3,3,4,4,5,5,6,6,7,7,8,8,9,9,10,10,11,11,12,12,13,13,14,14,15,15,16,16,17,17,18,18,19,19,20,20,21,21,22,22,23,23,24,24,25,25,26,26,27,27,28,28,29,29,30,30,31,31,32,32,33,33,34,34,35,35,36,36,39,39,40,40,41,41,42,42,44,44,45,45,46,46,47,47,48,48,49,49,50,50,51,51,52,52,53,53,54,54,55,55,57,57,58,58,59,59,60,60,61,61,62,62],"right_children":[2,4,6,8,10,12,14,16,18,20,22,24,26,28,30,32,34,36,38,40,42,44,46,48,50,52,54,56,58,60,62,64,66,68,70,72,74,-1,-1,76,78,80,82,-1,84,86,88,90,92,94,96,98,100,102,104,106,-1,108,110,112,114,116,118,-1,-1,-1,-1,-1,-1,-1,-1,-1,-1,-1,-1,-1,-1,-1,-1,-1,-1,-1,-1,-1,-1,-1,-1,-1,-1,-1,-1,-1,-1,-1,-1,-1,-1,-1,-1,-1,-1,-1,-1,-1,-1,-1,-1,-1,-1,-1,-1,-1,-1,-1,-1,-1,-1,-1,-1],"split_conditions":[1.75E-1,7.868657E-1,4.1849148E-1,3.84E-1,8.3602154E-1,5.394163E-1,5.1623374E-1,2.4793388E-2,2.4132492E-1,1.7636022E-1,4.0593952E-1,4.1493777E-2,4.3619138E-1,5.8450705E-1,8.839779E-2,5.30303E-1,2.946565E-1,6.25E-1,2.7049646E-1,8.695652E-3,5.5555556E-2,1.5831135E-2,7.545243E-1,5.4054055E-2,8.4230036E-1,6.182873E-1,8.5918057E-1,6.070693E-1,2.7272727E-2,4.347826E-1,5.416667E-1,3.6526945E-1,2.3266067E-1,1.1627907E-2,3.7293234E-1,8.322148E-1,7.352308E-1,1.4433289E-1,-4.6686062E-1,9.994464E-1,4.7727272E-2,6.837607E-2,6.203474E-2,-3.921264E-1,1.4248021E-1,7.8147525E-1,8.111111E-1,1.594203E-1,2.4631073E-1,2.7402198E-1,5.0788355E-1,3.403056E-1,2.4772394E-1,8.436975E-2,4.617284E-1,4.6262625E-1,-3.417949E-1,7.3131037E-1,9.859604E-1,1.2034384E-1,6.275583E-1,1.9083159E-1,6.0708535E-1,2.9030535E-1,-3.5956308E-1,4.6802095E-1,3.886213E-2,-3.407809E-1,4.2304495E-1,-5.8400536E-1,1.5501027E-1,3.8822564E-1,9.033047E-2,-3.1195212E-2,-5.569652E-1,1.559361E-1,-1.8226008E-1,-2.1375401E-1,-3.8559088E-1,-2.8967178E-1,3.5915205E-1,1.01262614E-1,-2.3626249E-1,-1.02755144E-1,4.1464224E-1,-4.3296033E-1,8.2724065E-2,3.5459262E-1,-2.2531411E-1,-3.297434E-1,3.939573E-1,5.1772135E-1,-3.0526686E-1,-7.77519E-2,2.8010002E-1,-2.7044913E-1,1.0026448E-2,3.697189E-1,5.0873812E-2,3.355304E-1,-3.822056E-1,-1.67314E-1,-4.0024677E-1,4.087028E-1,-2.9616517E-1,1.134354E-2,3.6995187E-1,3.063018E-1,-4.1385952E-1,-4.1637385E-1,-2.493581E-2,2.5815156E-1,-4.4485542E-1,5.8446413E-1,-1.7544322E-2,-2.1731602E-1,3.8722044E-1,2.0195699E-1,-3.8060343E-1],"split_indices":[99,0,3,32,2,36,0,104,115,51,16,22,5,35,92,2,80,3,19,71,19,8,3,9,0,2,19,103,109,62,12,0,33,7,35,42,3,0,0,0,29,6,68,0,4,57,15,125,5,40,91,4,10,1,4,53,0,32,23,26,83,4,25,0,0,0,0,0,0,0,0,0,0,0,0,0,0,0,0,0,0,0,0,0,0,0,0,0,0,0,0,0,0,0,0,0,0,0,0,0,0,0,0,0,0,0,0,0,0,0,0,0,0,0,0,0,0,0,0],"split_type":[0,0,0,0,0,0,0,0,0,0,0,0,0,0,0,0,0,0,0,0,0,0,0,0,0,0,0,0,0,0,0,0,0,0,0,0,0,0,0,0,0,0,0,0,0,0,0,0,0,0,0,0,0,0,0,0,0,0,0,0,0,0,0,0,0,0,0,0,0,0,0,0,0,0,0,0,0,0,0,0,0,0,0,0,0,0,0,0,0,0,0,0,0,0,0,0,0,0,0,0,0,0,0,0,0,0,0,0,0,0,0,0,0,0,0,0,0,0,0],"sum_hessian":[3.0327783E4,1.4632007E4,1.5695775E4,1.48344E3,1.3148567E4,9.339089E3,6.3566865E3,5.4029205E2,9.431478E2,1.2626371E4,5.221964E2,5.7057373E3,3.6333516E3,2.581089E2,6.0985776E3,3.655693E2,1.7472278E2,9.2138354E2,2.1764269E1,6.318567E3,6.3078037E3,4.828196E2,3.9376793E1,5.6930005E2,5.136437E3,3.2239836E3,4.0936795E2,2.3963924E1,2.3414497E2,6.134421E1,6.0372334E3,2.8065424E2,8.4915085E1,1.6909854E2,5.6242332E0,8.9887445E2,2.2509117E1,1.0836134E0,2.0680655E1,6.203075E2,5.6982593E3,7.4018134E2,5.5676226E3,3.573781E0,4.7924582E2,2.3914991E1,1.5461799E1,8.3208954E1,4.860911E2,1.0582172E3,4.07822E3,3.0760664E3,1.4791725E2,3.3914236E2,7.022561E1,2.1507954E1,2.4559703E0,1.1619172E1,2.225258E2,5.6880604E1,4.4636097E0,5.9944775E3,4.275623E1,3.2600624E1,2.480536E2,7.609587E1,8.819207E0,4.5262966E0,1.6457225E2,4.500994E0,1.1232387E0,8.6890735E2,2.9967058E1,1.0047447E1,1.2461671E1,1.6095834E2,4.5934915E2,7.750334E2,4.923226E3,1.2612162E2,6.140597E2,8.037193E2,4.7639033E3,1.8185487E0,4.7742728E2,2.253353E1,1.3814622E0,1.15305395E1,3.9312594E0,6.511126E1,1.809769E1,4.3829614E2,4.779494E1,2.7737186E2,7.808453E2,3.7322083E3,3.4601166E2,2.857974E3,2.1809224E2,4.208746E0,1.4370851E2,8.0882965E1,2.582594E2,5.3224384E1,1.7001225E1,6.851628E0,1.4656325E1,3.692029E0,7.9271426E0,2.2087288E2,1.6529309E0,1.740133E0,5.5140472E1,3.3744535E0,1.089156E0,3.2863087E1,5.9616143E3,1.4849956E1,2.7906277E1],"tree_param":{"num_deleted":"0","num_feature":"187","num_nodes":"119","size_leaf_vector":"1"}},{"base_weights":[6.9213514E-3,-7.509186E-1,2.79841E-1,-1.03348576E-1,-9.0580183E-1,-1.0707068E-1,7.403744E-1,8.584538E-1,-5.740544E-1,1.4006594E-1,-1.0089083E0,-4.931552E-1,7.96642E-1,8.6834866E-1,-9.071087E-1,-3.2091022E-1,1.4341793E0,-9.759828E-1,1.1723911E-1,5.043244E-1,-9.8221684E-1,-6.8404496E-2,-1.0865487E0,-7.996278E-1,-8.933695E-2,9.3833196E-1,-9.75054E-1,1.0143152E0,-2.0854091E-2,1.0305592E0,-1.0265994E0,8.860535E-1,-8.614982E-1,-5.457286E-1,1.7427208E0,-1.0806713E0,1.2578216E0,1.3381447E0,-1.3764368E0,7.1798056E-1,-8.246016E-1,-1.1986581E0,1.5008807E0,-4.7301063E-1,1.084081E0,-1.0976139E0,1.1769458E0,8.988104E-1,-8.6875874E-1,3.6429253E-1,-4.5652568E-1,1.2058467E0,6.701892E-1,7.721474E-1,-1.3707597E0,5.12978E-1,1.1396929E0,3.1792787E-1,-1.068792E0,-3.2515585E-1,1.3210758E0,-1.846678E-1,-1.1330242E0,5.2303034E-1,-3.12753E-1,-2.947125E-1,6.248776E-1,-3.889089E-1,6.2952554E-1,5.553287E-1,-2.044539E-1,-3.5471275E-1,3.3011886E-1,4.122553E-1,-2.1359025E-1,-3.1559274E-1,4.5600328E-1,-4.4151798E-1,2.106852E-2,3.108628E-1,5.0871663E-2,9.5805205E-2,-3.5656175E-1,-3.9431483E-1,-1.0906731E-1,1.2536475E-1,4.7638363E-1,1.9946827E-1,-2.257028E-1,4.0684235E-1,-6.606334E-2,-3.330132E-1,1.8292743E-1,-1.7260784E-1,7.7601695E-1,-3.035715E-1,3.6496148E-1,3.1295544E-1,-2.6997417E-1,1.781495E-1,-3.228259E-1,-2.3213689E-1,2.0118108E-1,5.0722748E-2,3.921043E-1,-2.9988813E-1,3.7172413E-1,-2.822282E-1,3.7837026E-1,-6.153837E-1,-3.827084E-1,-2.7395904E-1,2.2558148E-1,-2.5066555E-1,3.5406205E-1,2.2979067E-1,-1.1657946E-1,3.750249E-1,-3.436242E-1,-5.2832514E-2,4.292827E-1,-3.0666813E-1,1.2120677E-1,-4.1620612E-1,-2.7603588E-1],"categories":[],"categories_nodes":[],"categories_segments":[],"categories_sizes":[],"default_left":[0,0,0,0,0,0,0,0,0,0,0,0,0,0,0,0,0,0,0,0,0,0,0,0,0,0,0,0,0,0,0,0,0,0,0,0,0,0,0,0,0,0,0,0,0,0,0,0,0,0,0,0,0,0,0,0,0,0,0,0,0,0,0,0,0,0,0,0,0,0,0,0,0,0,0,0,0,0,0,0,0,0,0,0,0,0,0,0,0,0,0,0,0,0,0,0,0,0,0,0,0,0,0,0,0,0,0,0,0,0,0,0,0,0,0,0,0,0,0,0,0,0,0,0,0],"id":3,"left_children":[1,3,5,7,9,11,13,15,17,19,21,23,25,27,29,31,33,35,37,39,41,43,45,47,49,51,53,55,57,59,61,63,65,67,69,71,73,75,77,79,81,83,85,87,89,91,93,95,97,99,101,103,105,107,109,111,113,115,117,-1,119,121,123,-1,-1,-1,-1,-1,-1,-1,-1,-1,-1,-1,-1,-1,-1,-1,-1,-1,-1,-1,-1,-1,-1,-1,-1,-1,-1,-1,-1,-1,-1,-1,-1,-1,-1,-1,-1,-1,-1,-1,-1,-1,-1,-1,-1,-1,-1,-1,-1,-1,-1,-1,-1,-1,-1,-1,-1,-1,-1,-1,-1,-1,-1],"loss_changes":[5.498279E3,7.058716E2,3.4827075E3,6.1605634E2,6.126494E2,3.7066213E3,1.8822012E3,3.040887E2,2.5393234E2,2.09225E2,3.774756E2,9.211033E2,7.992052E2,1.0748325E3,1.5009583E2,9.70062E1,1.8462628E2,1.3647015E2,6.159471E2,1.1022913E2,6.922311E1,1.848642E2,1.2091406E2,4.9762866E2,5.3530054E2,2.1044751E2,1.6420872E2,4.4653027E2,4.152367E2,2.4705708E1,5.4162476E1,7.808142E1,3.848565E1,8.469145E1,6.966797E1,1.2384369E2,7.01276E0,8.236276E1,2.1049774E1,5.797232E1,2.2839382E1,1.0727783E1,3.2671165E-1,9.373087E1,3.6859688E1,1.0155615E2,6.007777E1,1.0200223E2,2.4317139E2,4.759916E2,6.356001E2,1.5427881E2,1.4005588E3,3.822818E1,9.85376E0,4.862792E2,4.562788E2,2.8010297E2,5.220053E1,0E0,5.8055725E0,3.4577938E1,2.7883179E1,0E0,0E0,0E0,0E0,0E0,0E0,0E0,0E0,0E0,0E0,0E0,0E0,0E0,0E0,0E0,0E0,0E0,0E0,0E0,0E0,0E0,0E0,0E0,0E0,0E0,0E0,0E0,0E0,0E0,0E0,0E0,0E0,0E0,0E0,0E0,0E0,0E0,0E0,0E0,0E0,0E0,0E0,0E0,0E0,0E0,0E0,0E0,0E0,0E0,0E0,0E0,0E0,0E0,0E0,0E0,0E0,0E0,0E0,0E0,0E0,0E0,0E0],"parents":[2147483647,0,0,1,1,2,2,3,3,4,4,5,5,6,6,7,7,8,8,9,9,10,10,11,11,12,12,13,13,14,14,15,15,16,16,17,17,18,18,19,19,20,20,21,21,22,22,23,23,24,24,25,25,26,26,27,27,28,28,29,29,30,30,31,31,32,32,33,33,34,34,35,35,36,36,37,37,38,38,39,39,40,40,41,41,42,42,43,43,44,44,45,45,46,46,47,47,48,48,49,49,50,50,51,51,52,52,53,53,54,54,55,55,56,56,57,57,58,58,60,60,61,61,62,62],"right_children":[2,4,6,8,10,12,14,16,18,20,22,24,26,28,30,32,34,36,38,40,42,44,46,48,50,52,54,56,58,60,62,64,66,68,70,72,74,76,78,80,82,84,86,88,90,92,94,96,98,100,102,104,106,108,110,112,114,116,118,-1,120,122,124,-1,-1,-1,-1,-1,-1,-1,-1,-1,-1,-1,-1,-1,-1,-1,-1,-1,-1,-1,-1,-1,-1,-1,-1,-1,-1,-1,-1,-1,-1,-1,-1,-1,-1,-1,-1,-1,-1,-1,-1,-1,-1,-1,-1,-1,-1,-1,-1,-1,-1,-1,-1,-1,-1,-1,-1,-1,-1,-1,-1,-1,-1],"split_conditions":[1.7924528E-1,5.2247178E-2,3.2156864E-1,8.06331E-1,8.538012E-1,5.074257E-1,6.179487E-1,7.194245E-2,1.7444721E-1,1.7801185E-1,1.3227513E-2,1.4190046E-1,5.5017054E-1,3.227361E-1,1.3283132E-1,2.3483366E-2,1.02725364E-1,4.633908E-1,1.4666666E-1,1.8176563E-1,8.8844174E-1,1.01604275E-1,6.258477E-3,4.5620438E-2,1.4600842E-1,2.580645E-1,1.8881118E-1,1.2944984E-1,1.237785E-1,2.4096143E-1,6.545454E-1,1.1516735E-1,4.4099623E-1,5.060467E-3,1.9148937E-1,6.764706E-1,2.3077714E-1,3.9750386E-2,2.8519452E-2,7.5100404E-1,1.175E-1,2.0092379E-1,9.163991E-1,5.124755E-2,4.7962382E-1,5.3649634E-1,7.459678E-2,9.8130845E-2,1.6981132E-1,5.2159584E-1,3.1283423E-1,2.0070423E-1,5.7758033E-1,5.3425765E-1,5.790408E-1,3.90625E-2,1.5243903E-1,9.994464E-1,2.750153E-1,-3.2515585E-1,4.5094546E-2,6.2294763E-1,3.0692032E-1,5.2303034E-1,-3.12753E-1,-2.947125E-1,6.248776E-1,-3.889089E-1,6.2952554E-1,5.553287E-1,-2.044539E-1,-3.5471275E-1,3.3011886E-1,4.122553E-1,-2.1359025E-1,-3.1559274E-1,4.5600328E-1,-4.4151798E-1,2.106852E-2,3.108628E-1,5.0871663E-2,9.5805205E-2,-3.5656175E-1,-3.9431483E-1,-1.0906731E-1,1.2536475E-1,4.7638363E-1,1.9946827E-1,-2.257028E-1,4.0684235E-1,-6.606334E-2,-3.330132E-1,1.8292743E-1,-1.7260784E-1,7.7601695E-1,-3.035715E-1,3.6496148E-1,3.1295544E-1,-2.6997417E-1,1.781495E-1,-3.228259E-1,-2.3213689E-1,2.0118108E-1,5.0722748E-2,3.921043E-1,-2.9988813E-1,3.7172413E-1,-2.822282E-1,3.7837026E-1,-6.153837E-1,-3.827084E-1,-2.7395904E-1,2.2558148E-1,-2.5066555E-1,3.5406205E-1,2.2979067E-1,-1.1657946E-1,3.750249E-1,-3.436242E-1,-5.2832514E-2,4.292827E-1,-3.0666813E-1,1.2120677E-1,-4.1620612E-1,-2.7603588E-1],"split_indices":[50,30,3,1,0,36,84,6,100,69,59,3,2,11,30,26,2,3,7,110,1,52,183,60,8,10,6,98,129,67,84,108,115,121,18,95,107,5,30,0,27,8,1,20,2,6,8,4,1,70,10,87,17,33,2,8,4,0,20,0,30,33,67,0,0,0,0,0,0,0,0,0,0,0,0,0,0,0,0,0,0,0,0,0,0,0,0,0,0,0,0,0,0,0,0,0,0,0,0,0,0,0,0,0,0,0,0,0,0,0,0,0,0,0,0,0,0,0,0,0,0,0,0,0,0],"split_type":[0,0,0,0,0,0,0,0,0,0,0,0,0,0,0,0,0,0,0,0,0,0,0,0,0,0,0,0,0,0,0,0,0,0,0,0,0,0,0,0,0,0,0,0,0,0,0,0,0,0,0,0,0,0,0,0,0,0,0,0,0,0,0,0,0,0,0,0,0,0,0,0,0,0,0,0,0,0,0,0,0,0,0,0,0,0,0,0,0,0,0,0,0,0,0,0,0,0,0,0,0,0,0,0,0,0,0,0,0,0,0,0,0,0,0,0,0,0,0,0,0,0,0,0,0],"sum_hessian":[2.6581625E4,7.0376934E3,1.9543932E4,1.3586821E3,5.679011E3,1.0621321E4,8.92261E3,4.4617673E2,9.125054E2,5.0958994E2,5.169421E3,7.442281E3,3.1790403E3,8.279911E3,6.4269946E2,1.4650543E2,2.9967133E2,5.767579E2,3.3574747E2,3.8513696E2,1.2445298E2,3.9434708E2,4.775074E3,4.230567E3,3.2117139E3,2.9440618E3,2.3497856E2,7.112261E3,1.1676498E3,3.6888523E1,6.058109E2,4.512233E1,1.01383095E2,4.0299713E1,2.593716E2,5.5143097E2,2.5326908E1,1.8479955E2,1.5094792E2,3.3218942E2,5.294754E1,1.1495049E2,9.502484E0,2.9231342E2,1.0203367E2,4.752357E3,2.2716976E1,1.6499127E2,4.065576E3,1.436747E3,1.7749669E3,1.4720061E3,1.4720555E3,4.3215084E1,1.9176347E2,1.4238649E3,5.6883965E3,8.8291406E2,2.8473572E2,4.1262736E0,3.276225E1,6.829122E1,5.375197E2,3.130228E1,1.382005E1,9.8025246E1,3.3578506E0,3.1785892E1,8.513821E0,2.4849893E2,1.0872668E1,5.2730054E2,2.4130459E1,2.4199713E1,1.1271951E0,1.2728949E1,1.720706E2,1.4160338E2,9.344534E0,2.0964671E2,1.22542694E2,1.2808749E1,4.0138794E1,1.0045583E2,1.4494657E1,1.1386379E0,8.363847E0,5.7341816E1,2.3497159E2,8.439095E1,1.7642714E1,4.718356E3,3.4001072E1,1.0391979E1,1.2324997E1,2.3212683E1,1.417786E2,6.466543E1,4.0009104E3,1.2397654E3,1.9698158E2,1.3853365E3,3.8963043E2,1.3110506E2,1.3409011E3,3.7388037E2,1.0981752E3,9.393415E0,3.382167E1,2.098264E1,1.7078084E2,2.0393109E2,1.2199338E3,1.1393411E2,5.574462E3,5.402392E2,3.426749E2,8.617663E0,2.7611807E2,2.1985831E0,3.0563667E1,2.788351E1,4.0407707E1,2.4241814E2,2.9510156E2],"tree_param":{"num_deleted":"0","num_feature":"187","num_nodes":"125","size_leaf_vector":"1"}},{"base_weights":[7.3381593E-3,-1.9737521E-1,7.567364E-1,-4.0520054E-1,8.3754474E-1,1.080081E0,-4.8751825E-1,4.0314934E-1,-5.0039697E-1,9.138981E-1,-1.0765864E0,-3.894684E-1,1.0973425E0,-6.6412455E-1,8.7928593E-1,1.9378093E-3,7.26657E-1,-6.280223E-1,-1.2305415E-1,1.0477067E0,5.180064E-1,4.6094832E-1,-1.1817861E0,6.9291E-1,1.1600345E0,6.8154424E-2,-8.983398E-1,1.1495664E0,-9.03044E-1,-2.5700304E-1,7.0437485E-1,8.3636934E-1,-1.1612467E0,1.3112468E-1,-7.036973E-1,6.064081E-1,-4.142316E-1,-1.0605671E-1,1.0891647E0,-1.2111769E0,1.0105153E0,-1.1945283E0,-4.050035E-2,-1.2846184E0,9.5962113E-1,-3.482115E-1,1.1642984E0,5.2164346E-1,-5.208298E-1,1.0101563E0,-9.6803594E-1,1.1919175E0,-2.2481988E-1,4.2261E-1,-1.3036565E0,-1.5357205E-1,2.5685164E-1,-1.7240986E-1,2.5249478E-1,2.787538E-1,-2.5073892E-1,8.4612094E-2,-4.018503E-1,-1.636633E-1,1.7481184E-1,-1.9199821E-1,-3.420145E-1,-1.2839304E-1,3.336024E-1,-1.896044E-1,1.4594895E-1,-4.5236686E-1,2.0937066E-1,3.3256543E-1,-9.4471306E-2,-4.5132777E-1,2.5850996E-1,3.5004783E-1,-3.5965052E-1,-3.6386514E-1,-1.3996966E-1,1.0705391E-1,-5.802267E-1,3.0809155E-1,-2.7992833E-1,2.3081163E-1,-3.6649638E-1,-3.0141652E-1,3.4972173E-1,2.229271E-1,-3.5867402E-1,1.8795711E-1,-2.8103498E-1,-1.388024E-1,3.6990908E-1,-3.5114476E-1,-2.1027449E-1,3.6811137E-1,-1.6882429E-1,-2.1942055E-1,3.2226363E-1,-3.3512045E-2,-4.3441167E-1],"categories":[],"categories_nodes":[],"categories_segments":[],"categories_sizes":[],"default_left":[0,0,0,0,0,0,0,0,0,0,0,0,0,0,0,0,0,0,0,0,0,0,0,0,0,0,0,0,0,0,0,0,0,0,0,0,0,0,0,0,0,0,0,0,0,0,0,0,0,0,0,0,0,0,0,0,0,0,0,0,0,0,0,0,0,0,0,0,0,0,0,0,0,0,0,0,0,0,0,0,0,0,0,0,0,0,0,0,0,0,0,0,0,0,0,0,0,0,0,0,0,0,0],"id":4,"left_children":[1,3,5,7,9,11,13,15,17,19,21,-1,23,25,27,29,31,33,35,37,39,-1,41,43,45,47,49,51,53,55,57,59,61,63,65,67,69,71,73,75,77,79,-1,81,83,85,87,89,91,93,95,97,-1,99,101,-1,-1,-1,-1,-1,-1,-1,-1,-1,-1,-1,-1,-1,-1,-1,-1,-1,-1,-1,-1,-1,-1,-1,-1,-1,-1,-1,-1,-1,-1,-1,-1,-1,-1,-1,-1,-1,-1,-1,-1,-1,-1,-1,-1,-1,-1,-1,-1],"loss_changes":[3.530585E3,3.8881685E3,1.9871223E3,1.1586218E3,4.4282422E2,1.6233789E2,2.4660449E2,2.0593155E2,6.4853076E2,1.5349219E2,3.38208E1,0E0,9.787451E1,1.5496054E2,5.7426003E1,1.2918558E2,1.8290176E2,5.7825415E2,7.2352313E2,1.0402026E2,6.2846674E2,0E0,1.3391266E0,2.780332E2,2.206543E1,5.8977978E1,9.2006836E1,9.102829E0,9.033877E0,1.4769115E2,3.4072617E1,1.2969525E2,1.2896507E1,2.7934283E2,2.5366553E2,5.087484E2,4.778314E2,8.699731E1,5.74292E1,1.0082057E2,1.9955322E2,9.173584E-1,0E0,6.763748E1,5.99812E1,1.0959575E1,1.166748E1,4.830093E1,4.64565E1,8.645784E0,3.49115E1,6.867691E0,0E0,4.1409607E0,1.9913654E0,0E0,0E0,0E0,0E0,0E0,0E0,0E0,0E0,0E0,0E0,0E0,0E0,0E0,0E0,0E0,0E0,0E0,0E0,0E0,0E0,0E0,0E0,0E0,0E0,0E0,0E0,0E0,0E0,0E0,0E0,0E0,0E0,0E0,0E0,0E0,0E0,0E0,0E0,0E0,0E0,0E0,0E0,0E0,0E0,0E0,0E0,0E0,0E0],"parents":[2147483647,0,0,1,1,2,2,3,3,4,4,5,5,6,6,7,7,8,8,9,9,10,10,12,12,13,13,14,14,15,15,16,16,17,17,18,18,19,19,20,20,22,22,23,23,24,24,25,25,26,26,27,27,28,28,29,29,30,30,31,31,32,32,33,33,34,34,35,35,36,36,37,37,38,38,39,39,40,40,41,41,43,43,44,44,45,45,46,46,47,47,48,48,49,49,50,50,51,51,53,53,54,54],"right_children":[2,4,6,8,10,12,14,16,18,20,22,-1,24,26,28,30,32,34,36,38,40,-1,42,44,46,48,50,52,54,56,58,60,62,64,66,68,70,72,74,76,78,80,-1,82,84,86,88,90,92,94,96,98,-1,100,102,-1,-1,-1,-1,-1,-1,-1,-1,-1,-1,-1,-1,-1,-1,-1,-1,-1,-1,-1,-1,-1,-1,-1,-1,-1,-1,-1,-1,-1,-1,-1,-1,-1,-1,-1,-1,-1,-1,-1,-1,-1,-1,-1,-1,-1,-1,-1,-1],"split_conditions":[4.0071556E-1,5.5063885E-1,3.7623763E-1,8.0568355E-1,7.6345843E-1,3.508772E-2,9.4171315E-1,3.2568806E-1,5.8785945E-1,3.0041724E-1,2.912703E-1,-3.894684E-1,4.5530728E-1,5.243902E-1,7.354651E-1,2.6E-1,5.034325E-1,1.8796992E-2,5E-2,5.2354026E-1,7.106324E-1,4.6094832E-1,8.0877745E-1,2.03125E-1,4.2060086E-1,9.994464E-1,3.85834E-1,9.403973E-1,8.733625E-3,5.291005E-3,4.489796E-2,5.689655E-1,1.2659813E-1,1.4814815E-1,4.56621E-1,1.6107382E-1,3.1914893E-1,2.7021277E-1,7.7349114E-1,3.892405E-1,2.4901186E-1,8.2129276E-1,-4.050035E-2,8.2608694E-1,6.980976E-1,1.2932605E-1,2.303263E-2,3.6726967E-1,3.705357E-1,4.3898574E-1,6.752646E-1,4.7289157E-1,-2.2481988E-1,8.517179E-1,8.782327E-1,-1.5357205E-1,2.5685164E-1,-1.7240986E-1,2.5249478E-1,2.787538E-1,-2.5073892E-1,8.4612094E-2,-4.018503E-1,-1.636633E-1,1.7481184E-1,-1.9199821E-1,-3.420145E-1,-1.2839304E-1,3.336024E-1,-1.896044E-1,1.4594895E-1,-4.5236686E-1,2.0937066E-1,3.3256543E-1,-9.4471306E-2,-4.5132777E-1,2.5850996E-1,3.5004783E-1,-3.5965052E-1,-3.6386514E-1,-1.3996966E-1,1.0705391E-1,-5.802267E-1,3.0809155E-1,-2.7992833E-1,2.3081163E-1,-3.6649638E-1,-3.0141652E-1,3.4972173E-1,2.229271E-1,-3.5867402E-1,1.8795711E-1,-2.8103498E-1,-1.388024E-1,3.6990908E-1,-3.5114476E-1,-2.1027449E-1,3.6811137E-1,-1.6882429E-1,-2.1942055E-1,3.2226363E-1,-3.3512045E-2,-4.3441167E-1],"split_indices":[4,36,14,0,2,7,22,37,2,5,51,0,4,42,6,3,2,70,20,33,26,0,135,55,2,0,10,33,74,133,61,65,7,41,28,54,66,87,82,3,1,45,0,1,57,68,8,157,20,3,19,2,0,14,30,0,0,0,0,0,0,0,0,0,0,0,0,0,0,0,0,0,0,0,0,0,0,0,0,0,0,0,0,0,0,0,0,0,0,0,0,0,0,0,0,0,0,0,0,0,0,0,0],"split_type":[0,0,0,0,0,0,0,0,0,0,0,0,0,0,0,0,0,0,0,0,0,0,0,0,0,0,0,0,0,0,0,0,0,0,0,0,0,0,0,0,0,0,0,0,0,0,0,0,0,0,0,0,0,0,0,0,0,0,0,0,0,0,0,0,0,0,0,0,0,0,0,0,0,0,0,0,0,0,0,0,0,0,0,0,0,0,0,0,0,0,0,0,0,0,0,0,0,0,0,0,0,0,0],"sum_hessian":[2.3011797E4,1.8074984E4,4.936813E3,1.5052796E4,3.022188E3,3.9186143E3,1.0181987E3,1.5856017E3,1.3467194E4,2.9067617E3,1.15426216E2,2.7701271E1,3.8909128E3,9.0214557E2,1.1605313E2,7.0824634E2,8.773554E2,1.0063008E4,3.4041873E3,2.1712485E3,7.3551324E2,3.940543E0,1.1148567E2,5.238109E2,3.367102E3,2.1879315E2,6.833524E2,1.0107993E2,1.4973192E1,5.179482E2,1.9029819E2,8.29696E2,4.765941E1,9.12126E2,9.150882E3,9.7086884E2,2.4333184E3,7.5258865E1,2.0959895E3,1.6272649E2,5.7278674E2,1.1000546E2,1.4802115E0,6.179747E1,4.620135E2,9.264521E0,3.3578374E3,1.2367996E2,9.511319E1,2.360063E1,6.5975183E2,9.923902E1,1.8409123E0,3.4620664E0,1.1511126E1,4.218823E2,9.6065865E1,1.8135107E1,1.7216309E2,7.86488E2,4.3207973E1,5.1751466E0,4.2484264E1,3.6499448E2,5.4713153E2,7.9872773E3,1.1636042E3,3.1880103E2,6.520678E2,1.9597721E3,4.7354626E2,2.7110945E1,4.814792E1,2.0676511E3,2.833853E1,1.4279901E2,1.9927475E1,5.353807E2,3.7406116E1,1.0665018E2,3.3552897E0,1.7647055E1,4.4150414E1,4.465797E2,1.5433747E1,4.116521E0,5.1480002E0,1.766577E0,3.3560708E3,1.10054955E2,1.362501E1,2.5172335E1,6.994086E1,2.9605174E0,2.0640114E1,3.733866E2,2.8636523E2,9.758649E1,1.6525363E0,1.2051802E0,2.2568862E0,1.4353423E0,1.0075784E1],"tree_param":{"num_deleted":"0","num_feature":"187","num_nodes":"103","size_leaf_vector":"1"}},{"base_weights":[1.1913785E-2,-5.392983E-1,2.3217742E-1,1.1323106E-1,-6.8803954E-1,7.54526E-1,4.474211E-2,8.95518E-1,-4.439607E-1,1.0490141E-1,-7.9802233E-1,-7.619504E-1,9.250547E-1,-1.8938205E-1,4.8369303E-1,-5.8626944E-1,1.0758046E0,-6.108624E-1,9.686962E-1,3.672305E-1,-5.998653E-1,-2.2531E-1,-8.8822603E-1,-9.394318E-1,1.2594458E-2,-8.8919926E-1,1.0010095E0,-3.4937167E-1,9.0773404E-1,1.0592781E0,-3.384758E-2,-8.2493424E-1,7.9720455E-1,1.2232089E0,-1.1307021E0,-7.6497346E-1,8.60781E-1,-2.8533012E-1,1.1673485E0,-1.23746864E-1,7.996855E-1,-8.5071987E-1,3.3421633E-1,-3.19006E-1,1.2846601E0,-5.3297687E-1,-9.840037E-1,-1.0077256E0,5.7930815E-1,5.8033484E-1,-1.0212846E0,-1.1683284E0,2.1108648E-1,1.0437508E0,-5.4837215E-1,3.375921E-1,-4.3607563E-1,1.0809658E0,-3.6654226E-2,2.657932E-1,1.1480126E0,8.294739E-1,-5.931941E-1,-2.777322E-1,3.4207904E-1,4.2882526E-1,-2.721658E-1,3.9480916E-1,-7.0052114E-3,-3.8578817E-1,3.162005E-1,-2.558069E-1,1.2178394E-1,9.603451E-1,-2.4828194E-1,3.8700855E-1,-3.0555233E-1,-1.0324409E-1,4.6673125E-1,2.8156713E-1,-7.238175E-2,-3.1587046E-1,2.2604895E-1,3.3627453E-1,-2.1242446E-1,-1.2844968E-1,2.2712557E-1,4.004117E-1,-1.8812353E-2,8.482654E-2,-2.2118802E-1,-2.9975104E-1,2.956072E-1,-3.1455263E-1,4.304138E-1,-2.2539333E-1,7.547279E-1,-1.1295576E-1,4.859318E-1,-3.49439E-1,1.1971364E-1,-3.8333407E-1,2.983073E-1,-4.2554843E-1,2.9688475E-1,-6.934637E-2,3.244955E-1,-4.0105203E-1,3.0380148E-1,1.573863E-1,-1.6476339E-1,7.488487E-3,-1.7497922E-1,3.0168764E-2,3.3722818E-1,1.6653642E-1,-2.112164E-1,2.533735E-1,-6.5992177E-1,5.787026E-1,3.2867604E-1,3.1620356E-1,-4.071314E-1,-2.117645E-1,2.370689E-1],"categories":[],"categories_nodes":[],"categories_segments":[],"categories_sizes":[],"default_left":[0,0,0,0,0,0,0,0,0,0,0,0,0,0,0,0,0,0,0,0,0,0,0,0,0,0,0,0,0,0,0,0,0,0,0,0,0,0,0,0,0,0,0,0,0,0,0,0,0,0,0,0,0,0,0,0,0,0,0,0,0,0,0,0,0,0,0,0,0,0,0,0,0,0,0,0,0,0,0,0,0,0,0,0,0,0,0,0,0,0,0,0,0,0,0,0,0,0,0,0,0,0,0,0,0,0,0,0,0,0,0,0,0,0,0,0,0,0,0,0,0,0,0,0,0],"id":5,"left_children":[1,3,5,7,9,11,13,15,17,19,21,23,25,27,29,31,33,35,37,39,41,43,45,47,49,51,53,55,57,59,61,63,65,67,69,71,73,-1,75,77,79,81,83,85,87,89,91,93,95,97,99,101,103,105,107,109,111,113,115,117,119,121,123,-1,-1,-1,-1,-1,-1,-1,-1,-1,-1,-1,-1,-1,-1,-1,-1,-1,-1,-1,-1,-1,-1,-1,-1,-1,-1,-1,-1,-1,-1,-1,-1,-1,-1,-1,-1,-1,-1,-1,-1,-1,-1,-1,-1,-1,-1,-1,-1,-1,-1,-1,-1,-1,-1,-1,-1,-1,-1,-1,-1,-1,-1],"loss_changes":[2.4406711E3,5.5713586E2,1.4061917E3,4.6517126E2,4.0771558E2,9.8153564E2,1.0864752E3,1.1921124E2,1.4757382E2,1.0564485E2,2.1186304E2,5.2790955E1,4.7077466E2,1.2105337E3,1.0954817E3,1.6769138E1,1.3020859E2,1.2724339E2,2.6378986E1,8.84631E1,3.661711E1,7.9623566E1,1.2012866E2,3.2983673E1,4.318516E1,4.2491035E1,2.173396E2,3.585938E2,1.4363953E2,1.2228369E2,9.359994E2,9.4000435E0,9.58081E0,4.3046326E1,9.944729E0,5.229245E1,2.1357336E2,0E0,1.7535805E1,7.30009E1,3.2233047E1,4.0529633E1,2.8298925E1,6.234476E1,2.3029327E0,1.2607509E2,8.437109E1,3.1317657E1,3.816275E1,4.7831425E1,5.781683E0,2.7277588E1,3.7790092E1,1.541875E2,1.1031856E2,1.1224094E2,3.626549E2,3.1249939E1,5.450731E1,2.5361304E2,6.1991455E1,3.7559564E2,1.8391968E2,0E0,0E0,0E0,0E0,0E0,0E0,0E0,0E0,0E0,0E0,0E0,0E0,0E0,0E0,0E0,0E0,0E0,0E0,0E0,0E0,0E0,0E0,0E0,0E0,0E0,0E0,0E0,0E0,0E0,0E0,0E0,0E0,0E0,0E0,0E0,0E0,0E0,0E0,0E0,0E0,0E0,0E0,0E0,0E0,0E0,0E0,0E0,0E0,0E0,0E0,0E0,0E0,0E0,0E0,0E0,0E0,0E0,0E0,0E0,0E0,0E0,0E0],"parents":[2147483647,0,0,1,1,2,2,3,3,4,4,5,5,6,6,7,7,8,8,9,9,10,10,11,11,12,12,13,13,14,14,15,15,16,16,17,17,18,18,19,19,20,20,21,21,22,22,23,23,24,24,25,25,26,26,27,27,28,28,29,29,30,30,31,31,32,32,33,33,34,34,35,35,36,36,38,38,39,39,40,40,41,41,42,42,43,43,44,44,45,45,46,46,47,47,48,48,49,49,50,50,51,51,52,52,53,53,54,54,55,55,56,56,57,57,58,58,59,59,60,60,61,61,62,62],"right_children":[2,4,6,8,10,12,14,16,18,20,22,24,26,28,30,32,34,36,38,40,42,44,46,48,50,52,54,56,58,60,62,64,66,68,70,72,74,-1,76,78,80,82,84,86,88,90,92,94,96,98,100,102,104,106,108,110,112,114,116,118,120,122,124,-1,-1,-1,-1,-1,-1,-1,-1,-1,-1,-1,-1,-1,-1,-1,-1,-1,-1,-1,-1,-1,-1,-1,-1,-1,-1,-1,-1,-1,-1,-1,-1,-1,-1,-1,-1,-1,-1,-1,-1,-1,-1,-1,-1,-1,-1,-1,-1,-1,-1,-1,-1,-1,-1,-1,-1,-1,-1,-1,-1,-1,-1],"split_conditions":[1.8821229E-1,3.125E-2,1.183412E-1,1.119403E-1,8.7645364E-1,1.5789473E-1,5.074257E-1,5.4545455E-2,6.838488E-1,1.8483922E-1,8.928572E-3,1.16618074E-1,2.970297E-2,4.105263E-1,2.7831754E-1,5.5045873E-2,3.1958762E-1,4.107143E-1,3.0927835E-2,1.29771E-1,2.1413276E-2,8.0093783E-1,8.637874E-2,8.896926E-1,2.543641E-1,2.937402E-1,7.05314E-1,7.9800487E-1,3.5252643E-1,2.34714E-1,1.8157895E-1,8.6169684E-1,3.220803E-2,1.5948276E-1,2.0277219E-1,1.9117647E-1,1.8607068E-1,-2.8533012E-1,3.0016583E-1,7.7610253E-3,1.8594442E-1,3.8622844E-1,1.07744105E-1,6.576577E-1,4.6461537E-1,6.600985E-1,4.2186633E-2,2.822695E-1,1.9168174E-1,3.429752E-1,3.84E-1,8.648649E-2,5.6756757E-2,1.5068494E-1,2.3432843E-1,4.022272E-1,2.6328018E-1,3.9232484E-1,9.994464E-1,2.7220076E-1,5.282043E-1,2.4496645E-1,9.4171315E-1,-2.777322E-1,3.4207904E-1,4.2882526E-1,-2.721658E-1,3.9480916E-1,-7.0052114E-3,-3.8578817E-1,3.162005E-1,-2.558069E-1,1.2178394E-1,9.603451E-1,-2.4828194E-1,3.8700855E-1,-3.0555233E-1,-1.0324409E-1,4.6673125E-1,2.8156713E-1,-7.238175E-2,-3.1587046E-1,2.2604895E-1,3.3627453E-1,-2.1242446E-1,-1.2844968E-1,2.2712557E-1,4.004117E-1,-1.8812353E-2,8.482654E-2,-2.2118802E-1,-2.9975104E-1,2.956072E-1,-3.1455263E-1,4.304138E-1,-2.2539333E-1,7.547279E-1,-1.1295576E-1,4.859318E-1,-3.49439E-1,1.1971364E-1,-3.8333407E-1,2.983073E-1,-4.2554843E-1,2.9688475E-1,-6.934637E-2,3.244955E-1,-4.0105203E-1,3.0380148E-1,1.573863E-1,-1.6476339E-1,7.488487E-3,-1.7497922E-1,3.0168764E-2,3.3722818E-1,1.6653642E-1,-2.112164E-1,2.533735E-1,-6.5992177E-1,5.787026E-1,3.2867604E-1,3.1620356E-1,-4.071314E-1,-2.117645E-1,2.370689E-1],"split_indices":[47,23,13,36,0,3,36,5,2,73,78,5,9,5,10,7,87,93,8,41,125,45,32,1,41,33,71,0,19,87,2,120,21,6,98,99,3,0,88,174,67,3,29,57,24,1,179,149,86,30,52,147,6,56,38,95,36,6,0,96,36,0,22,0,0,0,0,0,0,0,0,0,0,0,0,0,0,0,0,0,0,0,0,0,0,0,0,0,0,0,0,0,0,0,0,0,0,0,0,0,0,0,0,0,0,0,0,0,0,0,0,0,0,0,0,0,0,0,0,0,0,0,0,0,0],"split_type":[0,0,0,0,0,0,0,0,0,0,0,0,0,0,0,0,0,0,0,0,0,0,0,0,0,0,0,0,0,0,0,0,0,0,0,0,0,0,0,0,0,0,0,0,0,0,0,0,0,0,0,0,0,0,0,0,0,0,0,0,0,0,0,0,0,0,0,0,0,0,0,0,0,0,0,0,0,0,0,0,0,0,0,0,0,0,0,0,0,0,0,0,0,0,0,0,0,0,0,0,0,0,0,0,0,0,0,0,0,0,0,0,0,0,0,0,0,0,0,0,0,0,0,0,0],"sum_hessian":[2.010036E4,5.7384297E3,1.436193E4,1.0652788E3,4.673151E3,3.7918098E3,1.057012E4,4.4287848E2,6.224004E2,5.692299E2,4.103921E3,3.8293954E2,3.4088704E3,6.893753E3,3.6763667E3,4.7795135E1,3.9508334E2,5.57143E2,6.525739E1,4.1517276E2,1.5405716E2,5.5890094E2,3.54502E3,3.1137686E2,7.156268E1,1.3654933E2,3.272321E3,6.016992E3,8.767609E2,1.7400812E3,1.9362856E3,4.1107376E1,6.6877613E0,3.7076056E2,2.4322792E1,5.047641E2,5.2378902E1,5.7641625E0,5.9493225E1,1.9476492E2,2.2040782E2,1.2151314E2,3.2544014E1,5.269892E2,3.1911768E1,7.5419586E2,2.7908242E3,2.9829956E2,1.3077277E1,4.6478397E1,2.5084288E1,1.0886879E2,2.7680536E1,3.1847917E3,8.752931E1,6.7399243E2,5.3429995E3,7.407403E2,1.3602063E2,1.7542104E2,1.5646602E3,7.610943E2,1.1751913E3,3.9604095E1,1.503279E0,4.995978E0,1.6917831E0,3.4501428E2,2.5746262E1,2.309304E1,1.229752E0,4.698392E2,3.4924873E1,2.1575668E1,3.0803234E1,5.6719696E1,2.7735302E0,1.7287407E2,2.1890862E1,1.9455156E2,2.5856256E1,1.0821795E2,1.3295192E1,1.8503008E1,1.4041006E1,4.7900104E2,4.7988155E1,3.0777975E1,1.1337937E0,1.509891E2,6.032067E2,2.7699846E3,2.0839449E1,2.939618E2,4.3377824E0,8.11389E0,4.963387E0,2.4532646E1,2.1945751E1,2.2945732E1,2.1385558E0,1.040139E2,4.854891E0,8.683215E0,1.899732E1,9.179794E1,3.092994E3,5.825095E1,2.9278358E1,5.5694073E2,1.1705169E2,1.2931875E3,4.049812E3,3.1352642E1,7.0938763E2,7.218411E1,6.3836514E1,1.4260246E2,3.281856E1,9.617233E1,1.4684878E3,6.906863E2,7.0408035E1,1.0871284E3,8.806284E1],"tree_param":{"num_deleted":"0","num_feature":"187","num_nodes":"125","size_leaf_vector":"1"}},{"base_weights":[1.2545173E-2,-2.6652348E-1,3.4017402E-1,-5.581928E-1,-4.1055806E-2,1.1944779E-1,8.678733E-1,7.5644165E-2,-6.7932296E-1,6.7170334E-1,-1.34781E-1,4.3358895E-1,-2.1891733E-1,-8.328179E-1,9.403461E-1,2.2145872E-1,-8.604764E-1,-2.0491421E-1,-8.2528067E-1,-7.9035115E-1,9.250077E-1,8.423491E-1,-2.2849903E-1,-6.164909E-3,1.0426512E0,8.11676E-1,-4.6343708E-1,-1.011981E0,8.6271024E-1,-7.218928E-1,9.7581875E-1,5.3406224E-2,1.4384687E0,4.5374802E-1,-1.0276289E0,1.6626376E-1,-5.777621E-1,-3.5961616E-1,-9.260143E-1,-9.19005E-1,1.4805503E0,9.8181766E-1,-1.7691884E0,9.505232E-1,-7.110377E-1,3.0727232E-1,-3.4846604E-1,8.4769845E-1,-3.244364E-1,-1.1750137E0,1.1073296E0,1.1586407E0,8.4231004E-2,9.618845E-2,-6.417842E-1,8.1263125E-2,-1.1024927E0,3.7911025E-1,-2.1290798E-1,3.4511963E-1,-1.2294868E0,-1.3222361E0,9.885486E-1,7.113865E-2,-2.8195134E-1,4.7842368E-1,-2.8721523E-1,-2.7212963E-1,4.1678932E-1,-3.5728303E-1,-5.1621636E-3,-2.0714127E-1,1.15844935E-1,7.352803E-2,-2.1860088E-1,2.4053794E-1,-2.1088612E-1,-2.7936706E-1,8.3161294E-1,-5.8756128E-2,-3.644363E-1,5.535498E-1,3.5366476E-2,-2.3582338E-1,3.084872E-1,3.4776053E-3,-6.045314E-1,3.0209246E-1,-3.2843924E-1,7.153992E-2,-4.2155865E-1,1.4066678E-1,-2.058929E-1,-1.7452444E-1,4.33644E-2,3.120075E-1,-1.4008436E-1,-5.249558E-2,-3.8731807E-1,-4.2662194E-1,2.4101491E-1,5.1782936E-1,3.0618477E-1,3.050671E-1,1.1788149E0,-2.608409E-1,3.209412E-1,-2.4894856E-1,2.2093837E-1,7.64249E-3,-2.3561537E-1,-3.223157E-1,2.5956762E-1,-3.3914322E-1,1.3460675E-1,-4.0026602E-1,1.855147E-1,-3.1197762E-2,-4.2888907E-1,1.8931846E-1,3.1844848E-1],"categories":[],"categories_nodes":[],"categories_segments":[],"categories_sizes":[],"default_left":[0,0,0,0,0,0,0,0,0,0,0,0,0,0,0,0,0,0,0,0,0,0,0,0,0,0,0,0,0,0,0,0,0,0,0,0,0,0,0,0,0,0,0,0,0,0,0,0,0,0,0,0,0,0,0,0,0,0,0,0,0,0,0,0,0,0,0,0,0,0,0,0,0,0,0,0,0,0,0,0,0,0,0,0,0,0,0,0,0,0,0,0,0,0,0,0,0,0,0,0,0,0,0,0,0,0,0,0,0,0,0,0,0,0,0,0,0,0,0,0,0],"id":6,"left_children":[1,3,5,7,9,11,13,15,17,19,21,23,25,27,29,31,33,35,37,39,41,43,45,47,49,51,53,55,57,59,61,63,65,67,69,71,73,75,77,79,81,83,85,87,89,91,93,95,97,99,101,103,105,107,109,111,113,-1,-1,-1,115,117,119,-1,-1,-1,-1,-1,-1,-1,-1,-1,-1,-1,-1,-1,-1,-1,-1,-1,-1,-1,-1,-1,-1,-1,-1,-1,-1,-1,-1,-1,-1,-1,-1,-1,-1,-1,-1,-1,-1,-1,-1,-1,-1,-1,-1,-1,-1,-1,-1,-1,-1,-1,-1,-1,-1,-1,-1,-1,-1],"loss_changes":[1.6109703E3,6.256978E2,9.43898E2,3.1854858E2,3.5866318E2,6.0762646E2,2.9536743E2,9.116497E1,2.409978E2,2.3181024E2,4.346792E2,7.93932E2,6.939691E2,3.0709E1,1.3589941E2,1.18024536E2,2.0243141E1,1.1368473E2,1.2458801E2,2.843745E1,8.3206085E1,7.048663E1,2.7842795E2,4.6834158E2,1.7957019E2,1.3320947E2,2.2215225E2,8.925026E0,7.155588E0,4.7490242E1,6.699243E1,9.300131E1,2.774524E1,1.5076375E1,1.320977E1,7.789632E1,5.1051483E1,1.9007886E2,4.4747314E1,1.8654625E1,2.4415998E0,4.368982E1,4.993252E0,4.5997498E1,1.8539278E1,1.2761858E2,4.0704398E2,1.1880243E2,1.8113315E2,1.8594898E1,6.3062622E1,1.364224E2,1.6226237E2,3.1996918E2,1.6171887E2,7.958801E0,4.0898743E0,0E0,0E0,0E0,8.300304E0,1.5256119E0,5.7575684E1,0E0,0E0,0E0,0E0,0E0,0E0,0E0,0E0,0E0,0E0,0E0,0E0,0E0,0E0,0E0,0E0,0E0,0E0,0E0,0E0,0E0,0E0,0E0,0E0,0E0,0E0,0E0,0E0,0E0,0E0,0E0,0E0,0E0,0E0,0E0,0E0,0E0,0E0,0E0,0E0,0E0,0E0,0E0,0E0,0E0,0E0,0E0,0E0,0E0,0E0,0E0,0E0,0E0,0E0,0E0,0E0,0E0,0E0],"parents":[2147483647,0,0,1,1,2,2,3,3,4,4,5,5,6,6,7,7,8,8,9,9,10,10,11,11,12,12,13,13,14,14,15,15,16,16,17,17,18,18,19,19,20,20,21,21,22,22,23,23,24,24,25,25,26,26,27,27,28,28,29,29,30,30,31,31,32,32,33,33,34,34,35,35,36,36,37,37,38,38,39,39,40,40,41,41,42,42,43,43,44,44,45,45,46,46,47,47,48,48,49,49,50,50,51,51,52,52,53,53,54,54,55,55,56,56,60,60,61,61,62,62],"right_children":[2,4,6,8,10,12,14,16,18,20,22,24,26,28,30,32,34,36,38,40,42,44,46,48,50,52,54,56,58,60,62,64,66,68,70,72,74,76,78,80,82,84,86,88,90,92,94,96,98,100,102,104,106,108,110,112,114,-1,-1,-1,116,118,120,-1,-1,-1,-1,-1,-1,-1,-1,-1,-1,-1,-1,-1,-1,-1,-1,-1,-1,-1,-1,-1,-1,-1,-1,-1,-1,-1,-1,-1,-1,-1,-1,-1,-1,-1,-1,-1,-1,-1,-1,-1,-1,-1,-1,-1,-1,-1,-1,-1,-1,-1,-1,-1,-1,-1,-1,-1,-1],"split_conditions":[1.7721519E-1,1.8947369E-1,4.4889754E-1,9.18259E-1,6.790123E-2,2.375E-1,5.2732646E-1,2.0813826E-1,5.249344E-3,7.194245E-2,3.6526945E-1,3.92E-1,1.6178355E-1,8.651822E-1,1.4351852E-1,8.947368E-1,6.447167E-1,9.056237E-2,4.7727272E-2,1.0396387E-1,4.005592E-1,8.0952376E-1,3.125E-2,4.822335E-2,1.9168174E-1,2.5084746E-1,2.1973094E-1,5.7894737E-1,7.9814816E-1,5.639098E-2,8.184143E-2,1.750235E-1,3.8037685E-1,2.5877193E-1,1.5384616E-1,7.635739E-2,2.925532E-2,8.184357E-1,8.59882E-1,9.3240095E-3,2.0397024E-1,1.5686275E-2,1.632653E-1,7.6726073E-1,7.8680205E-1,4.329502E-1,1.827299E-1,2.3809524E-1,4.237919E-1,6.153846E-3,2.8449744E-1,6.9636965E-1,6.7420495E-1,3.7148067E-1,2.4306001E-1,4.5364892E-1,9.0858275E-1,3.7911025E-1,-2.1290798E-1,3.4511963E-1,7.054937E-1,1.5326846E-1,4.368626E-1,7.113865E-2,-2.8195134E-1,4.7842368E-1,-2.8721523E-1,-2.7212963E-1,4.1678932E-1,-3.5728303E-1,-5.1621636E-3,-2.0714127E-1,1.15844935E-1,7.352803E-2,-2.1860088E-1,2.4053794E-1,-2.1088612E-1,-2.7936706E-1,8.3161294E-1,-5.8756128E-2,-3.644363E-1,5.535498E-1,3.5366476E-2,-2.3582338E-1,3.084872E-1,3.4776053E-3,-6.045314E-1,3.0209246E-1,-3.2843924E-1,7.153992E-2,-4.2155865E-1,1.4066678E-1,-2.058929E-1,-1.7452444E-1,4.33644E-2,3.120075E-1,-1.4008436E-1,-5.249558E-2,-3.8731807E-1,-4.2662194E-1,2.4101491E-1,5.1782936E-1,3.0618477E-1,3.050671E-1,1.1788149E0,-2.608409E-1,3.209412E-1,-2.4894856E-1,2.2093837E-1,7.64249E-3,-2.3561537E-1,-3.223157E-1,2.5956762E-1,-3.3914322E-1,1.3460675E-1,-4.0026602E-1,1.855147E-1,-3.1197762E-2,-4.2888907E-1,1.8931846E-1,3.1844848E-1],"split_indices":[100,48,3,0,18,10,0,81,88,6,0,37,2,95,5,1,0,61,29,117,90,42,72,22,86,129,7,39,29,24,77,67,85,2,8,4,19,1,69,81,45,4,54,3,48,16,91,5,30,150,48,1,25,90,2,59,96,0,0,0,34,10,4,0,0,0,0,0,0,0,0,0,0,0,0,0,0,0,0,0,0,0,0,0,0,0,0,0,0,0,0,0,0,0,0,0,0,0,0,0,0,0,0,0,0,0,0,0,0,0,0,0,0,0,0,0,0,0,0,0,0],"split_type":[0,0,0,0,0,0,0,0,0,0,0,0,0,0,0,0,0,0,0,0,0,0,0,0,0,0,0,0,0,0,0,0,0,0,0,0,0,0,0,0,0,0,0,0,0,0,0,0,0,0,0,0,0,0,0,0,0,0,0,0,0,0,0,0,0,0,0,0,0,0,0,0,0,0,0,0,0,0,0,0,0,0,0,0,0,0,0,0,0,0,0,0,0,0,0,0,0,0,0,0,0,0,0,0,0,0,0,0,0,0,0,0,0,0,0,0,0,0,0,0,0],"sum_hessian":[1.7617541E4,9.513927E3,8.103614E3,4.147354E3,5.3665728E3,5.7145547E3,2.3890593E3,6.654793E2,3.4818745E3,6.22957E2,4.7436157E3,2.9632063E3,2.7513484E3,9.721693E1,2.2918423E3,5.7645184E2,8.9027435E1,8.197693E2,2.6621052E3,9.1678E1,5.31279E2,4.144506E2,4.329165E3,1.7213503E3,1.241856E3,5.2716254E2,2.2241858E3,8.829058E1,8.926344E0,4.7482304E1,2.24436E3,5.0742697E2,6.9024864E1,9.852025E0,7.917541E1,4.1108228E2,4.08687E2,4.742669E2,2.1878384E3,8.732602E1,4.351986E0,5.2093024E2,1.0348783E1,3.878311E2,2.6619526E1,7.91733E2,3.537432E3,4.6694907E2,1.2544012E3,3.470598E1,1.20715E3,3.5652188E2,1.7064069E2,5.376341E2,1.6865516E3,6.7586436E0,8.153194E1,7.268957E0,1.6573864E0,9.857168E0,3.7625134E1,1.1797181E1,2.232563E3,4.2886087E2,7.856611E1,6.51121E1,3.9127648E0,4.026095E0,5.82593E0,6.800508E1,1.1170328E1,8.352121E1,3.2756107E2,6.3238934E1,3.454481E2,1.0790864E2,3.6635828E2,2.185508E3,2.330411E0,2.5832052E1,6.1493965E1,3.1539698E0,1.198016E0,1.2935385E1,5.079948E2,1.3713237E0,8.977459E0,3.7790833E2,9.922736E0,1.1519305E1,1.5100222E1,6.814206E2,1.1031238E2,2.4011072E3,1.1363248E3,4.0753723E2,5.941184E1,1.0874501E3,1.669512E2,3.110307E1,3.6029086E0,1.460522E2,1.0610978E3,3.404705E2,1.6051378E1,8.678247E1,8.3858215E1,2.1965472E2,3.179794E2,2.9882797E2,1.3877238E3,2.5820115E0,4.176632E0,8.0353516E1,1.1784253E0,3.5870064E1,1.7550689E0,1.1151875E0,1.0681994E1,3.7999237E2,1.8525706E3],"tree_param":{"num_deleted":"0","num_feature":"187","num_nodes":"121","size_leaf_vector":"1"}},{"base_weights":[1.1018355E-2,-8.407957E-2,7.292691E-1,3.872072E-1,-2.3183644E-1,1.0391109E0,-4.3020323E-1,4.747183E-1,-7.747516E-1,-6.5707564E-1,-1.3007148E-1,-3.3397102E-1,1.052941E0,-2.4567804E-1,-1.0503772E0,8.111272E-2,6.673575E-1,-9.4504184E-1,9.3716687E-1,-7.2119087E-1,8.672897E-1,-8.0018714E-2,-9.1591823E-1,-3.0780488E-1,1.0563606E0,-6.4933777E-1,3.4169722E-1,-1.0737813E0,7.522482E-2,-1.7951528E-2,1.3520359E0,7.518254E-1,-9.992194E-1,3.805606E-1,-1.036628E0,3.231098E-1,2.8855363E-1,-8.340505E-1,2.0834187E-2,1.4450607E0,-1.968299E-1,-3.162901E-1,6.828155E-2,-1.1318573E0,3.184104E-1,1.0635307E0,5.361526E-1,-7.4033284E-1,9.132384E-1,5.449153E-1,-7.249801E-1,-1.1025147E0,6.464702E-2,-1.5610516E-1,8.5206084E-2,4.6795997E-1,-3.1521577E-1,2.5131902E-1,-8.3724655E-2,-3.3184785E-1,1.5763114E-1,-6.911324E-1,2.7528176E-1,-1.8928568E-1,-3.724807E-1,2.4568473E-1,-2.8804636E-1,-2.7020347E-1,-3.386794E-2,1.984905E-1,-3.191056E-1,4.635193E-1,-3.1000602E-1,1.953445E-1,-2.1980931E-1,7.296468E-2,-1.4844622E-1,-1.6151339E-2,1.7697452E-1,-3.499081E-1,7.102382E-1,3.3964938E-1,-3.1358555E-1,3.2009438E-1,1.277743E-1,-3.04271E-1,2.577041E-1,2.775649E-1,-2.4947862E-1,-9.441855E-2,3.5215086E-1,3.0572003E-1,7.174697E-2,1.1021656E-1,-3.1378654E-1,5.8575694E-2,-3.3687568E-1,2.324723E-1,-2.0161323E-1],"categories":[],"categories_nodes":[],"categories_segments":[],"categories_sizes":[],"default_left":[0,0,0,0,0,0,0,0,0,0,0,0,0,0,0,0,0,0,0,0,0,0,0,0,0,0,0,0,0,0,0,0,0,0,0,0,0,0,0,0,0,0,0,0,0,0,0,0,0,0,0,0,0,0,0,0,0,0,0,0,0,0,0,0,0,0,0,0,0,0,0,0,0,0,0,0,0,0,0,0,0,0,0,0,0,0,0,0,0,0,0,0,0,0,0,0,0,0,0],"id":7,"left_children":[1,3,5,7,9,11,13,15,17,19,21,-1,23,25,27,29,31,33,35,37,39,41,43,-1,45,47,49,51,-1,53,55,57,59,61,63,-1,65,67,69,71,73,75,77,79,81,83,85,87,89,91,93,95,97,-1,-1,-1,-1,-1,-1,-1,-1,-1,-1,-1,-1,-1,-1,-1,-1,-1,-1,-1,-1,-1,-1,-1,-1,-1,-1,-1,-1,-1,-1,-1,-1,-1,-1,-1,-1,-1,-1,-1,-1,-1,-1,-1,-1,-1,-1],"loss_changes":[1.0723794E3,9.6555536E2,6.5991785E2,3.3690515E2,4.5671356E2,4.4301025E1,4.4121452E1,2.333656E2,6.857196E1,1.9981909E2,3.350019E2,0E0,1.1322144E1,7.139514E1,2.9679413E0,1.2752781E2,2.916903E2,2.6093063E1,1.6404343E0,1.63854E2,5.1140305E1,2.806765E2,1.3629523E2,0E0,4.7943115E0,2.602227E1,2.7040857E1,2.9251633E0,0E0,1.4282672E2,3.8213898E1,1.7448474E2,1.6906403E1,2.2888845E1,1.5702728E1,0E0,4.2179193E0,8.149182E1,1.8087383E2,1.4913422E1,1.4103641E1,3.086709E2,3.1355954E2,5.519519E1,8.631746E1,2.6646729E0,1.1668724E1,2.6458168E1,3.6518145E0,1.4808105E1,7.4318523E0,2.474083E0,2.1388667E0,0E0,0E0,0E0,0E0,0E0,0E0,0E0,0E0,0E0,0E0,0E0,0E0,0E0,0E0,0E0,0E0,0E0,0E0,0E0,0E0,0E0,0E0,0E0,0E0,0E0,0E0,0E0,0E0,0E0,0E0,0E0,0E0,0E0,0E0,0E0,0E0,0E0,0E0,0E0,0E0,0E0,0E0,0E0,0E0,0E0,0E0],"parents":[2147483647,0,0,1,1,2,2,3,3,4,4,5,5,6,6,7,7,8,8,9,9,10,10,12,12,13,13,14,14,15,15,16,16,17,17,18,18,19,19,20,20,21,21,22,22,24,24,25,25,26,26,27,27,29,29,30,30,31,31,32,32,33,33,34,34,36,36,37,37,38,38,39,39,40,40,41,41,42,42,43,43,44,44,45,45,46,46,47,47,48,48,49,49,50,50,51,51,52,52],"right_children":[2,4,6,8,10,12,14,16,18,20,22,-1,24,26,28,30,32,34,36,38,40,42,44,-1,46,48,50,52,-1,54,56,58,60,62,64,-1,66,68,70,72,74,76,78,80,82,84,86,88,90,92,94,96,98,-1,-1,-1,-1,-1,-1,-1,-1,-1,-1,-1,-1,-1,-1,-1,-1,-1,-1,-1,-1,-1,-1,-1,-1,-1,-1,-1,-1,-1,-1,-1,-1,-1,-1,-1,-1,-1,-1,-1,-1,-1,-1,-1,-1,-1,-1],"split_conditions":[5.017422E-1,8.6206895E-1,3.966346E-1,6.959707E-1,5.9125964E-2,1.04166664E-1,6.5652835E-1,3.693633E-1,8.38935E-1,5.576305E-1,5.3298247E-1,-3.3397102E-1,1.9902913E-1,6.1786413E-1,9.68234E-1,8.9344263E-1,6.744186E-1,2.9093582E-2,9.7926635E-1,9.3939394E-1,2.7777778E-2,2.0941618E-1,5.6292194E-1,-3.0780488E-1,3.6407766E-1,8.5214007E-1,7.264587E-1,8E-1,7.522482E-2,2.7548209E-2,2.8366685E-1,4.111427E-1,8.095238E-1,5.201794E-1,2.5270758E-2,3.231098E-1,5.4130297E-2,1.2148338E-1,4.3835616E-1,5.8174914E-1,6.868132E-1,5E-2,3.9565322E-1,9E-1,4.6972868E-1,8.5194176E-1,1.8421052E-1,2.9759604E-1,4.854369E-1,5.459672E-1,6.384956E-1,3.398058E-1,6.8949133E-1,-1.5610516E-1,8.5206084E-2,4.6795997E-1,-3.1521577E-1,2.5131902E-1,-8.3724655E-2,-3.3184785E-1,1.5763114E-1,-6.911324E-1,2.7528176E-1,-1.8928568E-1,-3.724807E-1,2.4568473E-1,-2.8804636E-1,-2.7020347E-1,-3.386794E-2,1.984905E-1,-3.191056E-1,4.635193E-1,-3.1000602E-1,1.953445E-1,-2.1980931E-1,7.296468E-2,-1.4844622E-1,-1.6151339E-2,1.7697452E-1,-3.499081E-1,7.102382E-1,3.3964938E-1,-3.1358555E-1,3.2009438E-1,1.277743E-1,-3.04271E-1,2.577041E-1,2.775649E-1,-2.4947862E-1,-9.441855E-2,3.5215086E-1,3.0572003E-1,7.174697E-2,1.1021656E-1,-3.1378654E-1,5.8575694E-2,-3.3687568E-1,2.324723E-1,-2.0161323E-1],"split_indices":[4,0,15,66,8,7,80,36,16,65,23,0,1,6,94,1,2,1,29,1,16,47,39,0,15,97,49,65,0,103,38,160,0,24,91,0,1,123,88,68,65,20,89,79,6,78,53,31,82,3,52,33,6,0,0,0,0,0,0,0,0,0,0,0,0,0,0,0,0,0,0,0,0,0,0,0,0,0,0,0,0,0,0,0,0,0,0,0,0,0,0,0,0,0,0,0,0,0,0],"split_type":[0,0,0,0,0,0,0,0,0,0,0,0,0,0,0,0,0,0,0,0,0,0,0,0,0,0,0,0,0,0,0,0,0,0,0,0,0,0,0,0,0,0,0,0,0,0,0,0,0,0,0,0,0,0,0,0,0,0,0,0,0,0,0,0,0,0,0,0,0,0,0,0,0,0,0,0,0,0,0,0,0,0,0,0,0,0,0,0,0,0,0,0,0,0,0,0,0,0,0],"sum_hessian":[1.5698161E4,1.3863489E4,1.8346726E3,3.3086296E3,1.0554859E4,1.4478677E3,3.8680487E2,3.077448E3,2.3118167E2,2.037099E3,8.51776E3,8.736518E0,1.4391312E3,2.9918283E2,8.7622055E1,1.01171204E3,2.065736E3,2.1067326E2,2.0508408E1,1.955382E3,8.171702E1,8.0087617E3,5.0899838E2,1.8722259E0,1.4372589E3,1.7725977E2,1.21923065E2,8.624544E1,1.3766159E0,9.394694E2,7.224265E1,1.9666102E3,9.912575E1,1.3410901E1,1.9726236E2,1.6327137E1,4.1812706E0,1.6971299E3,2.5825208E2,5.2729294E1,2.8987719E1,3.0879382E3,4.9208237E3,4.3328122E2,7.5717155E1,1.4166882E3,2.0570786E1,1.6800252E2,9.257247E0,1.028229E2,1.9100166E1,8.4153E1,2.0924363E0,3.5241815E2,5.870512E2,6.681423E1,5.4284186E0,1.8155127E3,1.5109761E2,9.288522E1,6.240525E0,1.6873298E0,1.1723572E1,6.758314E1,1.2967923E2,3.1762884E0,1.0049825E0,1.5533656E3,1.4376425E2,1.6257983E2,9.567224E1,5.104618E1,1.6831136E0,1.1141634E1,1.7846085E1,7.468829E2,2.3410552E3,3.9880745E3,9.327492E2,4.2971097E2,3.570235E0,4.752655E1,2.8190605E1,1.4083932E3,8.294951E0,3.176367E0,1.7394419E1,8.252669E0,1.5974985E2,1.5842689E0,7.672978E0,3.9396458E1,6.342644E1,4.30487E0,1.4795296E1,1.1699743E0,8.2983025E1,1.038917E0,1.0535192E0],"tree_param":{"num_deleted":"0","num_feature":"187","num_nodes":"99","size_leaf_vector":"1"}},{"base_weights":[9.007374E-3,-3.3748505E-1,1.657316E-1,-5.439777E-1,4.4922525E-1,8.232942E-2,7.254191E-1,4.2051587E-1,-6.410845E-1,8.443212E-1,-5.3762645E-1,1.87741E-2,6.4772475E-1,1.0148681E0,-3.294336E-1,-2.09943E-1,1.1267414E0,-6.782713E-1,7.113402E-1,-1.1771698E0,9.6316975E-1,1.023949E0,-8.397916E-1,7.552461E-2,-6.3865405E-1,8.439285E-1,-4.9130678E-1,-8.8817537E-1,1.0264685E0,-4.1537216E-1,9.520739E-1,3.3867627E-1,-1.1343882E0,-9.644225E-1,1.1960825E0,-5.784396E-1,-1.0314251E0,-3.7594828E-1,2.442988E0,-8.29629E-1,-9.654298E-1,1.117621E0,-4.430086E-1,3.132025E-1,2.6644228E-2,-1.0747957E0,9.832212E-1,-2.0151031E-1,2.1296136E-1,8.420714E-1,-7.5572807E-1,8.880842E-1,-7.4315405E-1,8.82468E-1,-9.0948665E-1,-3.1832767E-1,3.0064036E-3,-2.7716294E-1,1.0310609E0,-1.6695474E-1,-8.6741793E-1,-6.177366E-1,1.3326356E0,-1.846224E-1,2.3472427E-1,-3.6905313E-1,-9.273749E-2,-1.469552E-2,-3.5552597E-1,3.8016674E-1,-2.720686E-1,-2.3520753E-1,-8.7407775E-2,-3.3194298E-1,-1.2814368E-1,-2.536282E-1,1.9401005E-1,-1.10946774E-1,1.1593001E0,-3.175866E-1,2.4676222E-1,5.782512E-1,2.7946016E-1,2.3275374E-1,-3.0785078E-1,-2.8773604E-2,-3.6838835E-1,-1.1844517E-1,3.167799E-1,-2.1864817E-2,-3.2518238E-1,1.8401143E-1,-1.7965887E-2,5.864895E-1,-1.4171606E-1,-2.629581E-1,2.4869135E-1,2.8047502E-1,6.606199E-3,1.6335222E-1,-3.0511573E-1,-4.0667745E-1,3.1120884E-1,2.523231E-1,-3.364308E-1,3.1400484E-1,2.074418E-1,7.4854575E-2,-2.4345215E-1,-2.8540796E-1,3.104097E-1,1.679919E-1,-3.5847592E-1,5.134504E-1,-2.498444E-1],"categories":[],"categories_nodes":[],"categories_segments":[],"categories_sizes":[],"default_left":[0,0,0,0,0,0,0,0,0,0,0,0,0,0,0,0,0,0,0,0,0,0,0,0,0,0,0,0,0,0,0,0,0,0,0,0,0,0,0,0,0,0,0,0,0,0,0,0,0,0,0,0,0,0,0,0,0,0,0,0,0,0,0,0,0,0,0,0,0,0,0,0,0,0,0,0,0,0,0,0,0,0,0,0,0,0,0,0,0,0,0,0,0,0,0,0,0,0,0,0,0,0,0,0,0,0,0,0,0,0,0,0,0,0,0],"id":8,"left_children":[1,3,5,7,9,11,13,15,17,19,21,23,25,27,29,31,33,35,37,39,41,43,45,47,49,51,53,55,57,59,61,63,65,67,69,71,73,75,77,-1,79,81,83,-1,-1,85,87,89,91,93,95,97,99,101,103,-1,-1,-1,105,107,109,111,113,-1,-1,-1,-1,-1,-1,-1,-1,-1,-1,-1,-1,-1,-1,-1,-1,-1,-1,-1,-1,-1,-1,-1,-1,-1,-1,-1,-1,-1,-1,-1,-1,-1,-1,-1,-1,-1,-1,-1,-1,-1,-1,-1,-1,-1,-1,-1,-1,-1,-1,-1,-1],"loss_changes":[7.805619E2,7.274862E2,4.619356E2,3.3242456E2,3.6356213E2,3.0955124E2,3.922033E2,1.4494315E2,1.625459E2,1.6100174E2,1.26780045E2,2.89021E2,1.9495468E2,2.3150024E1,3.0912792E1,8.789903E1,2.3403976E1,1.0999109E2,1.6419899E2,9.907509E0,1.371095E2,7.273178E-1,9.708446E1,2.7154437E2,1.0734801E2,5.2724915E1,7.4649925E1,1.041822E0,9.924438E0,2.9095043E1,1.1408379E1,4.665361E1,4.7181473E0,1.048626E0,2.3435898E1,1.4423352E2,3.082074E1,2.653966E1,1.3569255E2,0E0,6.62537E0,8.366412E1,4.555342E1,0E0,0E0,2.9722824E1,3.0338535E0,2.6836395E2,5.2080426E2,6.759585E1,1.1003143E2,2.9316162E1,7.8386307E0,1.1981407E1,3.7689995E1,0E0,0E0,0E0,4.5803223E0,4.5642517E1,1.5690613E1,3.4836702E0,1.3385273E1,0E0,0E0,0E0,0E0,0E0,0E0,0E0,0E0,0E0,0E0,0E0,0E0,0E0,0E0,0E0,0E0,0E0,0E0,0E0,0E0,0E0,0E0,0E0,0E0,0E0,0E0,0E0,0E0,0E0,0E0,0E0,0E0,0E0,0E0,0E0,0E0,0E0,0E0,0E0,0E0,0E0,0E0,0E0,0E0,0E0,0E0,0E0,0E0,0E0,0E0,0E0,0E0],"parents":[2147483647,0,0,1,1,2,2,3,3,4,4,5,5,6,6,7,7,8,8,9,9,10,10,11,11,12,12,13,13,14,14,15,15,16,16,17,17,18,18,19,19,20,20,21,21,22,22,23,23,24,24,25,25,26,26,27,27,28,28,29,29,30,30,31,31,32,32,33,33,34,34,35,35,36,36,37,37,38,38,40,40,41,41,42,42,45,45,46,46,47,47,48,48,49,49,50,50,51,51,52,52,53,53,54,54,58,58,59,59,60,60,61,61,62,62],"right_children":[2,4,6,8,10,12,14,16,18,20,22,24,26,28,30,32,34,36,38,40,42,44,46,48,50,52,54,56,58,60,62,64,66,68,70,72,74,76,78,-1,80,82,84,-1,-1,86,88,90,92,94,96,98,100,102,104,-1,-1,-1,106,108,110,112,114,-1,-1,-1,-1,-1,-1,-1,-1,-1,-1,-1,-1,-1,-1,-1,-1,-1,-1,-1,-1,-1,-1,-1,-1,-1,-1,-1,-1,-1,-1,-1,-1,-1,-1,-1,-1,-1,-1,-1,-1,-1,-1,-1,-1,-1,-1,-1,-1,-1,-1,-1,-1],"split_conditions":[1.2173913E-1,4.6320346E-1,5.2473515E-1,2.3880597E-2,3.393234E-1,6.1442363E-1,3.966346E-1,1.6470589E-1,3.6552748E-1,2.2525313E-1,1.4488636E-1,5.200462E-1,9.403973E-1,1.1672268E-1,9.097456E-1,2.2616842E-1,1.9662922E-2,3.7951806E-1,3.2440272E-1,6.363636E-1,3.8275862E-1,6.4494723E-1,2.6678446E-1,1.7507619E-1,7.826087E-2,7.4509805E-1,1.8539326E-1,1.01265825E-1,1.9902913E-1,9.994464E-1,2.8215224E-1,6.8571426E-2,5.5056214E-1,3.4129692E-3,3.5652173E-1,1.3712375E-1,4.2845285E-1,8.027523E-1,2.8422877E-1,-8.29629E-1,4.316636E-1,5.1778436E-1,3.7777779E-1,3.132025E-1,2.6644228E-2,4.4603887E-1,3.322034E-1,2.4217463E-1,1.4738125E-1,3.5714287E-1,6.671928E-1,8.567164E-1,8.928572E-3,6.8085104E-1,2.2857143E-1,-3.1832767E-1,3.0064036E-3,-2.7716294E-1,3.9834026E-1,2.5518572E-1,2.9501072E-1,6.523372E-1,6.0836697E-1,-1.846224E-1,2.3472427E-1,-3.6905313E-1,-9.273749E-2,-1.469552E-2,-3.5552597E-1,3.8016674E-1,-2.720686E-1,-2.3520753E-1,-8.7407775E-2,-3.3194298E-1,-1.2814368E-1,-2.536282E-1,1.9401005E-1,-1.10946774E-1,1.1593001E0,-3.175866E-1,2.4676222E-1,5.782512E-1,2.7946016E-1,2.3275374E-1,-3.0785078E-1,-2.8773604E-2,-3.6838835E-1,-1.1844517E-1,3.167799E-1,-2.1864817E-2,-3.2518238E-1,1.8401143E-1,-1.7965887E-2,5.864895E-1,-1.4171606E-1,-2.629581E-1,2.4869135E-1,2.8047502E-1,6.606199E-3,1.6335222E-1,-3.0511573E-1,-4.0667745E-1,3.1120884E-1,2.523231E-1,-3.364308E-1,3.1400484E-1,2.074418E-1,7.4854575E-2,-2.4345215E-1,-2.8540796E-1,3.104097E-1,1.679919E-1,-3.5847592E-1,5.134504E-1,-2.498444E-1],"split_indices":[3,34,4,65,96,21,15,4,124,14,1,71,33,7,2,36,38,40,22,0,11,80,172,58,74,2,2,101,1,0,59,4,47,31,61,91,33,123,111,0,151,36,2,0,0,31,17,85,14,27,37,0,78,16,6,0,0,0,10,109,127,19,52,0,0,0,0,0,0,0,0,0,0,0,0,0,0,0,0,0,0,0,0,0,0,0,0,0,0,0,0,0,0,0,0,0,0,0,0,0,0,0,0,0,0,0,0,0,0,0,0,0,0,0,0],"split_type":[0,0,0,0,0,0,0,0,0,0,0,0,0,0,0,0,0,0,0,0,0,0,0,0,0,0,0,0,0,0,0,0,0,0,0,0,0,0,0,0,0,0,0,0,0,0,0,0,0,0,0,0,0,0,0,0,0,0,0,0,0,0,0,0,0,0,0,0,0,0,0,0,0,0,0,0,0,0,0,0,0,0,0,0,0,0,0,0,0,0,0,0,0,0,0,0,0,0,0,0,0,0,0,0,0,0,0,0,0,0,0,0,0,0,0],"sum_hessian":[1.4371965E4,4.475715E3,9.89625E3,3.5454324E3,9.302826E2,8.613806E3,1.2824443E3,3.2400357E2,3.221429E3,6.6441986E2,2.6586273E2,7.744311E3,8.694944E2,1.006344E3,2.761004E2,1.7155576E2,1.5244783E2,3.1357068E3,8.572216E1,3.6399364E1,6.280205E2,4.27166E1,2.2314613E2,7.1297427E3,6.1456854E2,7.419491E2,1.2754529E2,5.639412E0,1.0007045E3,2.59382E2,1.6718424E1,1.0806021E2,6.3495537E1,4.478491E0,1.4796935E2,2.446697E3,6.890096E2,5.3139297E1,3.2582863E1,2.8630612E0,3.3536304E1,5.6605194E2,6.1968544E1,4.170556E1,1.011039E0,1.9802872E2,2.5117409E1,2.3640327E3,4.76571E3,4.4576958E1,5.699916E2,7.222939E2,1.965517E1,2.9505537E1,9.803975E1,4.576925E0,1.062487E0,1.880518E0,9.9882404E2,1.6827654E2,9.110544E1,3.1405382E0,1.3577886E1,3.4180847E1,7.3879364E1,5.645242E1,7.0431185E0,1.1071988E0,3.3712919E0,1.4351201E2,4.457336E0,1.4247014E3,1.0219957E3,6.121497E2,7.685986E1,3.653846E1,1.6600836E1,1.1185944E1,2.1396921E1,3.2262638E1,1.2736671E0,1.0401267E2,4.620393E2,1.9947075E1,4.2021473E1,2.7013174E1,1.7101555E2,1.0368613E0,2.4080547E1,2.0642236E3,2.9980905E2,1.9308687E3,2.8348413E3,2.387542E1,2.0701538E1,5.3003485E2,3.9956757E1,6.8516406E2,3.712987E1,3.2742324E0,1.6380938E1,1.4081172E0,2.809742E1,1.0267613E1,8.777213E1,9.529059E2,4.5918133E1,1.0259734E2,6.567919E1,8.773353E1,3.37191E0,1.0427281E0,2.0978103E0,1.1734465E1,1.8434207E0],"tree_param":{"num_deleted":"0","num_feature":"187","num_nodes":"115","size_leaf_vector":"1"}},{"base_weights":[5.640281E-3,-7.075919E-2,5.1243836E-1,-1.4605229E-1,5.786939E-1,8.9789695E-1,-2.9940316E-1,-6.427969E-1,-7.780468E-2,8.934378E-1,1.4745305E-1,-5.80687E-1,9.388907E-1,-1.1809648E-1,-8.588731E-1,-6.7268944E-1,1.464449E0,-3.2673642E-1,4.6015598E-2,-1.6472763E-1,9.6597797E-1,-1.0287876E0,6.235342E-1,9.278414E-1,-1.1633111E0,6.5511245E-1,1.0125538E0,2.2259785E-1,-6.358932E-1,-5.6405567E-2,-9.895743E-1,-6.905452E-1,2.5832372E0,6.6018516E-1,9.41444E-1,-2.356566E-2,-6.066709E-1,1.0274503E-1,-6.238498E-1,4.51435E-1,-1.9576422E0,9.9083424E-1,-2.0439434E-1,-8.682013E-2,-1.2762331E0,9.090368E-1,-1.7431198E-1,3.2974994E-1,-6.826552E-2,-1.3760943E0,5.497317E-1,-1.2768155E0,8.621329E-1,-5.57141E-1,1.0224003E0,4.6415713E-1,-3.8122952E-1,5.861064E-1,-7.9855573E-1,-7.55925E-1,2.4306613E-1,-1.0992488E0,1.8054049E-4,1.447452E-1,-2.2143163E-1,-1.796321E-1,1.1914712E0,3.258822E-1,-1.827386E-2,-2.0743603E-1,1.7579642E-1,-1.0093168E-1,-2.4156414E-1,5.1514715E-2,-1.5533645E-1,2.4944623E-1,-2.4592678E-1,-9.662738E-2,3.028826E-1,-8.3078086E-1,2.1166861E-1,6.2199425E-2,3.064605E-1,2.9664016E-1,-6.631939E-1,-6.28642E-1,2.3286013E-1,-3.9033666E-1,2.291508E-1,2.903111E-1,-3.1562668E-1,-2.941831E-1,3.7392747E-1,-3.057346E-1,-7.902422E-1,6.2342896E-3,2.3255958E-1,3.112127E-1,-5.9436923E-1,2.927107E-1,-1.0604953E-1,-5.087728E-1,1.5465231E-1,3.0793107E-1,-9.922E-2,1.8863164E-1,-2.6642326E-1,-1.9818634E-1,2.8377345E-1,2.567451E-1,-3.4348828E-1,-2.750381E-1,1.8499511E-1,1.6680117E-1,-2.6890975E-1,1.656598E-1,-3.387166E-1,5.029344E-1,-2.3158824E-1],"categories":[],"categories_nodes":[],"categories_segments":[],"categories_sizes":[],"default_left":[0,0,0,0,0,0,0,0,0,0,0,0,0,0,0,0,0,0,0,0,0,0,0,0,0,0,0,0,0,0,0,0,0,0,0,0,0,0,0,0,0,0,0,0,0,0,0,0,0,0,0,0,0,0,0,0,0,0,0,0,0,0,0,0,0,0,0,0,0,0,0,0,0,0,0,0,0,0,0,0,0,0,0,0,0,0,0,0,0,0,0,0,0,0,0,0,0,0,0,0,0,0,0,0,0,0,0,0,0,0,0,0,0,0,0,0,0,0,0],"id":9,"left_children":[1,3,5,7,9,11,13,15,17,19,21,23,25,27,29,31,33,35,37,39,41,43,45,47,49,51,53,55,57,59,61,63,65,-1,67,69,71,73,75,77,79,81,83,85,87,89,91,-1,-1,93,95,97,99,101,103,105,107,109,111,-1,113,115,117,-1,-1,-1,-1,-1,-1,-1,-1,-1,-1,-1,-1,-1,-1,-1,-1,-1,-1,-1,-1,-1,-1,-1,-1,-1,-1,-1,-1,-1,-1,-1,-1,-1,-1,-1,-1,-1,-1,-1,-1,-1,-1,-1,-1,-1,-1,-1,-1,-1,-1,-1,-1,-1,-1,-1,-1],"loss_changes":[5.0926996E2,5.590016E2,5.3946405E2,3.4721478E2,1.6106808E2,7.137604E1,5.624274E1,7.891705E1,2.7763953E2,5.2843872E1,2.819149E2,2.9329788E1,2.3113525E1,7.4352974E1,1.4186569E1,7.274408E1,4.712139E0,2.5391867E2,2.2867935E2,5.0472324E1,1.88927E1,3.3710022E1,8.174863E1,2.1329403E0,9.3701515E0,9.598491E1,1.4498474E1,3.7293922E1,3.3703995E1,1.542534E1,1.2669441E1,6.812396E1,3.271935E1,0E0,1.8153162E0,5.856192E2,8.319232E1,2.3750012E2,1.3463933E2,1.5099851E1,2.717498E1,1.4925049E1,3.615465E1,5.5815468E1,6.8249054E0,3.1386505E1,1.1031686E2,0E0,0E0,6.883724E0,3.8049543E-1,4.0143227E1,3.001036E1,8.527067E0,5.232971E0,4.1117744E1,2.7789396E1,1.0419895E1,2.5327995E1,0E0,7.2073646E0,5.79541E0,1.7657658E1,0E0,0E0,0E0,0E0,0E0,0E0,0E0,0E0,0E0,0E0,0E0,0E0,0E0,0E0,0E0,0E0,0E0,0E0,0E0,0E0,0E0,0E0,0E0,0E0,0E0,0E0,0E0,0E0,0E0,0E0,0E0,0E0,0E0,0E0,0E0,0E0,0E0,0E0,0E0,0E0,0E0,0E0,0E0,0E0,0E0,0E0,0E0,0E0,0E0,0E0,0E0,0E0,0E0,0E0,0E0,0E0],"parents":[2147483647,0,0,1,1,2,2,3,3,4,4,5,5,6,6,7,7,8,8,9,9,10,10,11,11,12,12,13,13,14,14,15,15,16,16,17,17,18,18,19,19,20,20,21,21,22,22,23,23,24,24,25,25,26,26,27,27,28,28,29,29,30,30,31,31,32,32,34,34,35,35,36,36,37,37,38,38,39,39,40,40,41,41,42,42,43,43,44,44,45,45,46,46,49,49,50,50,51,51,52,52,53,53,54,54,55,55,56,56,57,57,58,58,60,60,61,61,62,62],"right_children":[2,4,6,8,10,12,14,16,18,20,22,24,26,28,30,32,34,36,38,40,42,44,46,48,50,52,54,56,58,60,62,64,66,-1,68,70,72,74,76,78,80,82,84,86,88,90,92,-1,-1,94,96,98,100,102,104,106,108,110,112,-1,114,116,118,-1,-1,-1,-1,-1,-1,-1,-1,-1,-1,-1,-1,-1,-1,-1,-1,-1,-1,-1,-1,-1,-1,-1,-1,-1,-1,-1,-1,-1,-1,-1,-1,-1,-1,-1,-1,-1,-1,-1,-1,-1,-1,-1,-1,-1,-1,-1,-1,-1,-1,-1,-1,-1,-1,-1,-1],"split_conditions":[4.2447937E-1,5.714286E-1,3.568985E-1,4.191617E-2,2.7464303E-1,3.3643773E-1,8.782051E-1,2.4598381E-1,1.1193292E-1,5.4887253E-1,4.89426E-1,2.5723472E-1,3.9232484E-1,9.994464E-1,1.5857606E-1,2.2988506E-1,6.010929E-2,2.845787E-1,5.3402233E-1,3.5947496E-1,8.5903084E-1,2.769231E-1,1.6981132E-1,1.18421055E-1,4.8295453E-1,2.1678096E-1,3.8804597E-1,3.2205465E-1,2.857143E-1,2.0408163E-2,5.855856E-1,2.3747476E-2,9.0193653E-1,6.6018516E-1,2.6855123E-1,1.6603774E-1,1.5887101E-1,4.6536797E-1,9.514563E-2,2.7643344E-1,4.4199705E-1,2.857143E-1,5.533597E-2,1.05166055E-1,6.459533E-1,8.327861E-1,9.7066665E-1,3.2974994E-1,-6.826552E-2,5.052988E-1,3.9670658E-1,8.278146E-2,3.029316E-1,2.0266932E-1,9.563953E-1,9.981048E-1,5.689655E-1,4.2857143E-1,7.2804374E-1,-7.55925E-1,9.391138E-1,3.401446E-1,2.5182113E-1,1.447452E-1,-2.2143163E-1,-1.796321E-1,1.1914712E0,3.258822E-1,-1.827386E-2,-2.0743603E-1,1.7579642E-1,-1.0093168E-1,-2.4156414E-1,5.1514715E-2,-1.5533645E-1,2.4944623E-1,-2.4592678E-1,-9.662738E-2,3.028826E-1,-8.3078086E-1,2.1166861E-1,6.2199425E-2,3.064605E-1,2.9664016E-1,-6.631939E-1,-6.28642E-1,2.3286013E-1,-3.9033666E-1,2.291508E-1,2.903111E-1,-3.1562668E-1,-2.941831E-1,3.7392747E-1,-3.057346E-1,-7.902422E-1,6.2342896E-3,2.3255958E-1,3.112127E-1,-5.9436923E-1,2.927107E-1,-1.0604953E-1,-5.087728E-1,1.5465231E-1,3.0793107E-1,-9.922E-2,1.8863164E-1,-2.6642326E-1,-1.9818634E-1,2.8377345E-1,2.567451E-1,-3.4348828E-1,-2.750381E-1,1.8499511E-1,1.6680117E-1,-2.6890975E-1,1.656598E-1,-3.387166E-1,5.029344E-1,-2.3158824E-1],"split_indices":[4,36,15,8,9,5,33,164,3,33,13,39,6,0,85,5,44,2,70,58,82,6,1,15,32,51,2,109,34,47,150,27,1,0,3,8,5,31,73,87,25,15,8,5,155,48,0,0,0,97,21,14,14,39,77,1,144,22,3,0,37,5,155,0,0,0,0,0,0,0,0,0,0,0,0,0,0,0,0,0,0,0,0,0,0,0,0,0,0,0,0,0,0,0,0,0,0,0,0,0,0,0,0,0,0,0,0,0,0,0,0,0,0,0,0,0,0,0,0],"split_type":[0,0,0,0,0,0,0,0,0,0,0,0,0,0,0,0,0,0,0,0,0,0,0,0,0,0,0,0,0,0,0,0,0,0,0,0,0,0,0,0,0,0,0,0,0,0,0,0,0,0,0,0,0,0,0,0,0,0,0,0,0,0,0,0,0,0,0,0,0,0,0,0,0,0,0,0,0,0,0,0,0,0,0,0,0,0,0,0,0,0,0,0,0,0,0,0,0,0,0,0,0,0,0,0,0,0,0,0,0,0,0,0,0,0,0,0,0,0,0],"sum_hessian":[1.3151E4,1.1428953E4,1.7220466E3,1.0242307E4,1.186647E3,1.1675795E3,5.544672E2,1.2361913E3,9.006115E3,6.853605E2,5.0128644E2,3.1142744E1,1.1364366E3,4.1967484E2,1.3479237E2,1.2195717E3,1.6619604E1,2.991095E3,6.01502E3,4.3887634E1,6.4147284E2,1.4410045E2,3.57186E2,8.511717E0,2.2631027E1,2.362408E2,9.001959E2,2.534697E2,1.6620515E2,1.9079756E1,1.15712616E2,1.2137036E3,5.8681283E0,5.5707393E0,1.1048865E1,1.4364717E3,1.5546233E3,5.5461733E3,4.688466E2,3.3219467E1,1.0668168E1,6.2828284E2,1.3190016E1,3.0259695E1,1.1384076E2,2.629516E2,9.42344E1,7.4549417E0,1.0567753E0,2.0305504E1,2.325523E0,2.2364672E1,2.1387611E2,5.2651033E0,8.949308E2,1.8120894E2,7.2260765E1,1.9219059E1,1.469861E2,1.2644956E0,1.7815262E1,1.0407002E2,1.1642594E1,4.69356E1,1.166768E3,1.9553185E0,3.9128098E0,9.580819E0,1.4680467E0,6.853737E2,7.51098E2,6.595795E2,8.950438E2,4.992044E3,5.5412964E2,5.5239784E1,4.136068E2,1.4101009E1,1.9118456E1,8.145846E0,2.5223212E0,2.3982607E1,6.0430023E2,8.588968E0,4.601048E0,8.664733E0,2.1594961E1,1.12826485E2,1.0142763E0,2.5580576E2,7.145831E0,6.0314453E1,3.3919945E1,1.7227238E1,3.0782661E0,1.0214188E0,1.3041042E0,5.108667E0,1.7256006E1,1.9578267E2,1.8093456E1,2.2720027E0,2.9931004E0,8.925098E2,2.4209902E0,1.6202032E2,1.9188612E1,6.0108795E1,1.2151966E1,1.706573E1,2.1533287E0,1.359776E2,1.1008496E1,1.4378367E1,3.4368932E0,1.5343106E0,1.0253571E2,3.3023171E0,8.340278E0],"tree_param":{"num_deleted":"0","num_feature":"187","num_nodes":"119","size_leaf_vector":"1"}},{"base_weights":[4.366717E-3,-5.53097E-2,4.6434972E-1,-1.1391015E-1,5.1582944E-1,8.93205E-1,-1.996387E-1,-7.9461E-1,-7.775875E-2,8.5564816E-1,1.4129187E-1,-8.001624E-1,9.273123E-1,7.668118E-1,-3.154816E-1,-8.650905E-1,9.1019684E-1,-2.6476245E-2,-4.927755E-1,8.928065E-1,-4.3895245E-1,-7.2359496E-1,5.6839776E-1,2.8860173E-1,-1.0703716E0,4.378663E-1,9.711965E-1,-1.1338239E0,9.469798E-1,-1.660711E-1,-9.817996E-1,-9.250929E-1,9.7889507E-1,-7.045224E-1,1.334301E0,1.6079858E-2,-6.062131E-1,-8.842352E-1,-1.14525035E-1,9.227376E-1,-8.7297523E-1,-5.2702945E-1,8.45169E-1,-1.761909E-1,-1.1549537E0,8.622428E-1,-1.307684E-1,-3.4599647E-1,1.6118694E-2,-4.992978E-1,8.368649E-1,-6.392119E-2,9.855543E-1,-5.281446E-1,1.8692832E-1,-2.648001E-1,1.0292994E0,-4.1758913E-1,2.8080064E-1,-1.0384234E0,8.922622E-2,-2.834171E-1,4.068254E-1,-2.6631877E-1,4.2322642E-1,-2.9838756E-1,5.797951E-2,5.966695E-1,2.3652297E-1,-3.5655882E-2,8.167427E-2,1.9426844E-1,-2.3932408E-1,1.6158848E-1,-3.2125807E-1,4.0051654E-2,-2.343359E-1,-4.3775454E-1,2.8136525E-1,2.6207042E-1,-7.4229383E-1,-3.985119E-2,2.9877278E-1,-3.9276743E-1,1.7510565E-1,2.4573019E-1,-3.571282E-1,-1.09375685E-1,2.8501287E-1,3.9620116E-1,-2.0744216E-1,3.0424884E-1,-4.2162097E-1,2.9769698E-1,-5.130656E-1,3.3899432E-1,-3.1298926E-1,2.9775485E-1,-2.3508763E-1,3.2825583E-1,-1.8763217E-1,1.9171037E-1,-1.6076799E-1,1.3731514E-1,-2.1442577E-1,-3.3293223E-1,-7.8353666E-2,-2.7320665E-1,4.1723254E-1],"categories":[],"categories_nodes":[],"categories_segments":[],"categories_sizes":[],"default_left":[0,0,0,0,0,0,0,0,0,0,0,0,0,0,0,0,0,0,0,0,0,0,0,0,0,0,0,0,0,0,0,0,0,0,0,0,0,0,0,0,0,0,0,0,0,0,0,0,0,0,0,0,0,0,0,0,0,0,0,0,0,0,0,0,0,0,0,0,0,0,0,0,0,0,0,0,0,0,0,0,0,0,0,0,0,0,0,0,0,0,0,0,0,0,0,0,0,0,0,0,0,0,0,0,0,0,0,0,0],"id":10,"left_children":[1,3,5,7,9,11,13,15,17,19,21,23,25,27,29,31,33,35,37,39,41,43,45,-1,47,49,51,53,55,57,59,61,63,65,67,69,71,73,75,77,79,-1,81,83,85,87,89,-1,-1,91,93,95,97,-1,-1,-1,99,101,103,105,107,-1,-1,-1,-1,-1,-1,-1,-1,-1,-1,-1,-1,-1,-1,-1,-1,-1,-1,-1,-1,-1,-1,-1,-1,-1,-1,-1,-1,-1,-1,-1,-1,-1,-1,-1,-1,-1,-1,-1,-1,-1,-1,-1,-1,-1,-1,-1,-1],"loss_changes":[3.3466483E2,3.6124734E2,3.9885455E2,2.408118E2,1.2771472E2,4.9882996E1,6.184415E1,6.008716E1,1.9783038E2,2.5715088E1,1.773504E2,9.284163E0,1.749884E1,2.1340855E1,4.8822777E1,5.339972E1,1.4691465E1,2.0415343E2,1.512666E2,2.786856E1,2.7474401E1,3.7290024E1,6.610378E1,0E0,1.5076427E0,2.6774605E1,1.1432617E1,7.240161E0,9.13303E0,4.542728E1,5.5459747E0,2.1880798E1,1.3696859E1,1.4505956E0,4.23839E0,2.665193E2,1.3640889E2,1.3393625E2,8.625374E1,1.9551971E1,2.7469307E1,0E0,1.378582E0,6.203004E1,7.1812363E0,2.4721344E1,7.8974075E1,0E0,0E0,3.1148893E1,2.1420795E1,1.451473E1,1.00720825E1,0E0,0E0,0E0,6.3445435E0,3.2636623E1,2.600338E1,4.4508743E0,8.341405E0,0E0,0E0,0E0,0E0,0E0,0E0,0E0,0E0,0E0,0E0,0E0,0E0,0E0,0E0,0E0,0E0,0E0,0E0,0E0,0E0,0E0,0E0,0E0,0E0,0E0,0E0,0E0,0E0,0E0,0E0,0E0,0E0,0E0,0E0,0E0,0E0,0E0,0E0,0E0,0E0,0E0,0E0,0E0,0E0,0E0,0E0,0E0,0E0],"parents":[2147483647,0,0,1,1,2,2,3,3,4,4,5,5,6,6,7,7,8,8,9,9,10,10,11,11,12,12,13,13,14,14,15,15,16,16,17,17,18,18,19,19,20,20,21,21,22,22,24,24,25,25,26,26,27,27,28,28,29,29,30,30,31,31,32,32,33,33,34,34,35,35,36,36,37,37,38,38,39,39,40,40,42,42,43,43,44,44,45,45,46,46,49,49,50,50,51,51,52,52,56,56,57,57,58,58,59,59,60,60],"right_children":[2,4,6,8,10,12,14,16,18,20,22,24,26,28,30,32,34,36,38,40,42,44,46,-1,48,50,52,54,56,58,60,62,64,66,68,70,72,74,76,78,80,-1,82,84,86,88,90,-1,-1,92,94,96,98,-1,-1,-1,100,102,104,106,108,-1,-1,-1,-1,-1,-1,-1,-1,-1,-1,-1,-1,-1,-1,-1,-1,-1,-1,-1,-1,-1,-1,-1,-1,-1,-1,-1,-1,-1,-1,-1,-1,-1,-1,-1,-1,-1,-1,-1,-1,-1,-1,-1,-1,-1,-1,-1,-1],"split_conditions":[4.2447937E-1,5.694559E-1,3.072464E-1,2.0588236E-2,2.5438598E-1,1.1672268E-1,2.8343314E-1,1.5544451E-2,4.4107744E-1,8.5903084E-1,4.9481866E-1,2.7704427E-1,2.027132E-1,4.6838048E-1,6.866883E-1,9.611651E-1,4.5725647E-2,4.480712E-1,3.572692E-1,7.5128204E-1,1.7959183E-1,3.1651375E-1,1.4488636E-1,2.8860173E-1,1.1398964E-1,3.9232484E-1,3.3643773E-1,3.7037036E-3,3.5484436E-1,6.877836E-1,8.3111113E-1,2.3517492E-1,1.2631579E-1,6.486487E-2,1.1111111E-1,1.7213115E-1,3.3333335E-2,1.2456141E-1,5.325714E-1,2.184466E-2,2.831972E-1,-5.2702945E-1,4.5212767E-1,3.8532743E-1,2.7464303E-1,5.908381E-1,5.826087E-1,-3.4599647E-1,1.6118694E-2,2.178344E-1,2.2429906E-1,2.9759604E-1,8.801742E-1,-5.281446E-1,1.8692832E-1,-2.648001E-1,6.417323E-1,3.2291666E-1,9.139073E-1,9.2195714E-1,7.8147525E-1,-2.834171E-1,4.068254E-1,-2.6631877E-1,4.2322642E-1,-2.9838756E-1,5.797951E-2,5.966695E-1,2.3652297E-1,-3.5655882E-2,8.167427E-2,1.9426844E-1,-2.3932408E-1,1.6158848E-1,-3.2125807E-1,4.0051654E-2,-2.343359E-1,-4.3775454E-1,2.8136525E-1,2.6207042E-1,-7.4229383E-1,-3.985119E-2,2.9877278E-1,-3.9276743E-1,1.7510565E-1,2.4573019E-1,-3.571282E-1,-1.09375685E-1,2.8501287E-1,3.9620116E-1,-2.0744216E-1,3.0424884E-1,-4.2162097E-1,2.9769698E-1,-5.130656E-1,3.3899432E-1,-3.1298926E-1,2.9775485E-1,-2.3508763E-1,3.2825583E-1,-1.8763217E-1,1.9171037E-1,-1.6076799E-1,1.3731514E-1,-2.1442577E-1,-3.3293223E-1,-7.8353666E-2,-2.7320665E-1,4.1723254E-1],"split_indices":[4,35,14,8,9,7,32,173,41,82,14,41,42,2,77,1,4,103,21,80,3,6,1,0,103,6,5,108,7,21,2,5,3,73,37,96,25,13,75,46,93,0,19,14,9,17,25,0,0,8,27,31,55,0,0,0,9,10,36,22,57,0,0,0,0,0,0,0,0,0,0,0,0,0,0,0,0,0,0,0,0,0,0,0,0,0,0,0,0,0,0,0,0,0,0,0,0,0,0,0,0,0,0,0,0,0,0,0,0],"split_type":[0,0,0,0,0,0,0,0,0,0,0,0,0,0,0,0,0,0,0,0,0,0,0,0,0,0,0,0,0,0,0,0,0,0,0,0,0,0,0,0,0,0,0,0,0,0,0,0,0,0,0,0,0,0,0,0,0,0,0,0,0,0,0,0,0,0,0,0,0,0,0,0,0,0,0,0,0,0,0,0,0,0,0,0,0,0,0,0,0,0,0,0,0,0,0,0,0,0,0,0,0,0,0,0,0,0,0,0,0],"sum_hessian":[1.2189799E4,1.0790731E4,1.399068E3,9.787325E3,1.00340594E3,8.49834E2,5.4923395E2,4.925248E2,9.294801E3,5.254131E2,4.7799286E2,1.6335691E1,8.334983E2,5.8185593E1,4.9104837E2,4.7344415E2,1.9080666E1,8.273526E3,1.0212737E3,5.1105487E2,1.4358209E1,1.5778499E2,3.2020786E2,1.8314797E0,1.4504212E1,6.9486336E1,7.6401196E2,4.579734E0,5.360586E1,4.0212738E2,8.8921E1,4.5900662E2,1.4437524E1,3.831509E0,1.5249156E1,7.708639E3,5.648873E2,5.0121628E2,5.200574E2,5.0300604E2,8.048834E0,6.9044957E0,7.453713E0,7.015948E1,8.762552E1,2.2528992E2,9.4917946E1,1.3483256E1,1.0209553E0,2.0674616E1,4.8811718E1,1.0405163E1,7.536068E2,3.3741963E0,1.2055374E0,1.8893967E0,5.1716465E1,2.573472E2,1.4478018E2,8.4484825E1,4.4361715E0,4.5567117E2,3.3354316E0,2.5143154E0,1.1923208E1,2.8142695E0,1.0172396E0,5.7321424E0,9.517014E0,5.049448E3,2.6591912E3,7.4543945E1,4.9034338E2,5.7898804E1,4.4331747E2,3.7960968E2,1.4044772E2,2.5759692E0,5.0043005E2,4.0672503E0,3.9815836E0,1.0112787E0,6.4424343E0,2.7874105E1,4.228537E1,1.15687E0,8.646864E1,1.4835893E1,2.1045403E2,2.6072206E1,6.884574E1,7.6977954E0,1.2976821E1,4.657922E1,2.2325006E0,4.6197324E0,5.78543E0,7.510902E2,2.5165865E0,5.0091022E1,1.625443E0,2.5469238E1,2.3187796E2,1.23392715E2,2.138747E1,7.69894E1,7.495424E0,2.678623E0,1.7575486E0],"tree_param":{"num_deleted":"0","num_feature":"187","num_nodes":"109","size_leaf_vector":"1"}},{"base_weights":[4.2944327E-3,2.2327736E-1,-1.0604908E-1,2.721868E-1,-5.5569625E-1,-4.3381104E-1,-1.9166754E-4,6.568702E-2,4.637844E-1,-2.5731993E-1,-9.74254E-1,-5.905845E-1,3.0846545E-1,-8.240774E-2,3.7066546E-1,-2.7005768E-1,2.8244E-1,5.7458985E-1,-1.0774154E-1,-6.7264223E-1,6.3868356E-1,-1.0882953E0,2.0105124E-1,3.4983933E-1,-7.054609E-1,8.3183396E-1,-6.8877167E-1,2.1092776E-2,-6.9535893E-1,8.1334203E-1,1.064895E-2,5.6986004E-1,-4.941937E-1,4.7779205E-1,-5.242664E-1,6.096805E-1,-6.034364E-1,-5.231692E-1,7.2465396E-1,-9.9759364E-1,9.307931E-1,-6.8405503E-1,8.345024E-1,1.2692027E-1,-1.1417826E0,2.777775E-1,-6.178843E-1,1.1172305E0,-2.3152639E-1,2.1771057E-1,-7.573777E-1,1.0304493E0,-8.1928295E-1,-9.0003425E-1,6.52995E-1,9.543863E-2,-9.6416366E-1,1.5313026E-1,-8.627389E-1,1.0201323E0,-1.0570555E0,-3.8373634E-1,6.473409E-1,-2.7136158E-2,3.386945E-1,-2.0740259E-1,4.3289956E-2,-7.062872E-2,1.9886026E-1,1.1951415E-1,-2.8569663E-1,1.1126365E-1,2.3238309E-1,-3.170004E-1,2.1418643E-1,3.2996345E-1,-2.0510854E-1,2.5936538E-1,-3.0980504E-1,3.1190968E-1,-3.2247964E-1,-6.6672574E-4,3.3799243E-1,-3.019485E-1,1.3752584E-1,2.795221E-1,-2.2759317E-1,-2.3504704E-1,2.2343358E-1,-4.012491E-1,-2.4112116E-1,2.7370833E-2,-2.4699737E-1,3.8072142E-1,-2.815048E-1,8.255932E-2,-3.0765608E-1,3.6206666E-1,-3.0708486E-1,-2.8155163E-1,-1.2438804E-1,-2.6638615E-1,3.5706598E-1,-2.8652814E-1,1.9269417E-1,1.7663822E-1,-3.2160717E-1,-6.4084554E-1,2.9646623E-1,7.911485E-3,2.7084595E-1,-3.2279167E-1,1.2128001E-1,-2.0019995E-1,3.539564E-1,-3.050455E-1,-6.584253E-2,-1.1193316E-1,3.785215E-1,-3.5440177E-1,2.490317E-1,-1.8277241E-1,8.539194E-2,-2.0212632E-1,2.4742585E-1],"categories":[],"categories_nodes":[],"categories_segments":[],"categories_sizes":[],"default_left":[0,0,0,0,0,0,0,0,0,0,0,0,0,0,0,0,0,0,0,0,0,0,0,0,0,0,0,0,0,0,0,0,0,0,0,0,0,0,0,0,0,0,0,0,0,0,0,0,0,0,0,0,0,0,0,0,0,0,0,0,0,0,0,0,0,0,0,0,0,0,0,0,0,0,0,0,0,0,0,0,0,0,0,0,0,0,0,0,0,0,0,0,0,0,0,0,0,0,0,0,0,0,0,0,0,0,0,0,0,0,0,0,0,0,0,0,0,0,0,0,0,0,0,0,0],"id":11,"left_children":[1,3,5,7,9,11,13,15,17,19,21,23,25,27,29,31,33,35,37,39,41,43,45,47,49,51,53,55,57,59,61,63,65,67,69,71,73,75,77,79,81,83,85,87,89,-1,91,93,95,97,99,101,103,105,107,109,111,113,115,117,119,121,123,-1,-1,-1,-1,-1,-1,-1,-1,-1,-1,-1,-1,-1,-1,-1,-1,-1,-1,-1,-1,-1,-1,-1,-1,-1,-1,-1,-1,-1,-1,-1,-1,-1,-1,-1,-1,-1,-1,-1,-1,-1,-1,-1,-1,-1,-1,-1,-1,-1,-1,-1,-1,-1,-1,-1,-1,-1,-1,-1,-1,-1,-1],"loss_changes":[2.7876608E2,1.474224E2,2.66163E2,1.4389774E2,2.831012E1,2.1811307E2,1.7686063E2,1.2757333E2,1.1955026E2,5.061991E1,1.2927704E1,1.6732245E2,1.713573E2,3.012281E2,1.6774236E2,1.297703E2,1.6810669E2,6.5704895E1,1.0662481E2,4.9199192E1,1.1768116E1,5.773033E0,6.0516877E0,7.566378E1,6.6234314E1,7.136714E1,3.2667908E1,2.9770688E2,9.754797E1,1.8366995E2,1.462645E2,5.376551E1,6.851204E1,1.1341281E2,8.257727E1,6.0182983E1,2.8352829E1,5.4303013E1,2.6143269E1,1.3330879E1,2.949668E0,2.7173688E0,6.6099796E0,3.143168E0,4.4188156E0,0E0,7.938986E-1,2.398349E1,3.930617E1,9.231199E1,8.064856E1,6.0028885E1,5.307639E0,2.5775848E1,1.70471E1,2.1069771E2,4.4066223E1,9.670756E1,5.6575317E1,1.4373218E2,1.2118687E1,5.4389053E1,5.2774025E1,0E0,0E0,0E0,0E0,0E0,0E0,0E0,0E0,0E0,0E0,0E0,0E0,0E0,0E0,0E0,0E0,0E0,0E0,0E0,0E0,0E0,0E0,0E0,0E0,0E0,0E0,0E0,0E0,0E0,0E0,0E0,0E0,0E0,0E0,0E0,0E0,0E0,0E0,0E0,0E0,0E0,0E0,0E0,0E0,0E0,0E0,0E0,0E0,0E0,0E0,0E0,0E0,0E0,0E0,0E0,0E0,0E0,0E0,0E0,0E0,0E0,0E0],"parents":[2147483647,0,0,1,1,2,2,3,3,4,4,5,5,6,6,7,7,8,8,9,9,10,10,11,11,12,12,13,13,14,14,15,15,16,16,17,17,18,18,19,19,20,20,21,21,22,22,23,23,24,24,25,25,26,26,27,27,28,28,29,29,30,30,31,31,32,32,33,33,34,34,35,35,36,36,37,37,38,38,39,39,40,40,41,41,42,42,43,43,44,44,46,46,47,47,48,48,49,49,50,50,51,51,52,52,53,53,54,54,55,55,56,56,57,57,58,58,59,59,60,60,61,61,62,62],"right_children":[2,4,6,8,10,12,14,16,18,20,22,24,26,28,30,32,34,36,38,40,42,44,46,48,50,52,54,56,58,60,62,64,66,68,70,72,74,76,78,80,82,84,86,88,90,-1,92,94,96,98,100,102,104,106,108,110,112,114,116,118,120,122,124,-1,-1,-1,-1,-1,-1,-1,-1,-1,-1,-1,-1,-1,-1,-1,-1,-1,-1,-1,-1,-1,-1,-1,-1,-1,-1,-1,-1,-1,-1,-1,-1,-1,-1,-1,-1,-1,-1,-1,-1,-1,-1,-1,-1,-1,-1,-1,-1,-1,-1,-1,-1,-1,-1,-1,-1,-1,-1,-1,-1,-1,-1],"split_conditions":[9.3971634E-1,6.959707E-1,8.356546E-2,1.6169176E-1,2.5270758E-2,4.5886654E-1,3.7091988E-1,8.041237E-2,3.846154E-1,3.61359E-1,3.4577313E-1,1.5306123E-2,2.8353658E-1,3.363561E-1,1.5597314E-1,6.787565E-1,3.959596E-1,7.3747015E-1,6.3329035E-1,5.2263373E-1,1.9904077E-1,5.894304E-1,1.4201184E-1,9.994464E-1,4.0983606E-2,3.9142197E-1,2.9132798E-1,5.410302E-1,1.4190046E-1,5.350993E-1,1.3651877E-2,1.1836115E-1,4.125724E-3,8.264463E-2,9.885932E-2,2.926026E-1,5.821935E-1,1.60401E-1,6.8894434E-1,2.1798365E-2,2.3012552E-1,5.5441856E-1,9.382716E-1,2.3809524E-1,7.476166E-1,2.777775E-1,6.7052025E-1,5.4054055E-2,3.181818E-1,1.8875502E-1,3.311578E-1,2.1974522E-1,6.4509773E-1,4.669174E-1,1.9402985E-1,3.6021507E-1,2.1698113E-1,1.6319445E-1,4.279222E-1,3.6842105E-1,6.442308E-1,4.4727272E-1,1.8E-1,-2.7136158E-2,3.386945E-1,-2.0740259E-1,4.3289956E-2,-7.062872E-2,1.9886026E-1,1.1951415E-1,-2.8569663E-1,1.1126365E-1,2.3238309E-1,-3.170004E-1,2.1418643E-1,3.2996345E-1,-2.0510854E-1,2.5936538E-1,-3.0980504E-1,3.1190968E-1,-3.2247964E-1,-6.6672574E-4,3.3799243E-1,-3.019485E-1,1.3752584E-1,2.795221E-1,-2.2759317E-1,-2.3504704E-1,2.2343358E-1,-4.012491E-1,-2.4112116E-1,2.7370833E-2,-2.4699737E-1,3.8072142E-1,-2.815048E-1,8.255932E-2,-3.0765608E-1,3.6206666E-1,-3.0708486E-1,-2.8155163E-1,-1.2438804E-1,-2.6638615E-1,3.5706598E-1,-2.8652814E-1,1.9269417E-1,1.7663822E-1,-3.2160717E-1,-6.4084554E-1,2.9646623E-1,7.911485E-3,2.7084595E-1,-3.2279167E-1,1.2128001E-1,-2.0019995E-1,3.539564E-1,-3.050455E-1,-6.584253E-2,-1.1193316E-1,3.785215E-1,-3.5440177E-1,2.490317E-1,-1.8277241E-1,8.539194E-2,-2.0212632E-1,2.4742585E-1],"split_indices":[0,66,3,4,91,34,64,8,121,3,154,68,96,24,6,0,100,61,45,30,53,68,2,0,24,2,186,85,3,68,107,12,136,87,117,60,4,3,87,21,9,8,63,70,12,0,147,66,2,81,25,12,33,35,8,6,94,4,49,2,62,23,4,0,0,0,0,0,0,0,0,0,0,0,0,0,0,0,0,0,0,0,0,0,0,0,0,0,0,0,0,0,0,0,0,0,0,0,0,0,0,0,0,0,0,0,0,0,0,0,0,0,0,0,0,0,0,0,0,0,0,0,0,0,0],"split_type":[0,0,0,0,0,0,0,0,0,0,0,0,0,0,0,0,0,0,0,0,0,0,0,0,0,0,0,0,0,0,0,0,0,0,0,0,0,0,0,0,0,0,0,0,0,0,0,0,0,0,0,0,0,0,0,0,0,0,0,0,0,0,0,0,0,0,0,0,0,0,0,0,0,0,0,0,0,0,0,0,0,0,0,0,0,0,0,0,0,0,0,0,0,0,0,0,0,0,0,0,0,0,0,0,0,0,0,0,0,0,0,0,0,0,0,0,0,0,0,0,0,0,0,0,0],"sum_hessian":[1.1534753E4,3.8644702E3,7.6702827E3,3.6367783E3,2.276919E2,1.8717529E3,5.79853E3,1.7509668E3,1.8858115E3,1.3387296E2,9.381893E1,1.5455312E3,3.2622165E2,4.7469473E3,1.0515826E3,6.8683356E2,1.0641332E3,1.5795656E3,3.0624594E2,9.164313E1,4.222983E1,8.5588234E1,8.230701E0,1.6801862E2,1.3775127E3,2.1405006E2,1.1217158E2,4.0620166E3,6.849305E2,4.710814E2,5.805012E2,1.4435213E2,5.4248145E2,8.570079E2,2.0712532E2,1.5343435E3,4.522206E1,2.0453777E2,1.01708176E2,7.6514565E1,1.5128562E1,5.1240478E0,3.710578E1,3.5504358E0,8.2037796E1,4.2967906E0,3.9339113E0,7.202513E1,9.599348E1,7.317305E1,1.3043396E3,1.9140193E2,2.264812E1,9.719702E1,1.4974556E1,3.7778494E3,2.8416727E2,1.1286678E2,5.720637E2,4.2459317E2,4.648823E1,3.587058E2,2.217954E2,6.6571014E1,7.7781105E1,4.1443362E2,1.2804784E2,1.765127E2,6.804952E2,6.5662735E1,1.4146259E2,6.2812744E2,9.0621606E2,3.3793686E1,1.1428375E1,1.7882221E1,1.8665555E2,9.467905E1,7.029129E0,2.343274E0,7.4171295E1,2.7962E0,1.2332362E1,4.089027E0,1.0350212E0,3.5362583E1,1.743202E0,1.3270143E0,2.2234216E0,5.0084427E1,3.1953367E1,1.0085584E0,2.9253528E0,6.742708E1,4.5980554E0,5.89959E1,3.6997578E1,4.0737904E1,3.2435143E1,8.522352E2,4.521044E2,1.4364637E1,1.7703731E2,2.1039667E1,1.6084548E0,9.81449E0,8.738253E1,1.0302645E0,1.3944291E1,3.4810938E3,2.9675574E2,2.629005E2,2.1266743E1,6.292943E1,4.9937355E1,4.61049E2,1.11014694E2,6.266802E1,3.6192514E2,4.396671E1,2.521524E0,2.68279E2,9.042683E1,2.5927671E1,1.9586772E2],"tree_param":{"num_deleted":"0","num_feature":"187","num_nodes":"125","size_leaf_vector":"1"}},{"base_weights":[-7.6507864E-4,-4.4666395E-1,4.1175906E-2,-7.3917246E-1,3.2577437E-1,-2.798915E-1,1.0486607E-1,1.6769548E-1,-8.779473E-1,9.6706545E-1,-7.991252E-1,2.6185593E-1,-4.8573342E-1,-6.356738E-1,1.4304246E-1,-1.1508225E0,5.693444E-1,-9.272828E-1,6.001E-1,7.5418115E-1,4.187432E0,-1.029215E0,5.5490834E-1,3.6432216E-1,-9.448702E-1,-5.5605173E-2,-7.727335E-1,5.3241724E-1,-9.054299E-1,1.7472468E-1,-6.207679E-1,-3.552887E-1,-3.8459387E-1,-3.8009858E-1,8.239095E-1,-9.6185905E-1,-3.0144206E-1,-6.921384E-1,2.2342079E0,1.1476173E0,-9.512084E-2,5.138184E0,7.753882E-1,-1.0686696E0,2.7508432E-1,1.1296712E0,1.0999593E-2,7.5774664E-1,-3.315826E-3,-1.0429407E0,2.60184E-1,7.8040063E-1,-3.0285895E-1,-8.711469E-1,1.1085414E0,-1.226755E0,7.902423E-1,-1.2076013E0,4.71272E-1,1.4579117E-2,2.8289858E-1,-1.023693E0,-4.0199035E-1,-2.6466805E-1,1.5643483E-1,3.3454075E-1,-1.0908259E-1,-2.9306307E-1,5.2482855E-2,1.3257715E0,-2.1953806E-1,2.6060045E-1,-2.982568E-1,1.0925249E0,-2.5763398E-1,3.9266083E-1,-7.8951105E-2,-4.2370915E-1,1.5331173E-1,1.7292733E0,5.441898E-1,-3.4754375E-1,2.0741934E-2,-3.5955298E-1,2.2014108E-1,6.227719E-1,1.307592E-1,-1.505416E-1,1.3259822E-1,1.3333519E-1,-3.3321822E-1,3.0210647E-1,-2.0547614E-1,2.5795165E-2,-2.3802918E-1,-1.2534428E-1,-2.9433426E-1,-2.1920341E-1,4.0687597E-1,-4.005467E-1,-4.3288827E-2,-3.1919912E-1,3.0361655E-1,-3.769726E-1,7.529263E-2,-3.995704E-1,2.8134423E-1,3.5558958E-2,-2.619653E-1,1.6730928E-1,4.3786224E-2,-3.562374E-1,-8.637843E-2,9.480679E-3,-2.245353E-1],"categories":[],"categories_nodes":[],"categories_segments":[],"categories_sizes":[],"default_left":[0,0,0,0,0,0,0,0,0,0,0,0,0,0,0,0,0,0,0,0,0,0,0,0,0,0,0,0,0,0,0,0,0,0,0,0,0,0,0,0,0,0,0,0,0,0,0,0,0,0,0,0,0,0,0,0,0,0,0,0,0,0,0,0,0,0,0,0,0,0,0,0,0,0,0,0,0,0,0,0,0,0,0,0,0,0,0,0,0,0,0,0,0,0,0,0,0,0,0,0,0,0,0,0,0,0,0,0,0,0,0,0,0,0,0],"id":12,"left_children":[1,3,5,7,9,11,13,15,17,19,21,23,25,27,29,31,33,35,37,39,41,43,45,47,49,51,53,55,57,59,61,63,-1,-1,65,67,69,71,73,75,77,79,-1,81,-1,-1,83,85,87,89,-1,91,93,95,97,99,101,103,105,107,109,111,113,-1,-1,-1,-1,-1,-1,-1,-1,-1,-1,-1,-1,-1,-1,-1,-1,-1,-1,-1,-1,-1,-1,-1,-1,-1,-1,-1,-1,-1,-1,-1,-1,-1,-1,-1,-1,-1,-1,-1,-1,-1,-1,-1,-1,-1,-1,-1,-1,-1,-1,-1,-1],"loss_changes":[2.016184E2,2.0966107E2,2.0153328E2,8.4792816E1,1.8492563E2,1.8205682E2,2.3258173E2,4.837251E1,4.310434E1,1.0861606E2,2.9618824E1,5.596805E1,1.4594434E2,1.27575714E2,1.8937683E2,1.7742386E0,3.3642357E1,1.1936951E1,4.262674E1,5.1617638E1,1.7905731E0,7.1261063E0,2.4742237E1,6.008024E1,7.2112007E0,9.8289185E1,1.3227496E2,3.5576675E1,1.3703485E2,1.3010536E2,2.7066772E1,2.49643E0,0E0,0E0,2.1795475E1,9.304443E0,6.6290825E1,6.345035E0,4.1556786E1,2.4327652E1,4.042549E1,3.564148E-1,0E0,8.144173E0,0E0,0E0,1.2366111E1,8.4229935E1,4.8106873E1,3.933712E0,0E0,3.6736893E1,7.003872E1,3.321689E1,1.7254467E1,9.9776363E-1,2.8697872E1,1.955075E1,5.1524178E1,2.7963715E2,1.6860837E2,1.2797501E1,3.061969E1,0E0,0E0,0E0,0E0,0E0,0E0,0E0,0E0,0E0,0E0,0E0,0E0,0E0,0E0,0E0,0E0,0E0,0E0,0E0,0E0,0E0,0E0,0E0,0E0,0E0,0E0,0E0,0E0,0E0,0E0,0E0,0E0,0E0,0E0,0E0,0E0,0E0,0E0,0E0,0E0,0E0,0E0,0E0,0E0,0E0,0E0,0E0,0E0,0E0,0E0,0E0,0E0],"parents":[2147483647,0,0,1,1,2,2,3,3,4,4,5,5,6,6,7,7,8,8,9,9,10,10,11,11,12,12,13,13,14,14,15,15,16,16,17,17,18,18,19,19,20,20,21,21,22,22,23,23,24,24,25,25,26,26,27,27,28,28,29,29,30,30,31,31,34,34,35,35,36,36,37,37,38,38,39,39,40,40,41,41,43,43,46,46,47,47,48,48,49,49,51,51,52,52,53,53,54,54,55,55,56,56,57,57,58,58,59,59,60,60,61,61,62,62],"right_children":[2,4,6,8,10,12,14,16,18,20,22,24,26,28,30,32,34,36,38,40,42,44,46,48,50,52,54,56,58,60,62,64,-1,-1,66,68,70,72,74,76,78,80,-1,82,-1,-1,84,86,88,90,-1,92,94,96,98,100,102,104,106,108,110,112,114,-1,-1,-1,-1,-1,-1,-1,-1,-1,-1,-1,-1,-1,-1,-1,-1,-1,-1,-1,-1,-1,-1,-1,-1,-1,-1,-1,-1,-1,-1,-1,-1,-1,-1,-1,-1,-1,-1,-1,-1,-1,-1,-1,-1,-1,-1,-1,-1,-1,-1,-1,-1],"split_conditions":[2.3980816E-3,4.2845285E-1,1.1860465E-1,1.0050251E-2,3.4969324E-1,5.249344E-3,1.8018018E-2,2.1186441E-2,4.0298507E-1,2.4820347E-1,7.85124E-2,1.1666667E-1,1.22137405E-1,1.388889E-1,6.70354E-1,1.560849E-1,7.476489E-1,2.4179347E-1,3.809524E-1,4.3112466E-1,3.3088234E-1,7.205882E-1,4.3043134E-1,4.1761827E-1,7.3371106E-1,3.1180514E-2,8.976661E-3,4.132231E-3,2.5869566E-1,1.3333334E-1,1.1554622E-1,1.6080402E-1,-3.8459387E-1,-3.8009858E-1,1.9550169E-1,8.651822E-1,3.5869073E-2,2.8158844E-1,3.8857144E-1,3.0645162E-1,3.006536E-1,3.6645964E-1,7.753882E-1,6.701951E-1,2.7508432E-1,1.1296712E0,1.9607843E-1,5.8375634E-2,5.939233E-1,2.7027028E-2,2.60184E-1,1.3513513E-1,4.7107437E-1,9.254902E-1,5.3956833E-2,1.2087912E-1,8.978182E-2,3.197795E-1,2.5186166E-1,3.7382588E-1,2.4649675E-1,4.4761905E-1,2.904762E-1,-2.6466805E-1,1.5643483E-1,3.3454075E-1,-1.0908259E-1,-2.9306307E-1,5.2482855E-2,1.3257715E0,-2.1953806E-1,2.6060045E-1,-2.982568E-1,1.0925249E0,-2.5763398E-1,3.9266083E-1,-7.8951105E-2,-4.2370915E-1,1.5331173E-1,1.7292733E0,5.441898E-1,-3.4754375E-1,2.0741934E-2,-3.5955298E-1,2.2014108E-1,6.227719E-1,1.307592E-1,-1.505416E-1,1.3259822E-1,1.3333519E-1,-3.3321822E-1,3.0210647E-1,-2.0547614E-1,2.5795165E-2,-2.3802918E-1,-1.2534428E-1,-2.9433426E-1,-2.1920341E-1,4.0687597E-1,-4.005467E-1,-4.3288827E-2,-3.1919912E-1,3.0361655E-1,-3.769726E-1,7.529263E-2,-3.995704E-1,2.8134423E-1,3.5558958E-2,-2.619653E-1,1.6730928E-1,4.3786224E-2,-3.562374E-1,-8.637843E-2,9.480679E-3,-2.245353E-1],"split_indices":[3,33,52,67,59,88,32,45,124,4,138,77,37,42,76,32,0,4,33,41,12,58,38,2,67,21,176,34,9,91,84,30,0,0,59,95,96,44,38,96,15,123,0,35,0,0,182,26,2,37,0,66,2,0,158,41,4,122,3,83,35,18,89,0,0,0,0,0,0,0,0,0,0,0,0,0,0,0,0,0,0,0,0,0,0,0,0,0,0,0,0,0,0,0,0,0,0,0,0,0,0,0,0,0,0,0,0,0,0,0,0,0,0,0,0],"split_type":[0,0,0,0,0,0,0,0,0,0,0,0,0,0,0,0,0,0,0,0,0,0,0,0,0,0,0,0,0,0,0,0,0,0,0,0,0,0,0,0,0,0,0,0,0,0,0,0,0,0,0,0,0,0,0,0,0,0,0,0,0,0,0,0,0,0,0,0,0,0,0,0,0,0,0,0,0,0,0,0,0,0,0,0,0,0,0,0,0,0,0,0,0,0,0,0,0,0,0,0,0,0,0,0,0,0,0,0,0,0,0,0,0,0,0],"sum_hessian":[1.077892E4,9.2586487E2,9.853055E3,6.715892E2,2.5427567E2,1.6304462E3,8.222608E3,8.9103806E1,5.824854E2,1.6203937E2,9.223629E1,4.488536E2,1.1815925E3,4.0234427E2,7.820264E3,2.0369694E1,6.8734116E1,5.640313E2,1.8454088E1,1.5314952E2,8.8898535E0,7.904426E1,1.3192037E1,4.1436673E2,3.448687E1,4.7335986E2,7.0823267E2,7.530156E1,3.270427E2,7.509546E3,3.1071848E2,3.4079046E0,1.6961788E1,7.884089E0,6.0850025E1,5.3399255E2,3.0038765E1,1.0626883E1,7.827205E0,1.0442415E2,4.8725376E1,4.195448E0,4.694405E0,7.791556E1,1.1286967E0,1.0530106E0,1.2139026E1,1.9965096E2,2.1471577E2,3.3118996E1,1.367873E0,1.07552124E2,3.6580774E2,6.735356E2,3.469712E1,9.14513E0,6.615643E1,2.6828076E2,5.876194E1,3.0279563E3,4.4815894E3,1.0804734E2,2.0267113E2,2.124672E0,1.2832327E0,4.891507E1,1.1934955E1,5.27169E2,6.823535E0,1.7352525E0,2.8303513E1,1.4189187E0,9.207964E0,5.257312E0,2.5698936E0,9.377767E1,1.0646474E1,1.4936634E1,3.378874E1,2.912848E0,1.2826002E0,7.2198616E1,5.716946E0,4.294557E0,7.844469E0,3.8114967E1,1.6153598E2,1.0124881E2,1.1346697E2,1.2013788E0,3.1917616E1,9.341732E1,1.41348E1,2.0452187E2,1.6128587E2,1.3242435E2,5.411112E2,3.8870087E0,3.081011E1,8.100478E0,1.0446516E0,6.6627235E0,5.949371E1,2.5969943E2,8.581321E0,1.1697307E1,4.7064632E1,2.7113545E3,3.1660175E2,1.4895397E3,2.9920498E3,8.78745E1,2.0172846E1,9.042001E1,1.12251114E2],"tree_param":{"num_deleted":"0","num_feature":"187","num_nodes":"115","size_leaf_vector":"1"}},{"base_weights":[-6.523137E-3,-4.3858968E-2,3.7865928E-1,-3.9138815E-1,5.770107E-3,8.0695254E-1,-8.749868E-3,-5.0174534E-1,2.4473439E-1,2.0866467E-1,-1.0115057E-1,-4.3447968E-1,9.055912E-1,6.109462E-1,-2.981269E-1,-8.452981E-3,-7.4367774E-1,-1.7021152E-1,9.972234E-1,4.563076E-3,5.558285E-1,7.586361E-2,-3.3749643E-1,-8.1967384E-1,1.2278537E0,-2.827355E-1,9.5510405E-1,-3.9849627E-1,8.2727486E-1,5.490302E-1,-4.569562E-1,6.78726E-1,-6.1349064E-1,-8.038025E-1,9.0729E-1,2.8722396E-1,-1.1314876E0,1.4357988E0,-8.195201E-2,2.2977173E-1,-5.084337E-1,-9.9783885E-1,6.768518E-1,1.7381409E-1,-4.8176417E-1,