{"learner":{"attributes":{"scikit_learn":"{\"_estimator_type\": \"classifier\"}"},"feature_names":["0","1","2","3","4","5","6","7","8","9","10","11","12","13","14","15","16","17","18","19","20","21","22","23","24","25","26","27","28","29","30","31","32","33","34","35","36","37","38","39","40","41","42","43","44","45","46","47","48","49","50","51","52","53","54","55","56","57","58","59","60","61","62","63","64","65","66","67","68","69","70","71","72","73","74","75","76","77","78","79","80","81","82","83","84","85","86","87","88","89","90","91","92","93","94","95","96","97","98","99","100","101","102","103","104","105","106","107","108","109","110","111","112","113","114","115","116","117","118","119","120","121","122","123","124","125","126","127","128","129","130","131","132","133","134","135","136","137","138","139","140","141","142","143","144","145","146","147","148","149","150","151","152","153","154","155","156","157","158","159","160","161","162","163","164","165","166","167","168","169","170","171","172","173","174","175","176","177","178","179","180","181","182","183","184","185","186"],"feature_types":["float","float","float","float","float","float","float","float","float","float","float","float","float","float","float","float","float","float","float","float","float","float","float","float","float","float","float","float","float","float","float","float","float","float","float","float","float","float","float","float","float","float","float","float","float","float","float","float","float","float","float","float","float","float","float","float","float","float","float","float","float","float","float","float","float","float","float","float","float","float","float","float","float","float","float","float","float","float","float","float","float","float","float","float","float","float","float","float","float","float","float","float","float","float","float","float","float","float","float","float","float","float","float","float","float","float","float","float","float","float","float","float","float","float","float","float","float","float","float","float","float","float","float","float","float","float","float","float","float","float","float","float","float","float","float","float","float","float","float","float","float","float","float","float","float","float","float","float","float","float","float","float","float","float","float","float","float","float","float","float","float","float","float","float","float","float","float","float","float","float","float","float","float","float","float","float","float","float","float","float","float","float","float","float","float","float","float"],"gradient_booster":{"model":{"gbtree_model_param":{"num_parallel_tree":"1","num_trees":"400"},"iteration_indptr":[0,4,8,12,16,20,24,28,32,36,40,44,48,52,56,60,64,68,72,76,80,84,88,92,96,100,104,108,112,116,120,124,128,132,136,140,144,148,152,156,160,164,168,172,176,180,184,188,192,196,200,204,208,212,216,220,224,228,232,236,240,244,248,252,256,260,264,268,272,276,280,284,288,292,296,300,304,308,312,316,320,324,328,332,336,340,344,348,352,356,360,364,368,372,376,380,384,388,392,396,400],"tree_info":[0,1,2,3,0,1,2,3,0,1,2,3,0,1,2,3,0,1,2,3,0,1,2,3,0,1,2,3,0,1,2,3,0,1,2,3,0,1,2,3,0,1,2,3,0,1,2,3,0,1,2,3,0,1,2,3,0,1,2,3,0,1,2,3,0,1,2,3,0,1,2,3,0,1,2,3,0,1,2,3,0,1,2,3,0,1,2,3,0,1,2,3,0,1,2,3,0,1,2,3,0,1,2,3,0,1,2,3,0,1,2,3,0,1,2,3,0,1,2,3,0,1,2,3,0,1,2,3,0,1,2,3,0,1,2,3,0,1,2,3,0,1,2,3,0,1,2,3,0,1,2,3,0,1,2,3,0,1,2,3,0,1,2,3,0,1,2,3,0,1,2,3,0,1,2,3,0,1,2,3,0,1,2,3,0,1,2,3,0,1,2,3,0,1,2,3,0,1,2,3,0,1,2,3,0,1,2,3,0,1,2,3,0,1,2,3,0,1,2,3,0,1,2,3,0,1,2,3,0,1,2,3,0,1,2,3,0,1,2,3,0,1,2,3,0,1,2,3,0,1,2,3,0,1,2,3,0,1,2,3,0,1,2,3,0,1,2,3,0,1,2,3,0,1,2,3,0,1,2,3,0,1,2,3,0,1,2,3,0,1,2,3,0,1,2,3,0,1,2,3,0,1,2,3,0,1,2,3,0,1,2,3,0,1,2,3,0,1,2,3,0,1,2,3,0,1,2,3,0,1,2,3,0,1,2,3,0,1,2,3,0,1,2,3,0,1,2,3,0,1,2,3,0,1,2,3,0,1,2,3,0,1,2,3,0,1,2,3,0,1,2,3,0,1,2,3,0,1,2,3,0,1,2,3,0,1,2,3,0,1,2,3,0,1,2,3,0,1,2,3],"trees":[{"base_weights":[-0E0,1.7198017E0,-4.2628038E-1,-5.337838E-1,1.9073185E0,4.4068977E-1,-5.1490474E-1,6.181818E-1,-6.4695007E-1,1.9509344E0,-1.24590166E-1,1.4074717E-1,1.6436682E0,-1.5949668E-1,-6.090288E-1,-3.3846155E-1,5.09434E-1,-6.542404E-1,3.529412E-2,1.0976139E0,1.9791138E0,5.1428574E-1,-5.2140075E-1,7.088866E-1,-2.7882442E-1,1.7228806E0,-1.4285715E-1,-4.30673E-1,5.871852E-1,2.5228518E-1,-6.306864E-1,1.7647061E-1,-1.7142859E-1,-1.9848342E-1,-1.5384616E-1,1.505618E0,-2.6548672E-1,1.9832611E0,-2.5E-1,3.6E-1,-1.9346939E-1,-6.134663E-1,1.0440894E0,1.3513514E0,-3.2457495E-1,-3.3898305E-2,1.8087955E0,-1.6595745E-1,3.176471E-1,-5.6184274E-1,1.179173E0,-3.0941704E-1,1.7590008E0,-1.9976498E-1,1.7768924E0,-6.428131E-1,-1.7991266E-1,-1.0588236E-1,3.529412E-2,-3.3962265E-2,5.228296E-1,-1.6039605E-1,3.6E-1,1.5254238E-1,5.9657943E-1,-1.3043478E-1,3.529412E-2,-1.8979593E-1,3.529412E-2,6.1865795E-2,4.702703E-1,5.186441E-1,-2.6086958E-2,-1.467235E-1,3.2545205E-2,-1.6595745E-1,3.6E-1,5.593626E-1,1.20000005E-1,4.2524272E-1,-1.8408215E-1,-1.4226805E-1,5.5374736E-1,4.5517242E-1,-1.3031027E-1,-1.6097562E-1,5.4578316E-1,2.7378643E-1,-1.6447167E-1,-1.20000005E-1,5.6987447E-1,-1.9367559E-1,3.7974685E-2,4.6875003E-1,-1.1882927E-1],"categories":[],"categories_nodes":[],"categories_segments":[],"categories_sizes":[],"default_left":[0,0,0,0,0,0,0,0,0,0,0,0,0,0,0,0,0,0,0,0,0,0,0,0,0,0,0,0,0,0,0,0,0,0,0,0,0,0,0,0,0,0,0,0,0,0,0,0,0,0,0,0,0,0,0,0,0,0,0,0,0,0,0,0,0,0,0,0,0,0,0,0,0,0,0,0,0,0,0,0,0,0,0,0,0,0,0,0,0,0,0,0,0,0,0],"id":0,"left_children":[1,3,5,7,9,11,13,15,17,19,21,23,25,27,29,31,-1,33,-1,35,37,-1,39,41,43,45,47,49,51,53,55,-1,-1,-1,57,59,61,63,65,-1,-1,67,69,71,73,75,77,-1,-1,79,81,83,85,87,89,91,93,-1,-1,-1,-1,-1,-1,-1,-1,-1,-1,-1,-1,-1,-1,-1,-1,-1,-1,-1,-1,-1,-1,-1,-1,-1,-1,-1,-1,-1,-1,-1,-1,-1,-1,-1,-1,-1,-1],"loss_changes":[7.0734863E3,8.1090234E2,5.9431274E2,1.969376E1,1.570625E2,2.5870526E2,2.3458435E2,1.4779997E1,8.308792E-1,3.9484863E1,2.8713089E1,1.3738255E2,2.0500488E1,2.979527E2,1.03616455E2,2.0902393E0,0E0,3.9291763E-1,0E0,3.24479E1,1.5987793E1,0E0,7.6032715E0,1.09127525E2,2.5181005E1,2.0758057E1,4.0373683E0,2.2853394E2,4.1253137E2,9.460291E1,2.9459473E1,0E0,0E0,0E0,2.1719459E-1,1.7280853E1,6.2133355E0,1.2154785E1,3.2289004E-1,0E0,0E0,7.775669E-1,8.547917E1,5.172222E0,2.3099087E1,5.3893976E0,9.522675E0,0E0,0E0,1.0317438E2,9.084578E1,5.1556976E1,2.4516296E1,4.1735287E1,9.1395035E0,1.13186035E1,5.45317E1,0E0,0E0,0E0,0E0,0E0,0E0,0E0,0E0,0E0,0E0,0E0,0E0,0E0,0E0,0E0,0E0,0E0,0E0,0E0,0E0,0E0,0E0,0E0,0E0,0E0,0E0,0E0,0E0,0E0,0E0,0E0,0E0,0E0,0E0,0E0,0E0,0E0,0E0],"parents":[2147483647,0,0,1,1,2,2,3,3,4,4,5,5,6,6,7,7,8,8,9,9,10,10,11,11,12,12,13,13,14,14,15,15,17,17,19,19,20,20,22,22,23,23,24,24,25,25,26,26,27,27,28,28,29,29,30,30,34,34,35,35,36,36,37,37,38,38,41,41,42,42,43,43,44,44,45,45,46,46,49,49,50,50,51,51,52,52,53,53,54,54,55,55,56,56],"right_children":[2,4,6,8,10,12,14,16,18,20,22,24,26,28,30,32,-1,34,-1,36,38,-1,40,42,44,46,48,50,52,54,56,-1,-1,-1,58,60,62,64,66,-1,-1,68,70,72,74,76,78,-1,-1,80,82,84,86,88,90,92,94,-1,-1,-1,-1,-1,-1,-1,-1,-1,-1,-1,-1,-1,-1,-1,-1,-1,-1,-1,-1,-1,-1,-1,-1,-1,-1,-1,-1,-1,-1,-1,-1,-1,-1,-1,-1,-1,-1],"split_conditions":[9.777778E-2,6.781609E-1,1.4652015E-1,2.7043882E-1,5.6401944E-1,6.1728396E-3,4.2720124E-1,1.85567E-1,6.6114455E-1,2.1671826E-2,4.9847685E-2,3.9855072E-1,6.5929204E-1,7.8749657E-1,1.7340288E-1,2.970751E-2,5.09434E-1,5.696822E-1,3.529412E-2,2.3245615E-1,5.782748E-1,5.1428574E-1,1.8195617E-1,1.178344E-1,1.2909399E-1,6.4482605E-3,1.8494022E-1,5.5042017E-1,1.4890145E-1,4.8351648E-1,3.991228E-1,1.7647061E-1,-1.7142859E-1,-1.9848342E-1,2.0646957E-1,1.3888889E-2,8.878966E-1,1.755301E-2,7.978309E-1,3.6E-1,-1.9346939E-1,2.7003446E-1,7.927875E-2,1.13341205E-1,7.659029E-2,8.507765E-1,2.6860467E-1,-1.6595745E-1,3.176471E-1,1.8442623E-1,9.126214E-1,2.8719723E-1,3.89112E-2,2.486997E-1,7.345713E-1,8.456327E-1,2.8787878E-1,-1.0588236E-1,3.529412E-2,-3.3962265E-2,5.228296E-1,-1.6039605E-1,3.6E-1,1.5254238E-1,5.9657943E-1,-1.3043478E-1,3.529412E-2,-1.8979593E-1,3.529412E-2,6.1865795E-2,4.702703E-1,5.186441E-1,-2.6086958E-2,-1.467235E-1,3.2545205E-2,-1.6595745E-1,3.6E-1,5.593626E-1,1.20000005E-1,4.2524272E-1,-1.8408215E-1,-1.4226805E-1,5.5374736E-1,4.5517242E-1,-1.3031027E-1,-1.6097562E-1,5.4578316E-1,2.7378643E-1,-1.6447167E-1,-1.20000005E-1,5.6987447E-1,-1.9367559E-1,3.7974685E-2,4.6875003E-1,-1.1882927E-1],"split_indices":[3,0,57,23,65,132,2,111,1,4,21,2,2,0,3,9,0,121,0,10,25,0,2,1,3,6,43,5,77,80,11,0,0,0,0,88,1,6,0,0,0,2,10,23,19,0,170,0,0,38,20,2,14,49,1,79,3,0,0,0,0,0,0,0,0,0,0,0,0,0,0,0,0,0,0,0,0,0,0,0,0,0,0,0,0,0,0,0,0,0,0,0,0,0,0],"split_type":[0,0,0,0,0,0,0,0,0,0,0,0,0,0,0,0,0,0,0,0,0,0,0,0,0,0,0,0,0,0,0,0,0,0,0,0,0,0,0,0,0,0,0,0,0,0,0,0,0,0,0,0,0,0,0,0,0,0,0,0,0,0,0,0,0,0,0,0,0,0,0,0,0,0,0,0,0,0,0,0,0,0,0,0,0,0,0,0,0,0,0,0,0,0,0],"sum_hessian":[9.6465E3,1.9155E3,7.731E3,1.47E2,1.7685E3,7.16625E2,7.014375E3,1.275E1,1.3425E2,1.731375E3,3.7125E1,5.745E2,1.42125E2,1.46925E3,5.545125E3,7.125E0,5.625E0,1.33125E2,1.125E0,5.6625E1,1.67475E3,6E0,3.1125E1,2.4375E2,3.3075E2,1.36125E2,6E0,1.078125E3,3.91125E2,1.3575E2,5.409375E3,1.125E0,6E0,1.30875E2,2.25E0,4.35E1,1.3125E1,1.67175E3,3E0,1.5E0,2.9625E1,4.9125E1,1.94625E2,8.25E0,3.225E2,6.375E0,1.2975E2,4.875E0,1.125E0,9.975E2,8.0625E1,2.22E2,1.69125E2,1.05375E2,3.0375E1,5.26725E3,1.42125E2,1.125E0,1.125E0,5.625E0,3.7875E1,1.1625E1,1.5E0,6.375E0,1.665375E3,1.875E0,1.125E0,4.8E1,1.125E0,7.5375E1,1.1925E2,6.375E0,1.875E0,2.33625E2,8.8875E1,4.875E0,1.5E0,1.245E2,5.25E0,2.475E1,9.7275E2,2.325E1,5.7375E1,1.35E1,2.085E2,4.125E0,1.65E2,2.475E1,8.0625E1,1.5E0,2.8875E1,5.2485E3,1.875E1,1.5E1,1.27125E2],"tree_param":{"num_deleted":"0","num_feature":"187","num_nodes":"95","size_leaf_vector":"1"}},{"base_weights":[-0E0,1.8387576E0,-1.5646306E-1,1.8939136E0,-5.586592E-2,1.192419E0,-3.177276E-1,1.0604982E0,1.9329649E0,1E0,-5.038168E-1,-2.8902853E-1,1.7442658E0,1.0569179E0,-4.2105976E-1,2.08E-1,1.6585366E0,1.9492385E0,8.910891E-1,1.3191489E0,-1.0588236E-1,-1.8655464E-1,1.20000005E-1,-4.9250534E-1,1.5406698E0,4.8901904E-1,1.9177294E0,1.2734693E0,-5.5159473E-1,-4.852224E-1,1.5118359E0,7.605634E-1,-4.516129E-1,5.516779E-1,-2.6086958E-2,1.9686567E0,1.2195122E0,-2.857143E-1,1.3513514E0,4.6285716E-1,1.20000005E-1,-5.709553E-1,5.2615386E-1,-1.0526316E-1,1.8212291E0,-2.183406E-1,1.8626609E0,-3.0508474E-1,1.9418E0,-5.199241E-1,1.5483681E0,-1.968191E-1,9.4736844E-1,7.819732E-1,-5.0359917E-1,1.85567E-1,1.9550562E0,4.1052634E-1,1.4634146E-2,-1.6981132E-1,3.529412E-2,5.9534794E-1,4.5071772E-1,5.575221E-1,-5.084746E-2,3.529412E-2,-1.3846155E-1,4.8923078E-1,-1.0588236E-1,1.7647061E-1,-1.8400915E-1,1.7647061E-1,-1.4482759E-1,5.717647E-1,3.529412E-2,-1.5445545E-1,5.225807E-1,1.826087E-1,5.7798165E-1,-1.6800001E-1,1.7647061E-1,5.887588E-1,3.0491805E-1,-1.8196721E-1,1.4042553E-1,4.8641223E-1,-9.8507464E-2,-1.0588236E-1,4.3448275E-1,-1.1568124E-1,5.4E-1,-1.5521352E-1,2.8208956E-1,5.09434E-1,-0E0,5.948461E-1,1.20000005E-1],"categories":[],"categories_nodes":[],"categories_segments":[],"categories_sizes":[],"default_left":[0,0,0,0,0,0,0,0,0,0,0,0,0,0,0,0,0,0,0,0,0,0,0,0,0,0,0,0,0,0,0,0,0,0,0,0,0,0,0,0,0,0,0,0,0,0,0,0,0,0,0,0,0,0,0,0,0,0,0,0,0,0,0,0,0,0,0,0,0,0,0,0,0,0,0,0,0,0,0,0,0,0,0,0,0,0,0,0,0,0,0,0,0,0,0,0,0],"id":1,"left_children":[1,3,5,7,9,11,13,15,17,19,21,23,25,27,29,31,33,35,37,39,-1,-1,-1,41,43,45,47,49,51,53,55,57,59,-1,-1,61,63,65,67,-1,-1,69,-1,71,73,75,77,79,81,83,85,-1,87,89,91,93,95,-1,-1,-1,-1,-1,-1,-1,-1,-1,-1,-1,-1,-1,-1,-1,-1,-1,-1,-1,-1,-1,-1,-1,-1,-1,-1,-1,-1,-1,-1,-1,-1,-1,-1,-1,-1,-1,-1,-1,-1],"loss_changes":[2.7758506E3,7.9173096E1,1.9346003E3,2.1879639E1,1.1086656E1,7.769553E2,1.1287269E3,1.7562683E1,1.0150635E1,3.4881096E0,1.9956126E0,9.70452E1,1.4976514E2,1.9424097E2,9.170531E2,6.038448E0,6.6147194E0,7.369385E0,7.2242823E0,5.9088135E-1,0E0,0E0,0E0,4.215016E1,1.2255753E1,8.336207E1,3.3109863E1,2.4237585E2,1.1054676E1,1.6693909E2,1.3932019E2,3.77313E0,5.7140815E-1,0E0,0E0,1.9658203E0,1.8507244E1,3.6457664E-1,4.980507E0,0E0,0E0,1.1489296E1,0E0,1.5274901E0,3.0025635E0,3.417301E1,1.1626511E0,2.0088534E0,9.541504E0,5.9224567E0,5.8779724E1,0E0,3.6049967E0,1.2267672E2,1.4075671E2,1.7016144E1,6.891968E0,0E0,0E0,0E0,0E0,0E0,0E0,0E0,0E0,0E0,0E0,0E0,0E0,0E0,0E0,0E0,0E0,0E0,0E0,0E0,0E0,0E0,0E0,0E0,0E0,0E0,0E0,0E0,0E0,0E0,0E0,0E0,0E0,0E0,0E0,0E0,0E0,0E0,0E0,0E0,0E0],"parents":[2147483647,0,0,1,1,2,2,3,3,4,4,5,5,6,6,7,7,8,8,9,9,10,10,11,11,12,12,13,13,14,14,15,15,16,16,17,17,18,18,19,19,23,23,24,24,25,25,26,26,27,27,28,28,29,29,30,30,31,31,32,32,35,35,36,36,37,37,38,38,41,41,43,43,44,44,45,45,46,46,47,47,48,48,49,49,50,50,52,52,53,53,54,54,55,55,56,56],"right_children":[2,4,6,8,10,12,14,16,18,20,22,24,26,28,30,32,34,36,38,40,-1,-1,-1,42,44,46,48,50,52,54,56,58,60,-1,-1,62,64,66,68,-1,-1,70,-1,72,74,76,78,80,82,84,86,-1,88,90,92,94,96,-1,-1,-1,-1,-1,-1,-1,-1,-1,-1,-1,-1,-1,-1,-1,-1,-1,-1,-1,-1,-1,-1,-1,-1,-1,-1,-1,-1,-1,-1,-1,-1,-1,-1,-1,-1,-1,-1,-1,-1],"split_conditions":[1.178344E-1,6.910569E-1,2.6222462E-2,3.2004327E-1,6.934673E-1,6.639758E-1,6.3541725E-2,3E-1,2.6631853E-1,7.218182E-1,9.9071205E-1,2.3058824E-1,1.6210938E-1,3.991228E-1,7.2908366E-1,2.8904784E-1,5.424312E-1,7.490337E-1,3.691275E-1,1.0227273E-1,-1.0588236E-1,-1.8655464E-1,1.20000005E-1,1.5184414E-1,2.3104747E-1,1.4483728E-1,1.5810277E-1,1.5228294E-1,4.6750206E-1,6.7114094E-3,9.665319E-1,4E-2,1.52117E-1,5.516779E-1,-2.6086958E-2,7.218182E-1,2.1079698E-1,2.7968097E-1,7.281554E-2,4.6285716E-1,1.20000005E-1,7.0714694E-1,5.2615386E-1,8.2601625E-1,7.90625E-1,1.1643836E-1,9.0434784E-1,4.4256756E-1,9.8190045E-1,1.4182888E-1,6.745763E-1,-1.968191E-1,5.3898305E-1,2.6597324E-1,4.0939596E-1,2.2728449E-2,4.5762712E-1,4.1052634E-1,1.4634146E-2,-1.6981132E-1,3.529412E-2,5.9534794E-1,4.5071772E-1,5.575221E-1,-5.084746E-2,3.529412E-2,-1.3846155E-1,4.8923078E-1,-1.0588236E-1,1.7647061E-1,-1.8400915E-1,1.7647061E-1,-1.4482759E-1,5.717647E-1,3.529412E-2,-1.5445545E-1,5.225807E-1,1.826087E-1,5.7798165E-1,-1.6800001E-1,1.7647061E-1,5.887588E-1,3.0491805E-1,-1.8196721E-1,1.4042553E-1,4.8641223E-1,-9.8507464E-2,-1.0588236E-1,4.3448275E-1,-1.1568124E-1,5.4E-1,-1.5521352E-1,2.8208956E-1,5.09434E-1,-0E0,5.948461E-1,1.20000005E-1],"split_indices":[1,7,25,15,70,2,5,51,2,75,24,39,68,11,5,84,90,68,3,1,0,0,0,143,48,10,57,38,30,4,1,1,3,0,0,75,3,2,0,0,0,0,0,0,97,124,1,3,2,39,67,0,2,16,138,21,38,0,0,0,0,0,0,0,0,0,0,0,0,0,0,0,0,0,0,0,0,0,0,0,0,0,0,0,0,0,0,0,0,0,0,0,0,0,0,0,0],"split_type":[0,0,0,0,0,0,0,0,0,0,0,0,0,0,0,0,0,0,0,0,0,0,0,0,0,0,0,0,0,0,0,0,0,0,0,0,0,0,0,0,0,0,0,0,0,0,0,0,0,0,0,0,0,0,0,0,0,0,0,0,0,0,0,0,0,0,0,0,0,0,0,0,0,0,0,0,0,0,0,0,0,0,0,0,0,0,0,0,0,0,0,0,0,0,0,0,0],"sum_hessian":[9.6465E3,7.55625E2,8.890875E3,7.3425E2,2.1375E1,9.4875E2,7.942125E3,3.4125E1,7.00125E2,6E0,1.5375E1,2.57625E2,6.91125E2,5.54625E2,7.3875E3,1.4625E1,1.95E1,6.885E2,1.1625E1,4.875E0,1.125E0,1.3875E1,1.5E0,2.325E2,2.5125E1,8.4375E1,6.0675E2,4.89E2,6.5625E1,7.150875E3,2.36625E2,7.875E0,6.75E0,1.7625E1,1.875E0,6.69E2,1.95E1,3.375E0,8.25E0,3.375E0,1.5E0,2.25375E2,7.125E0,3.75E0,2.1375E1,5.625E1,2.8125E1,6.375E0,6.00375E2,6.4875E1,4.24125E2,6.1875E1,3.75E0,1.01625E2,7.04925E3,5.9625E1,1.77E2,3.75E0,4.125E0,5.625E0,1.125E0,6.43875E2,2.5125E1,1.3125E1,6.375E0,1.125E0,2.25E0,7.125E0,1.125E0,7.5E0,2.17875E2,1.125E0,2.625E0,2.025E1,1.125E0,4.95E1,6.75E0,1.875E0,2.625E1,5.25E0,1.125E0,5.86125E2,1.425E1,6E1,4.875E0,4.08375E2,1.575E1,1.125E0,2.625E0,4.7625E1,5.4E1,6.98325E3,6.6E1,5.625E0,5.4E1,1.73625E2,3.375E0],"tree_param":{"num_deleted":"0","num_feature":"187","num_nodes":"97","size_leaf_vector":"1"}},{"base_weights":[-0E0,1.1394113E0,-5.7162315E-1,1.6587186E0,-4.0258342E-1,6.362059E-2,-6.1733854E-1,4.2046253E-3,1.7900745E0,-4.9469724E-1,4.1203007E-1,9.8507464E-1,-2.78481E-1,-6.2075305E-1,1.049505E0,1.2068965E0,-5.7054585E-1,1.8453951E0,-4.1986457E-1,-5.222087E-1,9.380531E-1,1.4266212E0,-3.7894738E-1,1.3994638E0,-6E-1,-5.693431E-1,6.51801E-2,-4.7864524E-1,-6.5530056E-1,-1.5789475E-1,5.3239435E-1,1.5508021E0,-2.0408164E-1,-6.2634987E-1,4.9056605E-1,-4.5070422E-1,1.8825312E0,3.272727E-1,-1.9530793E-1,6.315789E-1,-5.527961E-1,-3.1578946E-1,1.4216868E0,1.8644068E0,-3.3846155E-1,-5.775076E-1,7.79661E-1,-1.8584073E-1,1.7379096E0,3.529412E-2,-1.9162305E-1,-6.268657E-1,4.7368425E-1,-4.8510638E-1,4.318182E-1,-5.308745E-1,-3.2258064E-2,-6.608347E-1,-2.5140712E-1,5.426866E-1,-1.6595745E-1,1.8857144E-1,-1.7746478E-1,-0E0,-1.9290467E-1,4.3448275E-1,-1.5E-1,-1.9391635E-1,4.3448275E-1,-1.296E-1,5.695864E-1,3.4285718E-1,-1.3548388E-1,4.883721E-1,-1.7837839E-1,-1.9171211E-1,-1.16159014E-1,3.529412E-2,-1.4482759E-1,-1.20000005E-1,5.3239435E-1,3.529412E-2,5.788546E-1,-1.7142859E-1,1.7647061E-1,-1.2765958E-2,-1.9448276E-1,-7.5E-2,4.6285716E-1,5.530945E-1,-1.5428573E-1,1.7647061E-1,-1.9158529E-1,-1.8994977E-1,9E-2,2.6197186E-1,-1.8139535E-1,-5.6875836E-2,-1.6910231E-1,3.5172415E-1,-1.5718311E-1,-1.5839058E-1,-1.9930701E-1,-1.7120823E-1,1.7368421E-1],"categories":[],"categories_nodes":[],"categories_segments":[],"categories_sizes":[],"default_left":[0,0,0,0,0,0,0,0,0,0,0,0,0,0,0,0,0,0,0,0,0,0,0,0,0,0,0,0,0,0,0,0,0,0,0,0,0,0,0,0,0,0,0,0,0,0,0,0,0,0,0,0,0,0,0,0,0,0,0,0,0,0,0,0,0,0,0,0,0,0,0,0,0,0,0,0,0,0,0,0,0,0,0,0,0,0,0,0,0,0,0,0,0,0,0,0,0,0,0,0,0,0,0,0,0],"id":2,"left_children":[1,3,5,7,9,11,13,15,17,19,21,23,25,27,29,31,33,35,37,39,41,43,45,47,49,51,53,55,57,-1,-1,59,61,63,65,67,69,71,-1,73,75,77,79,81,83,85,87,-1,89,-1,-1,91,-1,93,95,97,99,101,103,-1,-1,-1,-1,-1,-1,-1,-1,-1,-1,-1,-1,-1,-1,-1,-1,-1,-1,-1,-1,-1,-1,-1,-1,-1,-1,-1,-1,-1,-1,-1,-1,-1,-1,-1,-1,-1,-1,-1,-1,-1,-1,-1,-1,-1,-1],"loss_changes":[6.284202E3,2.5818472E3,1.8662744E2,5.240835E2,6.119966E1,1.3653288E2,3.4765625E1,1.2398991E2,2.739082E2,2.9293854E1,6.724998E1,7.78539E1,3.1623829E1,2.9055908E1,1.5360554E1,2.8460602E1,7.4944077E0,1.8671191E2,9.776858E0,2.5675156E1,9.014359E0,2.893219E1,1.1377804E1,6.4794235E1,7.7024937E-1,2.2152046E1,2.9615412E1,2.7345306E1,1.0584473E1,0E0,0E0,2.6393059E1,4.3240013E0,1.2082596E0,7.0091095E0,1.4127922E1,8.0711914E1,9.250776E0,0E0,2.4179697E1,9.744598E0,4.0055516E-1,7.380825E0,3.128006E0,2.0902393E0,1.529316E0,6.181235E0,0E0,2.002945E1,0E0,0E0,2.767517E0,0E0,7.019191E0,4.0789726E1,1.1654022E1,7.406193E1,1.8693848E0,1.7994112E1,0E0,0E0,0E0,0E0,0E0,0E0,0E0,0E0,0E0,0E0,0E0,0E0,0E0,0E0,0E0,0E0,0E0,0E0,0E0,0E0,0E0,0E0,0E0,0E0,0E0,0E0,0E0,0E0,0E0,0E0,0E0,0E0,0E0,0E0,0E0,0E0,0E0,0E0,0E0,0E0,0E0,0E0,0E0,0E0,0E0,0E0],"parents":[2147483647,0,0,1,1,2,2,3,3,4,4,5,5,6,6,7,7,8,8,9,9,10,10,11,11,12,12,13,13,14,14,15,15,16,16,17,17,18,18,19,19,20,20,21,21,22,22,23,23,24,24,25,25,26,26,27,27,28,28,31,31,32,32,33,33,34,34,35,35,36,36,37,37,39,39,40,40,41,41,42,42,43,43,44,44,45,45,46,46,48,48,51,51,53,53,54,54,55,55,56,56,57,57,58,58],"right_children":[2,4,6,8,10,12,14,16,18,20,22,24,26,28,30,32,34,36,38,40,42,44,46,48,50,52,54,56,58,-1,-1,60,62,64,66,68,70,72,-1,74,76,78,80,82,84,86,88,-1,90,-1,-1,92,-1,94,96,98,100,102,104,-1,-1,-1,-1,-1,-1,-1,-1,-1,-1,-1,-1,-1,-1,-1,-1,-1,-1,-1,-1,-1,-1,-1,-1,-1,-1,-1,-1,-1,-1,-1,-1,-1,-1,-1,-1,-1,-1,-1,-1,-1,-1,-1,-1,-1,-1],"split_conditions":[1.6519716E-2,1.9105226E-1,1.7021276E-2,4.9722698E-2,7.063621E-1,8.742005E-2,7.927205E-1,3.753351E-2,3.1182796E-1,7.9019076E-1,3.558158E-1,9.1816366E-2,4.151216E-1,1.9833334E-1,6.1383283E-1,2.688172E-2,5.110294E-1,6.0185187E-2,3.2816538E-1,4.945055E-2,8.3928573E-1,2.6984128E-1,7.1826625E-1,1.7064188E-1,4E-1,8.1365573E-1,2.0203473E-1,7.552572E-1,6.103604E-1,-1.5789475E-1,5.3239435E-1,1.8825285E-1,8.008658E-2,3.9730355E-2,5.9981193E-2,7.253245E-1,2.3711327E-1,1.5486726E-1,-1.9530793E-1,2.4615371E-1,3.3898306E-1,8.894231E-1,2.0790028E-3,5.263158E-2,6.7808676E-1,4.353827E-1,1.8161437E-3,-1.8584073E-1,2.7272728E-1,3.529412E-2,-1.9162305E-1,3.8647342E-3,4.7368425E-1,4.3620178E-1,5.319149E-1,4.5730028E-1,2.795031E-1,2.834008E-2,4.512987E-1,5.426866E-1,-1.6595745E-1,1.8857144E-1,-1.7746478E-1,-0E0,-1.9290467E-1,4.3448275E-1,-1.5E-1,-1.9391635E-1,4.3448275E-1,-1.296E-1,5.695864E-1,3.4285718E-1,-1.3548388E-1,4.883721E-1,-1.7837839E-1,-1.9171211E-1,-1.16159014E-1,3.529412E-2,-1.4482759E-1,-1.20000005E-1,5.3239435E-1,3.529412E-2,5.788546E-1,-1.7142859E-1,1.7647061E-1,-1.2765958E-2,-1.9448276E-1,-7.5E-2,4.6285716E-1,5.530945E-1,-1.5428573E-1,1.7647061E-1,-1.9158529E-1,-1.8994977E-1,9E-2,2.6197186E-1,-1.8139535E-1,-5.6875836E-2,-1.6910231E-1,3.5172415E-1,-1.5718311E-1,-1.5839058E-1,-1.9930701E-1,-1.7120823E-1,1.7368421E-1],"split_indices":[87,8,96,60,56,11,55,15,43,8,8,25,75,103,6,49,3,29,41,4,15,47,8,3,1,12,2,88,147,0,0,29,5,12,38,60,2,69,0,9,2,6,0,18,62,7,72,0,4,0,0,21,0,5,3,0,74,4,6,0,0,0,0,0,0,0,0,0,0,0,0,0,0,0,0,0,0,0,0,0,0,0,0,0,0,0,0,0,0,0,0,0,0,0,0,0,0,0,0,0,0,0,0,0,0],"split_type":[0,0,0,0,0,0,0,0,0,0,0,0,0,0,0,0,0,0,0,0,0,0,0,0,0,0,0,0,0,0,0,0,0,0,0,0,0,0,0,0,0,0,0,0,0,0,0,0,0,0,0,0,0,0,0,0,0,0,0,0,0,0,0,0,0,0,0,0,0,0,0,0,0,0,0,0,0,0,0,0,0,0,0,0,0,0,0,0,0,0,0,0,0,0,0,0,0,0,0,0,0,0,0,0,0],"sum_hessian":[9.6465E3,3.222375E3,6.424125E3,2.4105E3,8.11875E2,4.3125E2,5.992875E3,1.77375E2,2.233125E3,7.2975E2,8.2125E1,1.1625E2,3.15E2,5.98125E3,1.1625E1,5.7E1,1.20375E2,2.17875E3,5.4375E1,7.16625E2,1.3125E1,3.5625E1,4.65E1,9.225E1,2.4E1,1.7025E2,1.4475E2,1.172625E3,4.808625E3,3.75E0,7.875E0,4.575E1,1.125E1,1.1475E2,5.625E0,3.45E1,2.14425E3,1.275E1,4.1625E1,1.8E1,6.98625E2,3.75E0,9.375E0,2.85E1,7.125E0,4.0125E1,6.375E0,1.3125E1,7.9125E1,1.125E0,2.2875E1,1.665E2,3.75E0,5.775E1,8.7E1,1.049625E3,1.23E2,4.743E3,6.5625E1,4.0875E1,4.875E0,3.375E0,7.875E0,3E0,1.1175E2,2.625E0,3E0,3.1875E1,2.625E0,1.4625E1,2.129625E3,6E0,6.75E0,9.75E0,8.25E0,4.575E2,2.41125E2,1.125E0,2.625E0,1.5E0,7.875E0,1.125E0,2.7375E1,6E0,1.125E0,4.875E0,3.525E1,3E0,3.375E0,7.575E1,3.375E0,1.125E0,1.65375E2,4.875E1,9E0,6.1125E1,2.5875E1,9.2625E1,9.57E2,3.525E1,8.775E1,1.26375E2,4.616625E3,4.7625E1,1.8E1],"tree_param":{"num_deleted":"0","num_feature":"187","num_nodes":"105","size_leaf_vector":"1"}},{"base_weights":[-0E0,-4.164123E-1,1.1259117E0,-5.23945E-1,1.0052963E0,-4.9716714E-1,1.7284211E0,-5.817598E-1,9.9170125E-1,1.6521739E0,1.7221585E-1,1.661017E0,-5.904059E-1,5.119139E-1,1.841231E0,-5.9714717E-1,2.055336E-2,-4.0282685E-1,1.5620438E0,-2.769231E-1,1.8989389E0,7.133479E-1,-4.2105263E-1,4.8780486E-2,5.763547E-1,-6.469094E-1,-2.0454545E-1,1.9589041E0,-1.9779311E-1,1.9172041E0,7.2289154E-2,4.6753246E-1,-6.037535E-1,1.0447761E0,-3.4541577E-1,-5.092251E-1,4.5000002E-1,1.8917944E0,1.5613383E-1,4.1538465E-1,-4.46281E-1,-2.4E-1,1.9463087E0,-4.7671232E-1,1.4829444E0,-5.52737E-1,6.526316E-1,-1.5E-1,3.176471E-1,1.2765957E-1,-6.5357524E-1,1.483871E0,-3.6307693E-1,1.7647061E-1,5.916522E-1,1.9495325E0,-4.6486485E-1,1.5114504E0,-3.4061137E-1,-1.9106147E-1,5.649635E-1,-1.820733E-1,2.9108912E-1,-1.7922078E-1,4.4661656E-1,-1.927798E-1,2.4489796E-2,2.8421053E-1,-1.8281251E-1,-1.3846155E-1,5.802017E-1,5.1428574E-1,-7.330317E-2,-1.6223177E-1,3.176471E-1,1.7647061E-1,-1.6097562E-1,1.9024391E-1,5.89916E-1,-1.6772334E-1,2.3076925E-1,-1.0434783E-1,5.4418606E-1,-1.8760563E-1,1.9148937E-1,4.2857146E-1,-1.1489362E-1,-1.5428573E-1,3.6E-1,-1.9657828E-1,3.529412E-2,5.09434E-1,3.529412E-2,1.5223882E-1,-1.7404582E-1,-4.2253524E-2,5.8790284E-1,-1.9058825E-1,2.8695655E-1,-6.206897E-2,5.5636364E-1,3.818182E-1,-1.507109E-1],"categories":[],"categories_nodes":[],"categories_segments":[],"categories_sizes":[],"default_left":[0,0,0,0,0,0,0,0,0,0,0,0,0,0,0,0,0,0,0,0,0,0,0,0,0,0,0,0,0,0,0,0,0,0,0,0,0,0,0,0,0,0,0,0,0,0,0,0,0,0,0,0,0,0,0,0,0,0,0,0,0,0,0,0,0,0,0,0,0,0,0,0,0,0,0,0,0,0,0,0,0,0,0,0,0,0,0,0,0,0,0,0,0,0,0,0,0,0,0,0,0,0,0],"id":3,"left_children":[1,3,5,7,9,11,13,15,17,19,21,23,25,27,29,31,33,35,37,39,41,43,45,47,-1,49,51,53,-1,55,57,59,61,63,65,67,-1,69,71,-1,73,75,77,79,81,83,85,-1,-1,87,89,91,93,-1,-1,95,97,99,101,-1,-1,-1,-1,-1,-1,-1,-1,-1,-1,-1,-1,-1,-1,-1,-1,-1,-1,-1,-1,-1,-1,-1,-1,-1,-1,-1,-1,-1,-1,-1,-1,-1,-1,-1,-1,-1,-1,-1,-1,-1,-1,-1,-1],"loss_changes":[4.523636E3,1.0773378E3,2.5483416E3,5.744343E2,2.668083E2,1.4304652E2,2.5980225E2,5.8483154E1,1.9231067E2,1.3327972E2,7.020608E1,1.2279999E1,1.463884E1,2.7690027E2,2.3348486E2,4.3551514E1,5.9631493E1,1.5087701E1,7.909607E1,9.763255E0,2.5531433E1,1.0534464E2,1.5135717E1,3.3701577E0,0E0,3.1322937E0,2.4093468E1,1.6766357E-1,0E0,1.2926025E2,4.3670803E1,6.1393414E1,3.0976562E1,3.141784E1,1.493286E1,1.0460516E1,0E0,1.4663208E1,2.1401047E1,0E0,4.8747263E0,1.8509039E0,5.131897E0,5.112221E0,4.2823822E1,8.496519E0,1.0089521E1,0E0,0E0,4.6613984E0,8.384094E-1,2.0686684E0,1.5648464E1,0E0,0E0,3.5148438E1,6.209608E0,1.0037685E1,1.5579966E1,0E0,0E0,0E0,0E0,0E0,0E0,0E0,0E0,0E0,0E0,0E0,0E0,0E0,0E0,0E0,0E0,0E0,0E0,0E0,0E0,0E0,0E0,0E0,0E0,0E0,0E0,0E0,0E0,0E0,0E0,0E0,0E0,0E0,0E0,0E0,0E0,0E0,0E0,0E0,0E0,0E0,0E0,0E0,0E0],"parents":[2147483647,0,0,1,1,2,2,3,3,4,4,5,5,6,6,7,7,8,8,9,9,10,10,11,11,12,12,13,13,14,14,15,15,16,16,17,17,18,18,19,19,20,20,21,21,22,22,23,23,25,25,26,26,27,27,29,29,30,30,31,31,32,32,33,33,34,34,35,35,37,37,38,38,40,40,41,41,42,42,43,43,44,44,45,45,46,46,49,49,50,50,51,51,52,52,55,55,56,56,57,57,58,58],"right_children":[2,4,6,8,10,12,14,16,18,20,22,24,26,28,30,32,34,36,38,40,42,44,46,48,-1,50,52,54,-1,56,58,60,62,64,66,68,-1,70,72,-1,74,76,78,80,82,84,86,-1,-1,88,90,92,94,-1,-1,96,98,100,102,-1,-1,-1,-1,-1,-1,-1,-1,-1,-1,-1,-1,-1,-1,-1,-1,-1,-1,-1,-1,-1,-1,-1,-1,-1,-1,-1,-1,-1,-1,-1,-1,-1,-1,-1,-1,-1,-1,-1,-1,-1,-1,-1,-1],"split_conditions":[4E-1,4.0983605E-1,3.0269703E-1,4.3097642E-1,1.5183246E-1,1.06530346E-1,4.1516744E-2,3.877551E-1,9.910802E-3,7.700653E-2,3.8178295E-1,1.437309E-1,2.5953066E-1,2.1474358E-1,4.2345294E-1,4.4444446E-3,1.122612E-1,9.652509E-3,1.9956584E-1,4.0119424E-2,1.4723927E-2,2.406234E-1,9.965675E-1,8.403535E-2,5.763547E-1,6.726257E-2,3.8550726E-1,4.316877E-1,-1.9779311E-1,9.724474E-3,4.189189E-1,1.673495E-1,5.346062E-1,1.014247E-1,4.308128E-1,1.3719513E-1,4.5000002E-1,2.7968097E-1,2.3485785E-2,4.1538465E-1,7.2482014E-1,1.8442623E-1,1.7601377E-1,2.2966541E-1,7.3081605E-2,3.6514524E-1,1.4710484E-1,-1.5E-1,3.176471E-1,6.129656E-2,6.1042863E-1,6.107757E-1,3.5250608E-2,1.7647061E-1,5.916522E-1,1.2E-2,8.631347E-1,4.0333334E-1,3.3526012E-1,-1.9106147E-1,5.649635E-1,-1.820733E-1,2.9108912E-1,-1.7922078E-1,4.4661656E-1,-1.927798E-1,2.4489796E-2,2.8421053E-1,-1.8281251E-1,-1.3846155E-1,5.802017E-1,5.1428574E-1,-7.330317E-2,-1.6223177E-1,3.176471E-1,1.7647061E-1,-1.6097562E-1,1.9024391E-1,5.89916E-1,-1.6772334E-1,2.3076925E-1,-1.0434783E-1,5.4418606E-1,-1.8760563E-1,1.9148937E-1,4.2857146E-1,-1.1489362E-1,-1.5428573E-1,3.6E-1,-1.9657828E-1,3.529412E-2,5.09434E-1,3.529412E-2,1.5223882E-1,-1.7404582E-1,-4.2253524E-2,5.8790284E-1,-1.9058825E-1,2.8695655E-1,-6.206897E-2,5.5636364E-1,3.818182E-1,-1.507109E-1],"split_indices":[101,96,3,105,9,34,26,94,121,4,8,3,3,83,11,11,11,122,118,15,19,3,0,8,0,22,84,101,0,135,39,6,97,3,2,89,0,2,11,0,91,57,3,4,25,101,105,0,0,21,2,1,6,0,0,31,44,5,9,0,0,0,0,0,0,0,0,0,0,0,0,0,0,0,0,0,0,0,0,0,0,0,0,0,0,0,0,0,0,0,0,0,0,0,0,0,0,0,0,0,0,0,0],"split_type":[0,0,0,0,0,0,0,0,0,0,0,0,0,0,0,0,0,0,0,0,0,0,0,0,0,0,0,0,0,0,0,0,0,0,0,0,0,0,0,0,0,0,0,0,0,0,0,0,0,0,0,0,0,0,0,0,0,0,0,0,0,0,0,0,0,0,0,0,0,0,0,0,0,0,0,0,0,0,0,0,0,0,0,0,0,0,0,0,0,0,0,0,0,0,0,0,0,0,0,0,0,0,0],"sum_hessian":[9.6465E3,7.0425E3,2.604E3,6.547875E3,4.94625E2,7.05E2,1.899E3,6.307875E3,2.4E2,2.77875E2,2.1675E2,2.85E1,6.765E2,1.61625E2,1.737375E3,6.15075E3,1.57125E2,6.975E1,1.7025E2,3.15E1,2.46375E2,1.1325E2,1.035E2,4.125E0,2.4375E1,5.895E2,8.7E1,7.2E1,8.9625E1,1.66575E3,7.1625E1,3.75E1,6.11325E3,4.0875E1,1.1625E2,6.675E1,3E0,1.37625E2,3.2625E1,2.25E0,2.925E1,5.25E0,2.41125E2,4.4625E1,6.8625E1,9.2625E1,1.0875E1,3E0,1.125E0,4.875E0,5.84625E2,6.75E0,8.025E1,1.125E0,7.0875E1,1.643625E3,2.2125E1,1.5375E1,5.625E1,2.1375E1,1.6125E1,6.101625E3,1.1625E1,8.625E0,3.225E1,6.825E1,4.8E1,3.75E0,6.3E1,2.25E0,1.35375E2,6E0,2.6625E1,2.8125E1,1.125E0,1.125E0,4.125E0,4.125E0,2.37E2,4.2375E1,2.25E0,1.05E1,5.8125E1,8.775E1,4.875E0,6E0,4.875E0,3.375E0,1.5E0,5.835E2,1.125E0,5.625E0,1.125E0,1.575E1,6.45E1,7.875E0,1.63575E3,2.025E1,1.875E0,2.625E0,1.275E1,4.5E0,5.175E1],"tree_param":{"num_deleted":"0","num_feature":"187","num_nodes":"103","size_leaf_vector":"1"}},{"base_weights":[-1.329497E-3,9.9943453E-1,-4.062042E-1,-4.8748225E-1,1.1264615E0,2.6098168E-1,-4.854438E-1,6.729936E-1,-6.021786E-1,1.154149E0,-1.98564E-1,1.4112697E-2,1.0059294E0,-5.054419E-1,8.002953E-1,-1.5831122E-1,1.0164218E0,-6.211919E-1,3.231864E-1,1.1648762E0,-4.6119788E-1,1.0116625E0,-5.8320165E-1,-9.526275E-2,1.2226312E0,1.0555671E0,-2.951508E-1,-9.47915E-2,-5.5024654E-1,-5.0601894E-1,1.1710554E0,-1.0503479E-1,1.1446965E0,-1.8795057E-1,-3.1020868E-1,2.645945E-1,-1.1901834E-1,1.1703951E0,-3.8913423E-1,2.1158792E-1,-1.8634869E-1,-1.1121934E-1,3.6340868E-1,3.7037887E-2,-1.8192717E-1,2.0897707E-1,-3.8804045E-1,1.297367E0,-1.302913E-1,2.5534782E-1,1.1141016E0,1.4777271E-1,-1.6242863E-1,-6.033499E-1,2.337398E-1,-3.2542935E-1,-5.847356E-1,1.9083829E-1,-1.8004951E-1,1.2142262E0,-1.3013647E-1,3.6731046E-1,3.0417075E-2,4.929237E-2,-1.4058723E-1,2.1792243E-1,3.555957E-1,1.5977998E-1,-1.7688234E-1,1.385128E-1,-1.9805582E-1,-1.2291265E-1,3.5592753E-1,4.0409905E-1,-9.916387E-2,3.2362798E-1,-1.7200027E-1,3.4063756E-1,-5.6520484E-2,6.9093905E-2,-1.8583894E-1,-1.1050971E-1,1.8030617E-1,2.0099238E-1,-1.4677545E-1,-1.794965E-1,-8.1645675E-2,1.1969603E-1,3.6734128E-1],"categories":[],"categories_nodes":[],"categories_segments":[],"categories_sizes":[],"default_left":[0,0,0,0,0,0,0,0,0,0,0,0,0,0,0,0,0,0,0,0,0,0,0,0,0,0,0,0,0,0,0,0,0,0,0,0,0,0,0,0,0,0,0,0,0,0,0,0,0,0,0,0,0,0,0,0,0,0,0,0,0,0,0,0,0,0,0,0,0,0,0,0,0,0,0,0,0,0,0,0,0,0,0,0,0,0,0,0,0],"id":4,"left_children":[1,3,5,7,9,11,13,15,17,19,21,23,25,27,29,-1,31,33,35,37,39,41,43,45,47,49,51,53,55,57,59,-1,61,-1,63,-1,-1,65,67,-1,-1,-1,-1,-1,-1,69,71,73,-1,75,77,-1,-1,79,81,83,85,-1,-1,87,-1,-1,-1,-1,-1,-1,-1,-1,-1,-1,-1,-1,-1,-1,-1,-1,-1,-1,-1,-1,-1,-1,-1,-1,-1,-1,-1,-1,-1],"loss_changes":[3.7376208E3,5.0239746E2,3.4733484E2,2.8332642E1,9.004468E1,1.2832336E2,1.5135315E2,8.513162E0,3.5696106E0,4.209326E1,2.431317E1,6.9533905E1,1.1528564E1,1.06319214E2,4.4327343E1,0E0,3.097454E0,1.1603546E-1,2.1653204E0,2.0890625E1,3.5238895E0,3.943101E0,7.198973E-1,4.3060272E1,5.969597E0,7.5622406E0,1.6565561E0,9.536507E1,4.0225464E1,2.6034656E0,5.420723E0,0E0,1.0643349E0,0E0,4.630957E-1,0E0,0E0,1.487207E1,2.0107965E0,0E0,0E0,0E0,0E0,0E0,0E0,5.242528E1,8.886681E0,3.840477E0,0E0,9.295139E0,4.5479736E0,0E0,0E0,3.1511536E0,7.695254E1,1.13747765E2,1.9023682E1,0E0,0E0,8.8157654E-2,0E0,0E0,0E0,0E0,0E0,0E0,0E0,0E0,0E0,0E0,0E0,0E0,0E0,0E0,0E0,0E0,0E0,0E0,0E0,0E0,0E0,0E0,0E0,0E0,0E0,0E0,0E0,0E0,0E0],"parents":[2147483647,0,0,1,1,2,2,3,3,4,4,5,5,6,6,7,7,8,8,9,9,10,10,11,11,12,12,13,13,14,14,16,16,17,17,18,18,19,19,20,20,21,21,22,22,23,23,24,24,25,25,26,26,27,27,28,28,29,29,30,30,32,32,34,34,37,37,38,38,45,45,46,46,47,47,49,49,50,50,53,53,54,54,55,55,56,56,59,59],"right_children":[2,4,6,8,10,12,14,16,18,20,22,24,26,28,30,-1,32,34,36,38,40,42,44,46,48,50,52,54,56,58,60,-1,62,-1,64,-1,-1,66,68,-1,-1,-1,-1,-1,-1,70,72,74,-1,76,78,-1,-1,80,82,84,86,-1,-1,88,-1,-1,-1,-1,-1,-1,-1,-1,-1,-1,-1,-1,-1,-1,-1,-1,-1,-1,-1,-1,-1,-1,-1,-1,-1,-1,-1,-1,-1],"split_conditions":[1.2309958E-1,6.781609E-1,1.4652015E-1,2.1382727E-1,5.6401944E-1,8.1922775E-3,9.6153843E-1,6.7114094E-3,6.2931037E-1,5.933908E-1,2.6666668E-1,2.0315054E-1,6.8833333E-1,1.8604651E-1,2.48667E-1,-1.5831122E-1,4.792332E-3,6.586621E-1,2.7003446E-1,5.782748E-1,6.333973E-2,6.795367E-1,3.2182887E-1,4.3769968E-1,8.904791E-1,1.755301E-2,1.042471E-1,5.808824E-1,4.2720124E-1,3.5701478E-1,7.525773E-1,-1.0503479E-1,1.496599E-1,-1.8795057E-1,2.8883773E-1,2.645945E-1,-1.1901834E-1,6.3541725E-2,4.7580644E-1,2.1158792E-1,-1.8634869E-1,-1.1121934E-1,3.6340868E-1,3.7037887E-2,-1.8192717E-1,4.7826087E-1,8.17952E-1,9.815315E-2,-1.302913E-1,4.4401545E-2,6.218097E-1,1.4777271E-1,-1.6242863E-1,2.2295806E-1,6.295754E-2,2.7234042E-1,3.5630253E-1,1.9083829E-1,-1.8004951E-1,7.935657E-1,-1.3013647E-1,3.6731046E-1,3.0417075E-2,4.929237E-2,-1.4058723E-1,2.1792243E-1,3.555957E-1,1.5977998E-1,-1.7688234E-1,1.385128E-1,-1.9805582E-1,-1.2291265E-1,3.5592753E-1,4.0409905E-1,-9.916387E-2,3.2362798E-1,-1.7200027E-1,3.4063756E-1,-5.6520484E-2,6.9093905E-2,-1.8583894E-1,-1.1050971E-1,1.8030617E-1,2.0099238E-1,-1.4677545E-1,-1.794965E-1,-8.1645675E-2,1.1969603E-1,3.6734128E-1],"split_indices":[3,0,57,27,65,129,21,4,1,60,29,61,2,3,2,0,7,112,2,25,72,1,2,2,1,6,100,0,2,57,7,0,4,0,8,0,0,5,22,0,0,0,0,0,0,20,77,78,0,8,169,0,0,48,88,52,11,0,0,14,0,0,0,0,0,0,0,0,0,0,0,0,0,0,0,0,0,0,0,0,0,0,0,0,0,0,0,0,0],"split_type":[0,0,0,0,0,0,0,0,0,0,0,0,0,0,0,0,0,0,0,0,0,0,0,0,0,0,0,0,0,0,0,0,0,0,0,0,0,0,0,0,0,0,0,0,0,0,0,0,0,0,0,0,0,0,0,0,0,0,0,0,0,0,0,0,0,0,0,0,0,0,0,0,0,0,0,0,0,0,0,0,0,0,0,0,0,0,0,0,0],"sum_hessian":[9.2225E3,2.65599E3,6.56651E3,2.0881883E2,2.4471711E3,6.9684906E2,5.869661E3,1.834455E1,1.9047427E2,2.3972083E3,4.996291E1,5.2416455E2,1.726845E2,5.7803613E3,8.9299675E1,3.9606614E0,1.4383887E1,1.8696152E2,3.5127594E0,2.3816711E3,1.5537172E1,1.1656535E1,3.8306374E1,4.8150748E2,4.2657055E1,1.6652025E2,6.1642456E0,5.689399E2,5.2114214E3,1.9661325E1,6.963835E1,1.0859206E0,1.3297967E1,1.8282524E2,4.13627E0,1.8509427E0,1.6618167E0,2.3734885E3,8.182491E0,1.4625945E0,1.4074577E1,1.3632417E0,1.0293293E1,1.0814387E0,3.7224934E1,2.362719E2,2.452356E2,4.10237E1,1.6333563E0,1.1715892E1,1.5480435E2,1.2299949E0,4.9342504E0,2.2296263E2,3.459772E2,6.945328E2,4.5168887E3,1.0588555E0,1.860247E1,6.805115E1,1.5871973E0,1.2193286E1,1.1046815E0,1.0259494E0,3.1103206E0,7.880119E1,2.2946875E3,1.1657794E0,7.0167117E0,1.834095E2,5.2862396E1,2.4263614E2,2.5994658E0,3.9977474E1,1.0462232E0,5.725262E0,5.99063E0,1.524332E2,2.3711638E0,3.9756792E0,2.1898695E2,1.3108261E2,2.1489459E2,9.771493E1,5.968178E2,4.3278687E3,1.8901987E2,1.3402945E0,6.671085E1],"tree_param":{"num_deleted":"0","num_feature":"187","num_nodes":"89","size_leaf_vector":"1"}},{"base_weights":[4.725075E-3,-2.409486E-1,6.538581E-1,7.5033545E-1,-3.2771328E-1,1.1451037E0,3.8767084E-1,-5.702937E-1,8.77977E-1,5.795867E-1,-4.3568328E-1,1.158653E0,-5.5707167E-3,-2.63435E-1,9.282822E-1,-1.8903191E-1,3.567925E-1,1.0191413E0,-4.6301684E-1,-4.7248587E-1,9.2002124E-1,-4.925101E-1,1.19772695E-1,8.699534E-2,1.1642449E0,3.0611262E-1,-1.6467108E-1,3.104622E-1,-4.6983355E-1,1.25273E0,-6.456875E-2,-1.03824906E-1,2.675521E-1,1.1118319E0,3.0189672E-1,-1.8494064E-1,3.1658736E-1,-5.93956E-1,7.9255843E-1,3.2630375E-1,1.1606373E0,-5.068354E-1,8.4032625E-1,1.1630337E0,-2.4793726E-1,2.4506634E-1,-1.5274821E-1,1.1730634E0,8.72809E-1,8.925945E-1,-3.3454338E-1,1.1454611E0,-5.654823E-1,1.2070848E0,1.6309568E0,1.1238227E0,-4.2370212E-1,-1.0347601E-1,3.4530148E-1,-5.1124502E-2,3.5295787E-1,-1.8377922E-1,2.4541925E-1,-2.713959E-2,3.3269364E-1,-1.8588176E-2,3.4229884E-1,3.5228293E-2,3.594315E-1,-1.5414596E-1,2.964823E-1,3.8124612E-1,-2.9231045E-2,-3.6774836E-2,3.974912E-1,-1.3260911E-1,3.742004E-1,3.5268214E-1,-1.09312184E-1,3.513647E-1,3.9531622E-2,1.389155E-1,4.4007906E-1,4.7448888E-1,-1.5627918E-1,3.692615E-1,-1.2921667E-1,-1.844291E-1,-5.8602285E-2,3.6825597E-1,-1.981304E-2,5.2340555E-1,2.4307637E-1,-4.0776033E-2,4.015769E-1,-1.401753E-1,3.1783134E-1],"categories":[],"categories_nodes":[],"categories_segments":[],"categories_sizes":[],"default_left":[0,0,0,0,0,0,0,0,0,0,0,0,0,0,0,0,0,0,0,0,0,0,0,0,0,0,0,0,0,0,0,0,0,0,0,0,0,0,0,0,0,0,0,0,0,0,0,0,0,0,0,0,0,0,0,0,0,0,0,0,0,0,0,0,0,0,0,0,0,0,0,0,0,0,0,0,0,0,0,0,0,0,0,0,0,0,0,0,0,0,0,0,0,0,0,0,0],"id":5,"left_children":[1,3,5,7,9,11,13,15,17,19,21,23,25,27,29,-1,31,33,35,37,39,41,43,45,47,-1,-1,49,51,53,55,-1,-1,57,59,-1,-1,61,63,65,67,69,71,73,75,-1,-1,77,79,81,83,85,87,89,91,93,95,-1,-1,-1,-1,-1,-1,-1,-1,-1,-1,-1,-1,-1,-1,-1,-1,-1,-1,-1,-1,-1,-1,-1,-1,-1,-1,-1,-1,-1,-1,-1,-1,-1,-1,-1,-1,-1,-1,-1,-1],"loss_changes":[1.4721119E3,5.762095E2,3.309646E2,9.140335E1,6.035294E2,1.3884888E1,5.793639E2,2.8939095E0,9.363278E1,2.3515358E2,1.7379114E2,5.1711426E0,6.889739E0,8.864461E1,2.897121E2,0E0,1.6458501E0,2.9286865E1,1.1731319E1,2.5191822E1,7.040262E1,9.576526E1,1.9656119E2,2.873456E0,1.2252197E0,0E0,0E0,7.4728966E1,8.560809E1,9.731689E0,9.539521E1,0E0,0E0,2.289264E1,2.1832367E1,0E0,0E0,4.379814E0,4.158E0,4.570885E1,1.3625122E1,5.210266E1,2.171133E1,2.7958176E1,1.1058166E2,0E0,0E0,3.7391357E0,6.3934174E0,2.509237E1,3.4668606E1,4.7131996E0,9.362152E0,1.5914307E1,5.13237E0,1.4219879E1,1.1573025E1,0E0,0E0,0E0,0E0,0E0,0E0,0E0,0E0,0E0,0E0,0E0,0E0,0E0,0E0,0E0,0E0,0E0,0E0,0E0,0E0,0E0,0E0,0E0,0E0,0E0,0E0,0E0,0E0,0E0,0E0,0E0,0E0,0E0,0E0,0E0,0E0,0E0,0E0,0E0,0E0],"parents":[2147483647,0,0,1,1,2,2,3,3,4,4,5,5,6,6,7,7,8,8,9,9,10,10,11,11,12,12,13,13,14,14,16,16,17,17,18,18,19,19,20,20,21,21,22,22,23,23,24,24,27,27,28,28,29,29,30,30,33,33,34,34,37,37,38,38,39,39,40,40,41,41,42,42,43,43,44,44,47,47,48,48,49,49,50,50,51,51,52,52,53,53,54,54,55,55,56,56],"right_children":[2,4,6,8,10,12,14,16,18,20,22,24,26,28,30,-1,32,34,36,38,40,42,44,46,48,-1,-1,50,52,54,56,-1,-1,58,60,-1,-1,62,64,66,68,70,72,74,76,-1,-1,78,80,82,84,86,88,90,92,94,96,-1,-1,-1,-1,-1,-1,-1,-1,-1,-1,-1,-1,-1,-1,-1,-1,-1,-1,-1,-1,-1,-1,-1,-1,-1,-1,-1,-1,-1,-1,-1,-1,-1,-1,-1,-1,-1,-1,-1,-1],"split_conditions":[2.764977E-1,5.6810524E-2,1.0227273E-1,1.463964E-1,2.6222462E-2,7.037037E-1,6.359231E-1,6.5929204E-1,3.8533834E-1,1.6012949E-1,1.4855072E-1,2.9411766E-1,6.635421E-1,3.767387E-1,2.129964E-1,-1.8903191E-1,6.815287E-1,1.0938071E-1,4.202254E-1,2.8767124E-1,1.6736402E-1,6.9264543E-1,1.2992126E-1,3.0912745E-1,7.39525E-1,3.0611262E-1,-1.6467108E-1,7.399966E-1,6.7114094E-3,3.1528664E-1,3.6339167E-1,-1.03824906E-1,2.675521E-1,8.707676E-2,2.199074E-1,-1.8494064E-1,3.1658736E-1,2.2450207E-1,8.958333E-1,2.2090797E-1,5.5407405E-1,8.239796E-1,3.6779564E-2,1.6763479E-1,5.6626505E-1,2.4506634E-1,-1.5274821E-1,2.0646957E-1,4.945055E-1,7.306338E-1,5.569801E-1,2.797619E-1,4.1269842E-1,2.5661376E-1,5.8880776E-1,3.5514018E-1,1.2096774E-2,-1.0347601E-1,3.4530148E-1,-5.1124502E-2,3.5295787E-1,-1.8377922E-1,2.4541925E-1,-2.713959E-2,3.3269364E-1,-1.8588176E-2,3.4229884E-1,3.5228293E-2,3.594315E-1,-1.5414596E-1,2.964823E-1,3.8124612E-1,-2.9231045E-2,-3.6774836E-2,3.974912E-1,-1.3260911E-1,3.742004E-1,3.5268214E-1,-1.09312184E-1,3.513647E-1,3.9531622E-2,1.389155E-1,4.4007906E-1,4.7448888E-1,-1.5627918E-1,3.692615E-1,-1.2921667E-1,-1.844291E-1,-5.8602285E-2,3.6825597E-1,-1.981304E-2,5.2340555E-1,2.4307637E-1,-4.0776033E-2,4.015769E-1,-1.401753E-1,3.1783134E-1],"split_indices":[9,5,1,33,25,7,2,2,11,59,136,12,68,0,24,0,0,7,25,4,92,5,9,17,74,0,0,37,4,48,5,0,0,44,96,0,0,36,1,39,2,59,20,51,2,0,0,0,6,24,50,6,61,16,6,30,162,0,0,0,0,0,0,0,0,0,0,0,0,0,0,0,0,0,0,0,0,0,0,0,0,0,0,0,0,0,0,0,0,0,0,0,0,0,0,0,0],"split_type":[0,0,0,0,0,0,0,0,0,0,0,0,0,0,0,0,0,0,0,0,0,0,0,0,0,0,0,0,0,0,0,0,0,0,0,0,0,0,0,0,0,0,0,0,0,0,0,0,0,0,0,0,0,0,0,0,0,0,0,0,0,0,0,0,0,0,0,0,0,0,0,0,0,0,0,0,0,0,0,0,0,0,0,0,0,0,0,0,0,0,0,0,0,0,0,0,0],"sum_hessian":[9.229007E3,6.6955933E3,2.533414E3,5.382665E2,6.1573267E3,8.891662E2,1.6442478E3,4.7133812E1,4.9113266E2,6.543431E2,5.5029834E3,8.7881116E2,1.0355056E1,7.461302E2,8.981176E2,4.457811E1,2.5556998E0,4.4457315E2,4.6559505E1,1.5987636E2,4.9446674E2,4.9923467E3,5.1063687E2,4.647806E0,8.741633E2,3.2812521E0,7.073804E0,1.9722794E2,5.489022E2,6.7671594E2,2.214017E2,1.2572559E0,1.2984439E0,3.9320813E2,5.1365013E1,4.2825233E1,3.734273E0,1.4635388E2,1.3522477E1,1.4328027E2,3.5118646E2,4.9398726E3,5.2473927E1,1.3251225E2,3.7812463E2,1.9230714E0,2.7247348E0,8.45553E2,2.8610382E1,1.0346476E2,9.3763176E1,3.0072292E1,5.1882996E2,6.075829E2,6.913304E1,5.0886456E1,1.7051526E2,1.0092338E1,3.8311578E2,3.387644E1,1.7488575E1,1.4500566E2,1.3482063E0,3.7556913E0,9.766786E0,9.76611E1,4.561917E1,1.2319166E1,3.3886728E2,4.9175566E3,2.2316011E1,3.572066E1,1.6753267E1,1.48512535E1,1.17661E2,3.353049E2,4.2819725E1,8.4439124E2,1.1617324E0,1.9982971E1,8.627412E0,6.0227295E1,4.323747E1,7.6483035E0,8.6114876E1,2.8734312E1,1.3379806E0,4.5728525E2,6.15447E1,5.9801984E2,9.563053E0,5.973013E1,9.402914E0,7.465245E0,4.342121E1,1.6631673E2,4.1985335E0],"tree_param":{"num_deleted":"0","num_feature":"187","num_nodes":"97","size_leaf_vector":"1"}},{"base_weights":[-1.7906599E-3,7.558359E-1,-5.19273E-1,1.023241E0,-3.5418996E-1,4.3208953E-2,-5.6655777E-1,-1.8615918E-2,1.0884533E0,-4.424104E-1,3.082741E-1,5.4879487E-1,-3.235979E-1,-4.2309678E-1,-6.032531E-1,7.532462E-1,-5.3819215E-1,1.115553E0,-4.4693446E-1,-4.7015387E-1,6.935116E-1,9.35329E-1,-3.3567637E-1,9.07401E-1,-1.8331644E-1,-5.3315574E-1,1.2865284E-1,-2.90509E-1,-5.9055346E-1,-6.0906374E-1,7.656879E-1,-3.1374657E-1,1.0219239E0,-5.960794E-1,4.762575E-1,-5.113548E-1,1.1312382E0,4.659864E-1,-5.6913126E-1,5.157394E-1,-5.0148684E-1,-2.7843276E-1,9.9150604E-1,1.1484066E0,-2.8281572E-1,-5.319133E-1,5.6630546E-1,-1.7398478E-1,1.0535101E0,-4.5569516E-3,-6.021917E-1,7.8768E-1,-6.1427426E-1,-3.8034385E-1,7.83516E-1,-6.20977E-1,-3.4587204E-1,-6.1410487E-1,-2.5316456E-1,-1.5376544E-1,3.654273E-1,2.80432E-1,-1.8323131E-1,3.4876692E-1,-1.6286953E-1,1.5675303E-2,-1.8421358E-1,3.052104E-1,-1.3043915E-1,-1.9438869E-1,2.7140456E-1,3.4252986E-1,-8.920887E-2,-1.374341E-1,3.1870702E-1,1.3285129E-1,-1.8919206E-1,3.333381E-1,-1.6237059E-1,-6.821783E-2,-1.6574223E-1,4.828116E-2,-1.3729417E-1,-1.1181939E-1,3.593952E-1,1.6693426E-2,3.5525113E-1,-1.5657714E-1,1.4639531E-1,-3.4162153E-3,-1.8271083E-1,-7.6050036E-2,3.2708034E-1,-1.7793882E-1,3.402841E-1,-1.5664634E-1,2.4912031E-1,-1.8950085E-1,-9.939533E-2,-1.6979334E-1,3.466242E-1,5.1765837E-2,-1.922245E-1,-1.4681351E-1,1.6350456E-1,-1.8596478E-1,3.116274E-1,4.956347E-2,-1.8701948E-1,1.0392781E-1,-1.8632667E-1,-1.4209342E-1,-1.8540524E-1,1.760794E-1,-1.4313594E-1],"categories":[],"categories_nodes":[],"categories_segments":[],"categories_sizes":[],"default_left":[0,0,0,0,0,0,0,0,0,0,0,0,0,0,0,0,0,0,0,0,0,0,0,0,0,0,0,0,0,0,0,0,0,0,0,0,0,0,0,0,0,0,0,0,0,0,0,0,0,0,0,0,0,0,0,0,0,0,0,0,0,0,0,0,0,0,0,0,0,0,0,0,0,0,0,0,0,0,0,0,0,0,0,0,0,0,0,0,0,0,0,0,0,0,0,0,0,0,0,0,0,0,0,0,0,0,0,0,0,0,0,0,0,0,0],"id":6,"left_children":[1,3,5,7,9,11,13,15,17,19,21,23,25,27,29,31,33,35,37,39,41,43,45,47,-1,49,51,53,55,57,59,61,63,65,67,69,71,73,75,77,79,81,83,85,87,89,91,-1,93,95,97,99,101,103,105,107,109,111,113,-1,-1,-1,-1,-1,-1,-1,-1,-1,-1,-1,-1,-1,-1,-1,-1,-1,-1,-1,-1,-1,-1,-1,-1,-1,-1,-1,-1,-1,-1,-1,-1,-1,-1,-1,-1,-1,-1,-1,-1,-1,-1,-1,-1,-1,-1,-1,-1,-1,-1,-1,-1,-1,-1,-1,-1],"loss_changes":[3.6189636E3,1.1123113E3,1.4589624E2,2.0514575E2,4.2682198E1,7.922343E1,2.6378784E1,7.212208E1,1.1872095E2,2.0584984E1,3.509773E1,7.52491E1,2.3538815E1,2.2783005E1,3.2494507E1,2.1065376E1,6.594536E0,7.1833984E1,5.842269E0,1.9661789E1,4.8321314E0,1.1721523E1,7.953858E0,3.0508286E1,0E0,6.1799965E0,3.9271538E1,5.616019E1,3.1789093E0,7.0389404E0,1.0721961E1,6.252691E0,1.3404045E1,1.221405E0,3.5762286E0,5.8773212E0,4.194043E1,4.042193E0,3.0517807E0,1.3087196E1,8.389175E0,4.2577904E-1,3.8995543E0,1.4023399E0,1.6073627E0,1.4392633E0,3.8028796E0,0E0,1.7380814E1,9.327229E0,9.872093E-1,2.1769789E1,8.980007E-1,5.4241837E1,1.6768929E1,8.7242126E-1,1.0251151E1,1.8796387E0,1.1137334E1,0E0,0E0,0E0,0E0,0E0,0E0,0E0,0E0,0E0,0E0,0E0,0E0,0E0,0E0,0E0,0E0,0E0,0E0,0E0,0E0,0E0,0E0,0E0,0E0,0E0,0E0,0E0,0E0,0E0,0E0,0E0,0E0,0E0,0E0,0E0,0E0,0E0,0E0,0E0,0E0,0E0,0E0,0E0,0E0,0E0,0E0,0E0,0E0,0E0,0E0,0E0,0E0,0E0,0E0,0E0,0E0],"parents":[2147483647,0,0,1,1,2,2,3,3,4,4,5,5,6,6,7,7,8,8,9,9,10,10,11,11,12,12,13,13,14,14,15,15,16,16,17,17,18,18,19,19,20,20,21,21,22,22,23,23,25,25,26,26,27,27,28,28,29,29,30,30,31,31,32,32,33,33,34,34,35,35,36,36,37,37,38,38,39,39,40,40,41,41,42,42,43,43,44,44,45,45,46,46,48,48,49,49,50,50,51,51,52,52,53,53,54,54,55,55,56,56,57,57,58,58],"right_children":[2,4,6,8,10,12,14,16,18,20,22,24,26,28,30,32,34,36,38,40,42,44,46,48,-1,50,52,54,56,58,60,62,64,66,68,70,72,74,76,78,80,82,84,86,88,90,92,-1,94,96,98,100,102,104,106,108,110,112,114,-1,-1,-1,-1,-1,-1,-1,-1,-1,-1,-1,-1,-1,-1,-1,-1,-1,-1,-1,-1,-1,-1,-1,-1,-1,-1,-1,-1,-1,-1,-1,-1,-1,-1,-1,-1,-1,-1,-1,-1,-1,-1,-1,-1,-1,-1,-1,-1,-1,-1,-1,-1,-1,-1,-1,-1],"split_conditions":[1.6519716E-2,1.9105226E-1,1.7021276E-2,1.0423547E-1,7.063621E-1,7.81893E-2,1.9833334E-1,3.753351E-2,3.1428573E-1,7.9019076E-1,3.558158E-1,2.460941E-1,4.7449586E-1,2.9937223E-1,7.2839504E-1,8.087987E-1,5.0409836E-1,3.8548753E-2,5.0533097E-3,4.945055E-2,8.3928573E-1,2.6984128E-1,7.1826625E-1,1.7064188E-1,-1.8331644E-1,1.4375E-1,5.569583E-1,7.837838E-1,4.945055E-1,6.103604E-1,4.6843854E-1,4.4333708E-2,1.8902886E-1,3.9730355E-2,8.7572105E-2,1.5966387E-1,2.1825397E-1,9.5253515E-1,2.305936E-1,2.4615371E-1,2.1186441E-1,2.9968455E-1,2.0790028E-3,5.263158E-2,6.7808676E-1,4.353827E-1,1.8161437E-3,-1.7398478E-1,6.732348E-1,5.1531154E-1,7.7938145E-1,3.132175E-1,2.0295566E-1,3.6877525E-1,3.0808082E-1,2.029703E-1,5.140845E-1,2.834008E-2,2.7294552E-1,-1.5376544E-1,3.654273E-1,2.80432E-1,-1.8323131E-1,3.4876692E-1,-1.6286953E-1,1.5675303E-2,-1.8421358E-1,3.052104E-1,-1.3043915E-1,-1.9438869E-1,2.7140456E-1,3.4252986E-1,-8.920887E-2,-1.374341E-1,3.1870702E-1,1.3285129E-1,-1.8919206E-1,3.333381E-1,-1.6237059E-1,-6.821783E-2,-1.6574223E-1,4.828116E-2,-1.3729417E-1,-1.1181939E-1,3.593952E-1,1.6693426E-2,3.5525113E-1,-1.5657714E-1,1.4639531E-1,-3.4162153E-3,-1.8271083E-1,-7.6050036E-2,3.2708034E-1,-1.7793882E-1,3.402841E-1,-1.5664634E-1,2.4912031E-1,-1.8950085E-1,-9.939533E-2,-1.6979334E-1,3.466242E-1,5.1765837E-2,-1.922245E-1,-1.4681351E-1,1.6350456E-1,-1.8596478E-1,3.116274E-1,4.956347E-2,-1.8701948E-1,1.0392781E-1,-1.8632667E-1,-1.4209342E-1,-1.8540524E-1,1.760794E-1,-1.4313594E-1],"split_indices":[87,8,96,56,56,23,103,15,43,8,8,5,19,72,59,1,3,28,15,4,15,47,8,3,0,23,36,88,6,147,5,4,28,12,18,33,82,1,37,9,9,40,0,18,62,7,72,0,1,76,75,4,82,82,85,62,5,4,151,0,0,0,0,0,0,0,0,0,0,0,0,0,0,0,0,0,0,0,0,0,0,0,0,0,0,0,0,0,0,0,0,0,0,0,0,0,0,0,0,0,0,0,0,0,0,0,0,0,0,0,0,0,0,0,0],"split_type":[0,0,0,0,0,0,0,0,0,0,0,0,0,0,0,0,0,0,0,0,0,0,0,0,0,0,0,0,0,0,0,0,0,0,0,0,0,0,0,0,0,0,0,0,0,0,0,0,0,0,0,0,0,0,0,0,0,0,0,0,0,0,0,0,0,0,0,0,0,0,0,0,0,0,0,0,0,0,0,0,0,0,0,0,0,0,0,0,0,0,0,0,0,0,0,0,0,0,0,0,0,0,0,0,0,0,0,0,0,0,0,0,0,0,0],"sum_hessian":[9.228676E3,3.7451218E3,5.4835537E3,3.018132E3,7.2698975E2,4.252325E2,5.0583213E3,1.7782623E2,2.840306E3,6.4184705E2,8.51427E1,1.7858495E2,2.4664755E2,1.032863E3,4.0254583E3,7.136276E1,1.0646346E2,2.7913125E3,4.899339E1,6.2711664E2,1.4730417E1,4.2908E1,4.2234695E1,1.3657568E2,4.2009266E1,1.6842581E2,7.822175E1,5.779735E2,4.5488943E2,4.0089966E3,1.6461506E1,1.4321284E1,5.704148E1,1.0110647E2,5.356998E0,2.6352613E1,2.76496E3,5.4515977E0,4.3541794E1,1.8840492E1,6.082761E2,3.4719343E0,1.1258483E1,3.656867E1,6.339334E0,3.50249E1,7.209799E0,1.1950773E1,1.2462491E2,1.9578909E1,1.4884691E2,4.1419544E1,3.6802204E1,5.339575E2,4.401603E1,4.0321594E2,5.1673485E1,3.9522893E3,5.6707436E1,4.2684073E0,1.2193099E1,2.3396432E0,1.1981641E1,5.257369E1,4.4677925E0,2.674758E0,9.843171E1,3.2876458E0,2.0693521E0,2.45287E1,1.823914E0,2.7449321E3,2.0027786E1,2.2291968E0,3.2224011E0,2.1396616E0,4.140213E1,1.2019017E1,6.8214755E0,9.626112E1,5.12015E2,1.0354257E0,2.436509E0,1.3741351E0,9.884348E0,1.239885E0,3.532878E1,5.084854E0,1.2544799E0,4.667842E0,3.0357056E1,3.0125182E0,4.197281E0,5.5306053E0,1.190943E2,1.2317698E1,7.261211E0,1.3303722E2,1.5809688E1,8.733126E0,3.268642E1,1.0183483E0,3.5783855E1,4.78095E2,5.5862514E1,6.553617E0,3.746241E1,1.0315696E0,4.021844E2,1.4625308E1,3.7048176E1,1.104178E2,3.8418716E3,1.1594319E1,4.5113117E1],"tree_param":{"num_deleted":"0","num_feature":"187","num_nodes":"115","size_leaf_vector":"1"}},{"base_weights":[-1.6078568E-3,-3.8091117E-1,7.29382E-1,-4.8397353E-1,8.2582617E-1,-4.1798317E-1,1.0425812E0,-5.4193676E-1,3.8414386E-1,-1.08101465E-1,1.0652705E0,1.1005272E0,-5.1115483E-1,2.155598E-1,1.11137E0,2.887308E-1,-5.499195E-1,-3.674407E-1,7.12513E-1,6.0714066E-1,-5.205173E-1,-4.8468378E-1,1.1600161E0,-1.3028088E-1,1.2054812E0,1.2945257E-1,-5.6696653E-1,1.1625181E0,-6.2383133E-1,-1.9189557E-1,1.1422889E0,-1.8009816E-1,3.8280284E-1,-2.6435503E-1,-5.7271975E-1,3.88271E-1,-5.1573986E-1,1.0662264E0,-3.8514003E-1,-1.7875934E-1,8.210794E-1,2.829345E-1,-5.913152E-1,2.1243519E-1,-1.8013732E-1,2.1127817E-1,1.1873071E0,-1.0448196E-1,1.2700803E0,9.6318364E-1,-5.914892E-1,8.100058E-1,-5.86645E-1,-3.0148216E-2,1.1843842E0,1.0984275E-1,-1.9232585E-1,1.1648133E0,-1.8679364E-1,4.038447E-2,-1.8591914E-1,2.1458197E-1,-1.7353208E-1,2.8237265E-1,-1.6565849E-1,3.5688758E-1,1.3482918E-1,-1.6166201E-1,1.2578565E-1,-9.019181E-2,3.3528844E-1,-1.8214607E-1,4.930413E-2,3.0019283E-1,-1.6300756E-1,3.5886246E-1,-1.20837525E-1,3.9457312E-1,7.2189555E-2,-1.1867177E-1,4.1318867E-1,2.663757E-2,-1.8678075E-1,-1.215706E-1,3.4929702E-1,5.4787118E-2,-1.802335E-1,3.6117882E-1,9.627882E-2,-9.17974E-2,3.5208035E-1],"categories":[],"categories_nodes":[],"categories_segments":[],"categories_sizes":[],"default_left":[0,0,0,0,0,0,0,0,0,0,0,0,0,0,0,0,0,0,0,0,0,0,0,0,0,0,0,0,0,0,0,0,0,0,0,0,0,0,0,0,0,0,0,0,0,0,0,0,0,0,0,0,0,0,0,0,0,0,0,0,0,0,0,0,0,0,0,0,0,0,0,0,0,0,0,0,0,0,0,0,0,0,0,0,0,0,0,0,0,0,0],"id":7,"left_children":[1,3,5,7,9,11,13,15,17,19,21,23,25,27,29,31,33,35,37,39,41,43,45,-1,47,49,51,53,55,-1,57,-1,-1,59,61,-1,63,65,67,-1,69,-1,71,-1,-1,73,75,-1,77,79,81,83,85,-1,87,-1,-1,89,-1,-1,-1,-1,-1,-1,-1,-1,-1,-1,-1,-1,-1,-1,-1,-1,-1,-1,-1,-1,-1,-1,-1,-1,-1,-1,-1,-1,-1,-1,-1,-1,-1],"loss_changes":[2.556355E3,7.5533453E2,1.132301E3,2.8164734E2,1.0700723E2,9.622303E1,1.405393E2,3.49281E1,8.6803E1,2.935682E1,5.644635E1,6.8708878E0,2.2874313E1,1.5275407E2,1.2440381E2,4.515E1,3.366577E1,2.7104015E1,9.529116E1,9.874956E0,7.0841255E0,3.5499353E0,9.042297E0,0E0,4.170841E0,3.177867E1,1.6375671E1,2.610695E0,1.9777718E0,0E0,8.997485E1,0E0,0E0,5.4796425E1,3.5846313E1,0E0,5.7889805E0,1.35525055E1,7.682063E0,0E0,1.0775127E1,0E0,8.2616806E-1,0E0,0E0,7.2465663E0,5.416809E0,0E0,1.351677E0,1.4306843E1,6.577482E-1,4.2127037E0,6.406021E0,0E0,1.1116333E0,0E0,0E0,2.901538E1,0E0,0E0,0E0,0E0,0E0,0E0,0E0,0E0,0E0,0E0,0E0,0E0,0E0,0E0,0E0,0E0,0E0,0E0,0E0,0E0,0E0,0E0,0E0,0E0,0E0,0E0,0E0,0E0,0E0,0E0,0E0,0E0,0E0],"parents":[2147483647,0,0,1,1,2,2,3,3,4,4,5,5,6,6,7,7,8,8,9,9,10,10,11,11,12,12,13,13,14,14,15,15,16,16,17,17,18,18,19,19,20,20,21,21,22,22,24,24,25,25,26,26,27,27,28,28,30,30,33,33,34,34,36,36,37,37,38,38,40,40,42,42,45,45,46,46,48,48,49,49,50,50,51,51,52,52,54,54,57,57],"right_children":[2,4,6,8,10,12,14,16,18,20,22,24,26,28,30,32,34,36,38,40,42,44,46,-1,48,50,52,54,56,-1,58,-1,-1,60,62,-1,64,66,68,-1,70,-1,72,-1,-1,74,76,-1,78,80,82,84,86,-1,88,-1,-1,90,-1,-1,-1,-1,-1,-1,-1,-1,-1,-1,-1,-1,-1,-1,-1,-1,-1,-1,-1,-1,-1,-1,-1,-1,-1,-1,-1,-1,-1,-1,-1,-1,-1],"split_conditions":[3.7428573E-1,4.3097642E-1,2.9795074E-1,3.877551E-1,3.768116E-1,1.06530346E-1,5.2427646E-2,7.229549E-3,2.2588564E-1,1.1363637E-1,1.4571949E-2,1.2909399E-1,1.4802632E-2,2.1474358E-1,3.767387E-1,1.673495E-1,6.316555E-2,1.1451011E-1,4.0356082E-1,2.2364363E-2,4.792332E-3,7.449541E-1,1.583923E-2,-1.3028088E-1,2.2687688E-1,5.836784E-1,4.2857144E-2,1.0487986E-1,2.4380705E-1,-1.9189557E-1,6.353184E-3,-1.8009816E-1,3.8280284E-1,7.751938E-3,4.429679E-3,3.88271E-1,4.6511628E-2,1.8456376E-1,9.9734896E-1,-1.7875934E-1,8.163265E-3,2.829345E-1,6.462036E-1,2.1243519E-1,-1.8013732E-1,5.1272726E-1,3.4926376E-1,-1.0448196E-1,9.0221405E-1,2.0869565E-1,2.2612134E-1,1.0272698E-1,1.8789199E-1,-3.0148216E-2,2E-1,1.0984275E-1,-1.9232585E-1,1.3215859E-2,-1.8679364E-1,4.038447E-2,-1.8591914E-1,2.1458197E-1,-1.7353208E-1,2.8237265E-1,-1.6565849E-1,3.5688758E-1,1.3482918E-1,-1.6166201E-1,1.2578565E-1,-9.019181E-2,3.3528844E-1,-1.8214607E-1,4.930413E-2,3.0019283E-1,-1.6300756E-1,3.5886246E-1,-1.20837525E-1,3.9457312E-1,7.2189555E-2,-1.1867177E-1,4.1318867E-1,2.663757E-2,-1.8678075E-1,-1.215706E-1,3.4929702E-1,5.4787118E-2,-1.802335E-1,3.6117882E-1,9.627882E-2,-9.17974E-2,3.5208035E-1],"split_indices":[99,105,3,94,5,34,25,11,3,12,24,3,7,83,0,6,33,63,7,19,7,1,23,0,2,1,13,46,4,0,140,0,0,131,8,0,33,103,0,0,120,0,86,0,0,1,118,0,103,3,105,6,33,0,86,0,0,30,0,0,0,0,0,0,0,0,0,0,0,0,0,0,0,0,0,0,0,0,0,0,0,0,0,0,0,0,0,0,0,0,0],"split_type":[0,0,0,0,0,0,0,0,0,0,0,0,0,0,0,0,0,0,0,0,0,0,0,0,0,0,0,0,0,0,0,0,0,0,0,0,0,0,0,0,0,0,0,0,0,0,0,0,0,0,0,0,0,0,0,0,0,0,0,0,0,0,0,0,0,0,0,0,0,0,0,0,0,0,0,0,0,0,0,0,0,0,0,0,0,0,0,0,0,0,0],"sum_hessian":[9.217834E3,6.069112E3,3.1487224E3,5.592112E3,4.7699982E2,6.7513135E2,2.473591E3,5.2424546E3,3.496571E2,9.745098E1,3.7954883E2,3.8404438E1,6.367269E2,1.9026291E2,2.2833281E3,4.956575E1,5.192889E3,1.0628005E2,2.4337706E2,3.546785E1,6.1983135E1,2.1627422E1,3.5792142E2,2.2572823E0,3.6147156E1,5.0922203E1,5.8580475E2,8.922211E1,1.010408E2,3.92771E1,2.244051E3,2.6286411E1,2.3279339E1,3.848896E2,4.8079995E3,8.07486E0,9.820519E1,1.8408514E2,5.9291912E1,5.085607E0,3.0382242E1,2.291378E0,5.9691757E1,1.4607868E0,2.0166636E1,1.0252383E1,3.4766904E2,1.267587E0,3.487957E1,2.345812E1,2.7464085E1,7.687976E0,5.7811676E2,1.4571841E0,8.776492E1,1.3845439E0,9.965626E1,2.216109E3,2.794233E1,1.8161581E2,2.0327376E2,2.0711412E1,4.787288E3,1.7913677E0,9.6413826E1,1.5262218E2,3.1462976E1,5.0055874E1,9.236039E0,6.349808E0,2.4032434E1,5.865882E1,1.0329335E0,4.8515625E0,5.4008207E0,3.4598E2,1.6890105E0,3.314771E1,1.7318579E0,5.489876E0,1.7968245E1,1.1200814E0,2.6344002E1,1.703069E0,5.9849067E0,1.0214648E1,5.679021E2,8.5436676E1,2.3282516E0,1.29613905E1,2.2031475E3],"tree_param":{"num_deleted":"0","num_feature":"187","num_nodes":"91","size_leaf_vector":"1"}},{"base_weights":[-1.1268313E-3,7.592949E-1,-3.732265E-1,-4.8822886E-1,8.5137624E-1,-1.21998405E-2,-5.007108E-1,4.7908857E-1,-5.874391E-1,8.728779E-1,-2.2285973E-1,3.950762E-1,-3.2328564E-1,8.265773E-2,-5.2902377E-1,-4.0272033E-1,8.2709485E-1,-1.791981E-1,-1.7016889E-1,1.9025595E-1,8.8879037E-1,7.7139264E-1,-5.5462575E-1,1.888441E-1,8.7502104E-1,-4.200779E-1,5.6787694E-1,-1.7544204E-1,7.595556E-1,-5.5153733E-1,-7.846685E-3,-1.6004522E-1,2.919227E-2,2.6898977E-1,1.2867018E-2,-1.3899836E-1,1.3961402E-1,7.776912E-1,-2.913747E-1,8.9466006E-1,-2.3764554E-1,-1.0232081E-1,2.7420312E-1,-1.7308809E-1,3.8193103E-2,5.101241E-1,-9.8586515E-2,-1.1159855E-1,9.605072E-1,-5.6129664E-1,1.3045919E-1,8.498669E-1,-4.8098958E-1,-5.6884515E-1,7.5256616E-2,8.2350487E-1,-1.6681921E-1,-5.5812955E-1,7.345579E-2,9.106398E-1,-3.0135584E-1,-3.59193E-2,2.752655E-1,-1.2694176E-1,2.3213907E-1,2.693842E-1,-1.6154599E-1,1.5930183E-1,-1.7391299E-1,3.2747287E-1,4.9844977E-2,1.5802088E-1,-8.421323E-2,2.5386718E-1,-1.7307493E-1,2.976666E-1,-1.5408957E-1,3.207576E-1,-1.7167984E-1,-1.5251163E-1,3.1503385E-1,-1.5091625E-1,2.7807087E-1,-1.7164773E-1,-1.1805789E-2,1.908134E-1,-1.8167758E-1,3.8761705E-1,-3.8506955E-2,2.588597E-1,-1.287101E-1,-1.679287E-1,2.076671E-1,4.0778783E-1,-1.5662047E-1,-2.3862207E-2,3.1425664E-1,-1.13521196E-1,1.4167182E-1],"categories":[],"categories_nodes":[],"categories_segments":[],"categories_sizes":[],"default_left":[0,0,0,0,0,0,0,0,0,0,0,0,0,0,0,0,0,0,0,0,0,0,0,0,0,0,0,0,0,0,0,0,0,0,0,0,0,0,0,0,0,0,0,0,0,0,0,0,0,0,0,0,0,0,0,0,0,0,0,0,0,0,0,0,0,0,0,0,0,0,0,0,0,0,0,0,0,0,0,0,0,0,0,0,0,0,0,0,0,0,0,0,0,0,0,0,0,0,0],"id":8,"left_children":[1,3,5,7,9,11,13,15,17,19,21,23,25,27,29,31,33,-1,35,37,39,41,43,45,47,49,51,53,55,57,59,-1,-1,-1,-1,-1,-1,61,63,65,67,-1,-1,-1,-1,69,71,73,75,77,79,81,83,85,87,89,-1,91,93,95,97,-1,-1,-1,-1,-1,-1,-1,-1,-1,-1,-1,-1,-1,-1,-1,-1,-1,-1,-1,-1,-1,-1,-1,-1,-1,-1,-1,-1,-1,-1,-1,-1,-1,-1,-1,-1,-1,-1],"loss_changes":[2.3578792E3,3.1493066E2,2.5751434E2,1.8403397E1,5.909607E1,1.8525558E2,6.834143E1,5.8925714E0,6.0684586E-1,2.6989014E1,1.7196848E1,6.2510002E1,7.174318E1,3.372303E1,4.627014E1,4.3108416E-1,6.877651E-1,0E0,1.2167612E0,1.6700752E1,1.6365356E1,2.3960953E0,6.6287327E-1,4.106778E1,1.6135422E1,5.8252594E1,2.4555704E1,1.3850661E1,4.938896E0,1.5616577E1,4.457271E1,0E0,0E0,0E0,0E0,0E0,0E0,3.4366035E0,4.920102E0,1.1934326E1,3.8453512E0,0E0,0E0,0E0,0E0,4.179932E1,2.6942434E1,7.6410613E0,8.690704E0,1.126712E1,9.076172E1,7.209934E0,6.9970274E-1,2.8030357E0,2.1570442E1,2.8941422E0,0E0,8.024902E0,3.16017E1,5.5105667E0,7.6458073E0,0E0,0E0,0E0,0E0,0E0,0E0,0E0,0E0,0E0,0E0,0E0,0E0,0E0,0E0,0E0,0E0,0E0,0E0,0E0,0E0,0E0,0E0,0E0,0E0,0E0,0E0,0E0,0E0,0E0,0E0,0E0,0E0,0E0,0E0,0E0,0E0,0E0,0E0],"parents":[2147483647,0,0,1,1,2,2,3,3,4,4,5,5,6,6,7,7,8,8,9,9,10,10,11,11,12,12,13,13,14,14,15,15,16,16,18,18,19,19,20,20,21,21,22,22,23,23,24,24,25,25,26,26,27,27,28,28,29,29,30,30,37,37,38,38,39,39,40,40,45,45,46,46,47,47,48,48,49,49,50,50,51,51,52,52,53,53,54,54,55,55,57,57,58,58,59,59,60,60],"right_children":[2,4,6,8,10,12,14,16,18,20,22,24,26,28,30,32,34,-1,36,38,40,42,44,46,48,50,52,54,56,58,60,-1,-1,-1,-1,-1,-1,62,64,66,68,-1,-1,-1,-1,70,72,74,76,78,80,82,84,86,88,90,-1,92,94,96,98,-1,-1,-1,-1,-1,-1,-1,-1,-1,-1,-1,-1,-1,-1,-1,-1,-1,-1,-1,-1,-1,-1,-1,-1,-1,-1,-1,-1,-1,-1,-1,-1,-1,-1,-1,-1,-1,-1],"split_conditions":[1.2909399E-1,6.357504E-1,4.3769968E-1,2.1382727E-1,5.6401944E-1,2.8136882E-1,1.1529412E-1,3.788894E-2,5.691574E-1,6.7114094E-3,2.6666668E-1,1.0830325E-2,6.959976E-1,6.400377E-3,3.8533834E-1,2.3175415E-1,1.4818723E-1,-1.791981E-1,1.14813395E-1,2.532189E-1,5.3009725E-1,6.795367E-1,2.4698517E-1,3.1597514E-2,4.475043E-2,8.494451E-1,4.1229366E-3,3.2983508E-2,1.656535E-1,6.4846414E-1,2.8787878E-1,-1.6004522E-1,2.919227E-2,2.6898977E-1,1.2867018E-2,-1.3899836E-1,1.3961402E-1,5.920171E-3,5.4613465E-1,6.2219596E-1,6.333973E-2,-1.0232081E-1,2.7420312E-1,-1.7308809E-1,3.8193103E-2,1.6194332E-1,2.8719723E-1,1.10694185E-1,4.1379312E-1,2.225741E-1,4.385965E-3,6.3554215E-1,9.6021223E-1,8.82353E-3,9.056604E-2,9.057471E-1,-1.6681921E-1,8.456327E-1,2.509804E-1,4.6733668E-1,6.4786327E-1,-3.59193E-2,2.752655E-1,-1.2694176E-1,2.3213907E-1,2.693842E-1,-1.6154599E-1,1.5930183E-1,-1.7391299E-1,3.2747287E-1,4.9844977E-2,1.5802088E-1,-8.421323E-2,2.5386718E-1,-1.7307493E-1,2.976666E-1,-1.5408957E-1,3.207576E-1,-1.7167984E-1,-1.5251163E-1,3.1503385E-1,-1.5091625E-1,2.7807087E-1,-1.7164773E-1,-1.1805789E-2,1.908134E-1,-1.8167758E-1,3.8761705E-1,-3.8506955E-2,2.588597E-1,-1.287101E-1,-1.679287E-1,2.076671E-1,4.0778783E-1,-1.5662047E-1,-2.3862207E-2,3.1425664E-1,-1.13521196E-1,1.4167182E-1],"split_indices":[3,0,2,27,65,58,56,4,1,4,29,126,8,133,11,96,4,0,6,49,60,1,7,76,5,0,79,52,147,80,3,0,0,0,0,0,0,94,86,25,72,0,0,0,0,28,2,128,24,54,78,47,27,28,48,131,0,79,74,78,70,0,0,0,0,0,0,0,0,0,0,0,0,0,0,0,0,0,0,0,0,0,0,0,0,0,0,0,0,0,0,0,0,0,0,0,0,0,0],"split_type":[0,0,0,0,0,0,0,0,0,0,0,0,0,0,0,0,0,0,0,0,0,0,0,0,0,0,0,0,0,0,0,0,0,0,0,0,0,0,0,0,0,0,0,0,0,0,0,0,0,0,0,0,0,0,0,0,0,0,0,0,0,0,0,0,0,0,0,0,0,0,0,0,0,0,0,0,0,0,0,0,0,0,0,0,0,0,0,0,0,0,0,0,0,0,0,0,0,0,0],"sum_hessian":[8.33112E3,2.7369194E3,5.5942007E3,1.878338E2,2.5490857E3,1.4601768E3,4.134024E3,1.7116442E1,1.7071736E2,2.4992488E3,4.983689E1,6.32211E2,8.279657E2,1.9126328E2,3.9427607E3,4.799026E0,1.2317415E1,1.6634406E2,4.373307E0,5.7227604E1,2.4420212E3,1.2137509E1,3.7699383E1,4.431732E2,1.8903783E2,7.4732477E2,8.0640915E1,1.3900266E2,5.226062E1,3.77944E3,1.6332076E2,3.7511451E0,1.0478809E0,1.1182468E1,1.1349466E0,3.1782565E0,1.1950508E0,2.5504984E1,3.172262E1,2.429567E3,1.2454318E1,1.2210954E0,1.0916414E1,3.6652878E1,1.0465033E0,2.0889868E2,2.3427449E2,1.5048894E1,1.7398894E2,5.9474634E2,1.5257843E2,6.3703754E1,1.693716E1,5.360897E1,8.539369E1,5.0194817E1,2.0658016E0,3.7400977E3,3.934239E1,3.9042225E1,1.2427854E2,3.458332E0,2.2046652E1,2.8766838E1,2.9557822E0,2.4243794E3,5.187437E0,3.6654167E0,8.788901E0,7.683826E1,1.3206042E2,5.2415146E1,1.8185934E2,4.652818E0,1.0396076E1,1.7064459E2,3.344351E0,3.329858E0,5.914165E2,9.029963E1,6.2278812E1,3.1339827E0,6.056977E1,1.3794042E1,3.1431196E0,1.1039107E0,5.250506E1,1.147471E1,7.3918976E1,4.8967144E1,1.227673E0,3.7357717E3,4.3258696E0,1.2047432E1,2.7294958E1,4.792569E0,3.4249653E1,1.1348643E2,1.079211E1],"tree_param":{"num_deleted":"0","num_feature":"187","num_nodes":"99","size_leaf_vector":"1"}},{"base_weights":[7.6830625E-3,-2.0566013E-1,5.1286894E-1,5.8424836E-1,-2.863024E-1,8.7099844E-1,3.0832836E-1,-5.32627E-1,6.729614E-1,4.3473196E-1,-3.9189187E-1,8.800017E-1,7.5164903E-3,-2.3348886E-1,7.063312E-1,-1.7912889E-1,3.150695E-1,7.74199E-1,-4.4199884E-1,-3.0736592E-1,7.395923E-1,-4.504553E-1,7.4954845E-2,3.701041E-2,8.843282E-1,2.3743081E-1,-1.523043E-1,2.4052985E-1,-4.3248922E-1,9.296608E-1,-5.681722E-2,-9.303834E-2,2.1523736E-1,5.391312E-1,9.3612796E-1,-1.7770037E-1,2.4630012E-1,-4.5170042E-1,7.575852E-1,5.6128647E-2,8.496051E-1,-4.6325496E-1,6.2761503E-1,-1.6914232E-1,1.0827482E0,2.0154597E-1,-1.4920157E-1,8.917513E-1,5.860227E-1,6.471623E-1,-2.8750488E-1,7.854443E-1,-5.401585E-1,-1.4506876E-1,9.39059E-1,8.821879E-1,-3.6308977E-1,2.3288384E-1,2.1882901E-2,2.8451064E-1,-9.579574E-2,-1.5155762E-1,2.711429E-1,-1.3784306E-1,2.8493664E-1,-1.4960793E-1,2.2426133E-1,9.8045945E-2,2.718484E-1,7.650007E-2,-1.4302148E-1,2.9030803E-1,-3.50329E-2,-1.3255848E-1,3.1233102E-1,3.3353356E-1,-1.232348E-1,2.6817638E-1,-1.1210491E-1,2.6662308E-1,-1.0503188E-1,1.0001039E-1,3.291775E-1,-1.3018884E-1,2.900471E-1,3.034659E-1,-5.3181086E-2,-1.7647976E-1,-5.6985382E-2,-1.7121413E-1,1.8558522E-1,5.4663148E-2,2.8326267E-1,3.028083E-1,-1.8413472E-1,-1.2937608E-1,2.1787052E-1],"categories":[],"categories_nodes":[],"categories_segments":[],"categories_sizes":[],"default_left":[0,0,0,0,0,0,0,0,0,0,0,0,0,0,0,0,0,0,0,0,0,0,0,0,0,0,0,0,0,0,0,0,0,0,0,0,0,0,0,0,0,0,0,0,0,0,0,0,0,0,0,0,0,0,0,0,0,0,0,0,0,0,0,0,0,0,0,0,0,0,0,0,0,0,0,0,0,0,0,0,0,0,0,0,0,0,0,0,0,0,0,0,0,0,0,0,0],"id":9,"left_children":[1,3,5,7,9,11,13,15,17,19,21,23,25,27,29,-1,31,33,35,37,39,41,43,45,47,-1,-1,49,51,53,55,-1,-1,57,59,-1,-1,61,63,65,67,69,71,73,75,-1,-1,77,79,81,83,85,87,89,91,93,95,-1,-1,-1,-1,-1,-1,-1,-1,-1,-1,-1,-1,-1,-1,-1,-1,-1,-1,-1,-1,-1,-1,-1,-1,-1,-1,-1,-1,-1,-1,-1,-1,-1,-1,-1,-1,-1,-1,-1,-1],"loss_changes":[9.043133E2,3.7595038E2,1.8222278E2,5.4536026E1,4.077489E2,7.029602E0,3.4243707E2,2.417551E0,5.75708E1,1.5504143E2,1.2771661E2,3.2340698E0,4.5811577E0,6.3579895E1,1.5604898E2,0E0,1.1125197E0,1.7201477E1,8.620535E0,3.107887E1,3.644464E1,5.755298E1,1.2844833E2,2.2395785E0,1.4506836E0,0E0,0E0,4.3045925E1,6.2621414E1,7.2888184E0,6.01841E1,0E0,0E0,2.1180187E1,4.5147095E0,0E0,0E0,1.327071E1,6.106843E0,2.6596678E1,1.2062042E1,3.984369E1,1.2546682E1,1.3928352E2,4.870491E0,0E0,0E0,2.7163696E0,7.2691298E0,1.5604954E1,1.650024E1,8.653885E0,7.240013E0,2.6300824E0,2.5645142E0,1.0414761E1,1.20205E1,0E0,0E0,0E0,0E0,0E0,0E0,0E0,0E0,0E0,0E0,0E0,0E0,0E0,0E0,0E0,0E0,0E0,0E0,0E0,0E0,0E0,0E0,0E0,0E0,0E0,0E0,0E0,0E0,0E0,0E0,0E0,0E0,0E0,0E0,0E0,0E0,0E0,0E0,0E0,0E0],"parents":[2147483647,0,0,1,1,2,2,3,3,4,4,5,5,6,6,7,7,8,8,9,9,10,10,11,11,12,12,13,13,14,14,16,16,17,17,18,18,19,19,20,20,21,21,22,22,23,23,24,24,27,27,28,28,29,29,30,30,33,33,34,34,37,37,38,38,39,39,40,40,41,41,42,42,43,43,44,44,47,47,48,48,49,49,50,50,51,51,52,52,53,53,54,54,55,55,56,56],"right_children":[2,4,6,8,10,12,14,16,18,20,22,24,26,28,30,-1,32,34,36,38,40,42,44,46,48,-1,-1,50,52,54,56,-1,-1,58,60,-1,-1,62,64,66,68,70,72,74,76,-1,-1,78,80,82,84,86,88,90,92,94,96,-1,-1,-1,-1,-1,-1,-1,-1,-1,-1,-1,-1,-1,-1,-1,-1,-1,-1,-1,-1,-1,-1,-1,-1,-1,-1,-1,-1,-1,-1,-1,-1,-1,-1,-1,-1,-1,-1,-1,-1],"split_conditions":[2.764977E-1,5.6810524E-2,1.0227273E-1,1.463964E-1,2.9295944E-2,7.037037E-1,6.359231E-1,6.5929204E-1,3.8533834E-1,1.6333333E-1,1.2804878E-1,2.9411766E-1,6.635421E-1,3.767387E-1,2.129964E-1,-1.7912889E-1,6.815287E-1,1.9833334E-1,4.202254E-1,2.2185472E-1,6.554983E-1,6.9264543E-1,7.011494E-1,3.0912745E-1,7.490337E-1,2.3743081E-1,-1.523043E-1,7.5E-1,4.4333708E-2,6.435276E-2,3.115942E-1,-9.303834E-2,2.1523736E-1,4.607834E-2,7.551755E-1,-1.7770037E-1,2.4630012E-1,1.2207277E-1,5.555556E-1,1.5823817E-1,1.509434E-1,1.2789003E-3,3.6779564E-2,5.268817E-1,9.4736844E-1,2.0154597E-1,-1.4920157E-1,2.0646957E-1,3.3386075E-1,5.140845E-1,5.786385E-1,4.1654587E-1,4.1768292E-1,9.3338615E-1,6.448864E-1,1.3870247E-1,6.3818955E-1,2.3288384E-1,2.1882901E-2,2.8451064E-1,-9.579574E-2,-1.5155762E-1,2.711429E-1,-1.3784306E-1,2.8493664E-1,-1.4960793E-1,2.2426133E-1,9.8045945E-2,2.718484E-1,7.650007E-2,-1.4302148E-1,2.9030803E-1,-3.50329E-2,-1.3255848E-1,3.1233102E-1,3.3353356E-1,-1.232348E-1,2.6817638E-1,-1.1210491E-1,2.6662308E-1,-1.0503188E-1,1.0001039E-1,3.291775E-1,-1.3018884E-1,2.900471E-1,3.034659E-1,-5.3181086E-2,-1.7647976E-1,-5.6985382E-2,-1.7121413E-1,1.8558522E-1,5.4663148E-2,2.8326267E-1,3.028083E-1,-1.8413472E-1,-1.2937608E-1,2.1787052E-1],"split_indices":[9,5,1,33,25,7,2,2,11,69,134,12,68,0,24,0,0,103,25,45,2,5,35,17,68,0,0,13,4,39,5,0,0,6,89,0,0,136,1,106,77,18,20,2,1,0,0,0,4,5,90,18,62,2,1,125,64,0,0,0,0,0,0,0,0,0,0,0,0,0,0,0,0,0,0,0,0,0,0,0,0,0,0,0,0,0,0,0,0,0,0,0,0,0,0,0,0],"split_type":[0,0,0,0,0,0,0,0,0,0,0,0,0,0,0,0,0,0,0,0,0,0,0,0,0,0,0,0,0,0,0,0,0,0,0,0,0,0,0,0,0,0,0,0,0,0,0,0,0,0,0,0,0,0,0,0,0,0,0,0,0,0,0,0,0,0,0,0,0,0,0,0,0,0,0,0,0,0,0,0,0,0,0,0,0,0,0,0,0,0,0,0,0,0,0,0,0],"sum_hessian":[8.388542E3,5.8982617E3,2.4902803E3,5.457989E2,5.352463E3,9.040767E2,1.5862035E3,3.9794304E1,5.0600458E2,6.83303E2,4.66916E3,8.947286E2,9.348195E0,6.719137E2,9.142898E2,3.7256485E1,2.537817E0,4.641644E2,4.1840164E1,1.9896637E2,4.8433664E2,4.148756E3,5.2040424E2,4.6173406E0,8.901112E2,3.4946263E0,5.853569E0,1.9861182E2,4.733019E2,7.0713416E2,2.0715564E2,1.083558E0,1.4542592E0,1.9109154E2,2.7307285E2,3.7864174E1,3.9759908E0,1.7572581E2,2.3240545E1,6.7361015E1,4.1697562E2,4.10064E3,4.8115574E1,4.1960425E2,1.0079999E2,1.9927156E0,2.624625E0,8.665582E2,2.3553017E1,1.1207712E2,8.65347E1,3.793166E1,4.3537024E2,6.004967E0,7.011292E2,5.0486866E1,1.5666876E2,1.2621916E2,6.4872375E1,2.7067828E2,2.394567E0,1.6965802E2,6.067804E0,2.9800217E0,2.0260523E1,3.7526546E1,2.9834473E1,4.136752E1,3.756081E2,7.522982E1,4.0254102E3,3.282112E1,1.5294451E1,3.429566E2,7.664765E1,9.91288E1,1.6711937E0,8.653678E2,1.1903784E0,1.7835936E1,5.717081E0,6.7063194E1,4.5013924E1,7.807279E1,8.461906E0,3.0676155E1,7.2555037E0,3.821898E2,5.3180458E1,4.0181265E0,1.9868411E0,4.984328E0,6.961449E2,4.683102E1,3.6558466E0,1.4801117E2,8.6576E0],"tree_param":{"num_deleted":"0","num_feature":"187","num_nodes":"97","size_leaf_vector":"1"}},{"base_weights":[-3.3291571E-3,5.383582E-1,-5.2950907E-1,7.3713446E-1,-3.2414472E-1,-3.906607E-1,-5.7283944E-1,7.8636926E-1,-4.9688178E-1,-3.8084742E-1,2.175438E-1,-2.1768147E-1,-5.45454E-1,-5.7966363E-1,4.993005E-1,-8.857495E-2,8.22811E-1,-1.3729797E-1,-1.8517205E-1,-4.1244715E-1,5.430056E-1,5.503598E-1,-3.0215296E-1,-4.5486718E-1,2.8348342E-1,-5.52704E-1,3.3060545E-1,-5.86072E-1,-2.4592997E-1,-1.546774E-1,2.7939433E-1,-2.962522E-1,8.731331E-1,8.405395E-1,5.161316E-3,6.188296E-1,-4.593402E-1,-4.919282E-1,-1.3643445E-1,-1.5392925E-1,9.158481E-1,7.378858E-1,-4.435938E-1,-1.7200544E-1,4.413306E-1,-5.12207E-1,5.6509995E-1,5.585705E-1,-5.722875E-1,-3.2887474E-1,-5.830243E-1,-5.884786E-1,-2.8776953E-1,1.1717377E0,-3.709017E-1,1.621871E-1,-1.5642105E-1,-5.221505E-3,2.783278E-1,-1.1809067E-1,2.550124E-1,-1.2653215E-1,2.3189135E-1,-1.5904434E-1,2.9153576E-1,1.6960053E-1,-1.6565832E-1,-1.5153886E-1,2.0064163E-1,5.7582866E-2,-1.7872295E-1,2.9360554E-1,7.1162255E-3,-1.2601039E-1,2.4645184E-1,2.4508717E-2,-1.6004927E-1,-7.131229E-2,2.532537E-1,-1.6118118E-1,4.9887434E-1,-1.6289373E-1,2.908404E-1,3.1218043E-1,2.0409895E-2,-1.7960289E-1,5.217256E-2,-1.5744111E-1,3.240297E-1,-3.6166914E-2,-1.7902249E-1,-9.981278E-2,-1.770562E-1,1.8495762E-1,-1.728385E-1,4.3959016E-1,3.116202E-2,2.295291E-1,-1.5205216E-1],"categories":[],"categories_nodes":[],"categories_segments":[],"categories_sizes":[],"default_left":[0,0,0,0,0,0,0,0,0,0,0,0,0,0,0,0,0,0,0,0,0,0,0,0,0,0,0,0,0,0,0,0,0,0,0,0,0,0,0,0,0,0,0,0,0,0,0,0,0,0,0,0,0,0,0,0,0,0,0,0,0,0,0,0,0,0,0,0,0,0,0,0,0,0,0,0,0,0,0,0,0,0,0,0,0,0,0,0,0,0,0,0,0,0,0,0,0,0,0],"id":10,"left_children":[1,3,5,7,9,11,13,15,17,19,21,23,25,27,29,31,33,35,-1,37,39,41,43,45,47,49,-1,51,53,-1,-1,55,57,59,61,63,65,67,69,-1,71,73,75,-1,77,79,81,83,85,87,89,91,93,95,97,-1,-1,-1,-1,-1,-1,-1,-1,-1,-1,-1,-1,-1,-1,-1,-1,-1,-1,-1,-1,-1,-1,-1,-1,-1,-1,-1,-1,-1,-1,-1,-1,-1,-1,-1,-1,-1,-1,-1,-1,-1,-1,-1,-1],"loss_changes":[2.3720054E3,7.032709E2,2.5174072E1,2.0288562E2,2.3694748E1,2.6850128E1,2.3813965E1,1.02275635E2,5.4760113E0,2.0550102E1,1.2875783E1,5.686802E1,6.949936E0,6.6898193E0,9.631931E0,2.6037312E1,4.460376E1,8.443502E0,0E0,1.4714478E1,9.707127E0,8.742698E0,6.1673064E0,1.9260315E1,3.6561325E1,3.3998413E0,0E0,2.0810547E0,1.1405777E1,0E0,0E0,2.0423447E1,1.143568E0,3.5656006E1,2.2064E1,4.74679E0,2.6026115E0,8.348297E0,2.3044626E1,0E0,9.688587E-1,4.0591125E0,4.1150022E-1,0E0,2.499785E0,1.766452E1,8.475309E0,2.7596024E1,8.5125923E-1,1.8629463E1,2.8766022E0,1.1621094E0,7.4069395E0,1.4958148E0,9.293249E0,0E0,0E0,0E0,0E0,0E0,0E0,0E0,0E0,0E0,0E0,0E0,0E0,0E0,0E0,0E0,0E0,0E0,0E0,0E0,0E0,0E0,0E0,0E0,0E0,0E0,0E0,0E0,0E0,0E0,0E0,0E0,0E0,0E0,0E0,0E0,0E0,0E0,0E0,0E0,0E0,0E0,0E0,0E0,0E0],"parents":[2147483647,0,0,1,1,2,2,3,3,4,4,5,5,6,6,7,7,8,8,9,9,10,10,11,11,12,12,13,13,14,14,15,15,16,16,17,17,19,19,20,20,21,21,22,22,23,23,24,24,25,25,27,27,28,28,31,31,32,32,33,33,34,34,35,35,36,36,37,37,38,38,40,40,41,41,42,42,44,44,45,45,46,46,47,47,48,48,49,49,50,50,51,51,52,52,53,53,54,54],"right_children":[2,4,6,8,10,12,14,16,18,20,22,24,26,28,30,32,34,36,-1,38,40,42,44,46,48,50,-1,52,54,-1,-1,56,58,60,62,64,66,68,70,-1,72,74,76,-1,78,80,82,84,86,88,90,92,94,96,98,-1,-1,-1,-1,-1,-1,-1,-1,-1,-1,-1,-1,-1,-1,-1,-1,-1,-1,-1,-1,-1,-1,-1,-1,-1,-1,-1,-1,-1,-1,-1,-1,-1,-1,-1,-1,-1,-1,-1,-1,-1,-1,-1,-1],"split_conditions":[1.7021276E-2,1.9767305E-1,1.8413597E-1,3.091954E-1,7.138211E-1,2.7599138E-1,7.1517295E-1,3.247012E-1,3.3840305E-1,8.375255E-1,4.973262E-1,2.1189591E-1,1.5364688E-2,5.743243E-1,6.342412E-1,3.724216E-1,2.1825397E-1,1.5486726E-1,-1.8517205E-1,4.6232876E-1,7.281554E-2,4.9140197E-1,7.1826625E-1,6.473647E-1,2.9675812E-1,2.0790028E-3,3.3060545E-1,6.5789473E-1,2.2091062E-1,-1.546774E-1,2.7939433E-1,6.861465E-2,5.0155096E-2,6.795367E-1,5.406744E-1,3.0769232E-1,2.1671826E-2,8.992E-1,5.569583E-1,-1.5392925E-1,9.4736844E-1,2.0869565E-1,3.0409825E-1,-1.7200544E-1,1.8161437E-3,3.3039114E-1,6.7226894E-2,1.4624888E-1,3.0555555E-1,2.622604E-1,2.576419E-1,1.7439704E-1,6.426607E-1,6.398892E-1,1.7080745E-1,1.621871E-1,-1.5642105E-1,-5.221505E-3,2.783278E-1,-1.1809067E-1,2.550124E-1,-1.2653215E-1,2.3189135E-1,-1.5904434E-1,2.9153576E-1,1.6960053E-1,-1.6565832E-1,-1.5153886E-1,2.0064163E-1,5.7582866E-2,-1.7872295E-1,2.9360554E-1,7.1162255E-3,-1.2601039E-1,2.4645184E-1,2.4508717E-2,-1.6004927E-1,-7.131229E-2,2.532537E-1,-1.6118118E-1,4.9887434E-1,-1.6289373E-1,2.908404E-1,3.1218043E-1,2.0409895E-2,-1.7960289E-1,5.217256E-2,-1.5744111E-1,3.240297E-1,-3.6166914E-2,-1.7902249E-1,-9.981278E-2,-1.770562E-1,1.8495762E-1,-1.728385E-1,4.3959016E-1,3.116202E-2,2.295291E-1,-1.5205216E-1],"split_indices":[96,8,104,43,56,62,59,2,43,12,8,82,143,147,7,58,82,69,0,71,0,50,8,87,5,0,0,131,135,0,0,4,10,1,75,55,4,36,36,0,1,3,7,0,72,68,4,27,77,2,50,103,132,148,124,0,0,0,0,0,0,0,0,0,0,0,0,0,0,0,0,0,0,0,0,0,0,0,0,0,0,0,0,0,0,0,0,0,0,0,0,0,0,0,0,0,0,0,0],"split_type":[0,0,0,0,0,0,0,0,0,0,0,0,0,0,0,0,0,0,0,0,0,0,0,0,0,0,0,0,0,0,0,0,0,0,0,0,0,0,0,0,0,0,0,0,0,0,0,0,0,0,0,0,0,0,0,0,0,0,0,0,0,0,0,0,0,0,0,0,0,0,0,0,0,0,0,0,0,0,0,0,0,0,0,0,0,0,0,0,0,0,0,0,0,0,0,0,0,0,0],"sum_hessian":[8.320096E3,4.099625E3,4.220471E3,3.3318884E3,7.677364E2,1.006202E3,3.2142693E3,3.2044019E3,1.2748658E2,6.9525555E2,7.248081E1,4.763237E2,5.2987836E2,3.194396E3,1.9873093E1,1.2807077E2,3.076331E3,3.2507523E1,9.4979065E1,6.7279663E2,2.245897E1,4.414876E1,2.8332054E1,3.2337347E2,1.5295021E2,5.282184E2,1.659983E0,3.133471E3,6.0925144E1,5.8759007E0,1.3997191E1,1.0589507E2,2.2175692E1,3.0110173E3,6.531376E1,9.434514E0,2.3073008E1,5.2176587E2,1.5103076E2,5.761873E0,1.6697096E1,3.7358147E1,6.790616E0,2.0927294E1,7.4047604E0,3.0663324E2,1.6740263E1,1.1600709E2,3.6943127E1,6.443035E1,4.63788E2,3.107428E3,2.6042894E1,4.25709E0,5.6668056E1,2.2152863E1,8.374221E1,1.3210344E0,2.0854658E1,2.2695444E1,2.9883218E3,4.2263897E1,2.3049858E1,2.0991468E0,7.3353667E0,1.4943191E0,2.157869E1,5.1645685E2,5.308978E0,8.840718E1,6.2623573E1,1.5507782E1,1.1893147E0,2.2451825E0,3.5112965E1,1.0057163E0,5.7848997E0,2.9098575E0,4.4949026E0,3.0388458E2,2.74863E0,4.3840313E0,1.2356232E1,5.79453E1,5.8061783E1,3.5872227E1,1.0709019E0,5.7115513E1,7.314837E0,1.3642155E1,4.5014584E2,2.1919874E1,3.085508E3,6.0214715E0,2.0021423E1,3.047213E0,1.2098771E0,5.5617757E0,5.110628E1],"tree_param":{"num_deleted":"0","num_feature":"187","num_nodes":"99","size_leaf_vector":"1"}},{"base_weights":[-3.3013616E-3,-3.4890833E-1,5.7188916E-1,-4.4655332E-1,6.400814E-1,-3.958976E-1,7.9508895E-1,-5.0191206E-1,2.9497516E-1,-5.2167493E-1,7.512418E-1,6.416003E-1,-5.0712836E-1,2.4214761E-1,8.489262E-1,-2.1444637E-1,-5.254369E-1,-3.1675532E-1,5.396719E-1,8.547345E-2,-5.6233186E-1,9.117829E-1,6.736423E-2,-3.84153E-1,9.5997554E-1,1.1284311E-2,-5.575465E-1,8.9841974E-1,-5.927516E-1,-5.8675814E-1,8.7257785E-1,1.3030805E-1,-1.7623052E-1,1.8124531E-1,-5.355783E-1,2.9866692E-1,-4.6352616E-1,7.912821E-1,-3.348941E-1,1.7450439E-2,-1.7426416E-1,9.1753757E-1,-5.616845E-2,-2.3650438E-1,8.327103E-1,2.4430513E-1,-1.7262523E-1,1.019786E0,-1.1658152E-1,6.7814386E-1,-1.7620789E-1,-5.6306225E-1,2.3208897E-1,-5.170062E-2,9.1244596E-1,1.16111316E-1,-6.089717E-1,1.6384633E-2,-1.8201011E-1,8.897567E-1,-1.7758971E-1,-1.6148485E-1,1.4559142E-1,-1.7339551E-1,3.1854528E-1,1.049785E-1,-1.631681E-1,2.4159414E-1,-1.5067627E-1,-1.87042E-1,2.4868836E-1,-1.4705342E-1,1.01782136E-1,-6.390401E-3,2.7631024E-1,2.4466066E-1,-1.5756407E-1,2.8420177E-1,-1.213398E-1,8.575297E-2,3.1127316E-1,-1.5319356E-1,3.0946833E-1,1.5686317E-1,-1.7041335E-1,2.7601495E-1,5.036342E-2,-1.8520263E-1,1.2829047E-2,2.684189E-1,-7.475224E-2],"categories":[],"categories_nodes":[],"categories_segments":[],"categories_sizes":[],"default_left":[0,0,0,0,0,0,0,0,0,0,0,0,0,0,0,0,0,0,0,0,0,0,0,0,0,0,0,0,0,0,0,0,0,0,0,0,0,0,0,0,0,0,0,0,0,0,0,0,0,0,0,0,0,0,0,0,0,0,0,0,0,0,0,0,0,0,0,0,0,0,0,0,0,0,0,0,0,0,0,0,0,0,0,0,0,0,0,0,0,0,0],"id":11,"left_children":[1,3,5,7,9,11,13,15,17,19,21,23,25,27,29,31,33,35,37,-1,39,41,43,45,47,49,51,53,55,57,59,61,-1,63,65,-1,67,69,71,-1,-1,73,-1,75,77,-1,-1,79,-1,81,-1,83,-1,-1,85,-1,87,-1,-1,89,-1,-1,-1,-1,-1,-1,-1,-1,-1,-1,-1,-1,-1,-1,-1,-1,-1,-1,-1,-1,-1,-1,-1,-1,-1,-1,-1,-1,-1,-1,-1],"loss_changes":[1.6480298E3,5.0038916E2,6.724598E2,1.9365411E2,6.0541504E1,6.769834E1,7.507483E1,2.9553345E1,4.928353E1,1.5134068E0,4.6654633E1,1.8974283E1,1.3802673E1,1.242381E2,7.874927E1,4.296481E1,2.9153198E1,1.8638733E1,5.1916145E1,0E0,4.897976E-1,2.3506775E0,1.926172E1,3.7256725E0,3.9261818E0,1.9466722E1,3.967865E0,2.0617142E0,1.8243904E0,5.1840496E-1,5.7565308E1,4.1593582E1,0E0,3.9460857E1,2.9622437E1,0E0,4.6090107E0,1.0249542E1,5.7299037E0,0E0,0E0,1.1452026E0,0E0,1.8487593E1,3.7184925E0,0E0,0E0,2.5419235E-1,0E0,1.0214888E1,0E0,2.8922424E0,0E0,0E0,5.550766E-1,0E0,5.6497574E-1,0E0,0E0,1.2916992E1,0E0,0E0,0E0,0E0,0E0,0E0,0E0,0E0,0E0,0E0,0E0,0E0,0E0,0E0,0E0,0E0,0E0,0E0,0E0,0E0,0E0,0E0,0E0,0E0,0E0,0E0,0E0,0E0,0E0,0E0,0E0],"parents":[2147483647,0,0,1,1,2,2,3,3,4,4,5,5,6,6,7,7,8,8,9,9,10,10,11,11,12,12,13,13,14,14,15,15,16,16,17,17,18,18,20,20,21,21,22,22,23,23,24,24,25,25,26,26,27,27,28,28,29,29,30,30,31,31,33,33,34,34,36,36,37,37,38,38,41,41,43,43,44,44,47,47,49,49,51,51,54,54,56,56,59,59],"right_children":[2,4,6,8,10,12,14,16,18,20,22,24,26,28,30,32,34,36,38,-1,40,42,44,46,48,50,52,54,56,58,60,62,-1,64,66,-1,68,70,72,-1,-1,74,-1,76,78,-1,-1,80,-1,82,-1,84,-1,-1,86,-1,88,-1,-1,90,-1,-1,-1,-1,-1,-1,-1,-1,-1,-1,-1,-1,-1,-1,-1,-1,-1,-1,-1,-1,-1,-1,-1,-1,-1,-1,-1,-1,-1,-1,-1],"split_conditions":[3.6678833E-1,4.1986063E-1,2.929293E-1,3.877551E-1,3.5063735E-1,2.3250565E-1,7.164659E-2,5.9407394E-2,2.2588564E-1,6.4124785E-2,7.119897E-1,1.437309E-1,1.7770598E-2,2.1474358E-1,3.767387E-1,8.230452E-3,9.302326E-3,1.1451011E-1,4.0356082E-1,8.547345E-2,9.3499556E-2,7.90201E-1,4.9458483E-1,6.635071E-2,1.8582177E-1,5.836784E-1,6.746324E-1,8.862235E-2,1.325082E-1,3.1623933E-1,6.353184E-3,9.796673E-2,-1.7623052E-1,1.673495E-1,1.4040561E-2,2.9866692E-1,4.6511628E-2,1.7337818E-2,9.9734896E-1,1.7450439E-2,-1.7426416E-1,9.774436E-2,-5.616845E-2,1.3825983E-1,3.8533834E-1,2.4430513E-1,-1.7262523E-1,1.6917294E-2,-1.1658152E-1,2.0869565E-1,-1.7620789E-1,4.4444446E-3,2.3208897E-1,-5.170062E-2,2.1074815E-1,1.16111316E-1,3.3224756E-1,1.6384633E-2,-1.8201011E-1,6.373182E-1,-1.7758971E-1,-1.6148485E-1,1.4559142E-1,-1.7339551E-1,3.1854528E-1,1.049785E-1,-1.631681E-1,2.4159414E-1,-1.5067627E-1,-1.87042E-1,2.4868836E-1,-1.4705342E-1,1.01782136E-1,-6.390401E-3,2.7631024E-1,2.4466066E-1,-1.5756407E-1,2.8420177E-1,-1.213398E-1,8.575297E-2,3.1127316E-1,-1.5319356E-1,3.0946833E-1,1.5686317E-1,-1.7041335E-1,2.7601495E-1,5.036342E-2,-1.8520263E-1,1.2829047E-2,2.684189E-1,-7.475224E-2],"split_indices":[99,106,3,94,2,83,26,33,3,9,1,3,7,83,0,130,11,63,7,0,10,108,44,7,14,1,2,72,6,61,140,46,0,6,8,0,33,18,0,0,0,4,0,38,11,0,0,17,0,3,0,11,0,0,72,0,37,0,0,86,0,0,0,0,0,0,0,0,0,0,0,0,0,0,0,0,0,0,0,0,0,0,0,0,0,0,0,0,0,0,0],"split_type":[0,0,0,0,0,0,0,0,0,0,0,0,0,0,0,0,0,0,0,0,0,0,0,0,0,0,0,0,0,0,0,0,0,0,0,0,0,0,0,0,0,0,0,0,0,0,0,0,0,0,0,0,0,0,0,0,0,0,0,0,0,0,0,0,0,0,0,0,0,0,0,0,0,0,0,0,0,0,0,0,0,0,0,0,0,0,0,0,0,0,0],"sum_hessian":[8.288309E3,5.177667E3,3.1106414E3,4.712901E3,4.6476587E2,5.8281256E2,2.5278289E3,4.3858022E3,3.2709872E2,4.0264263E1,4.2450162E2,5.5971718E1,5.268408E2,2.247726E2,2.3030562E3,3.3252844E2,4.0532737E3,9.337388E1,2.3372485E2,1.6438799E0,3.8620384E1,3.4352533E2,8.0976265E1,1.320873E1,4.276299E1,4.676519E1,4.8007565E2,1.25806435E2,9.896616E1,3.6940132E1,2.2661162E3,1.7314278E2,1.5938567E2,5.7105938E1,3.9961677E3,8.810863E0,8.456301E1,1.8158002E2,5.2144844E1,1.0589763E0,3.7561405E1,3.419002E2,1.6251309E0,5.8457584E1,2.2518679E1,1.3694903E0,1.183924E1,4.1180416E1,1.58257E0,2.205936E1,2.470583E1,4.786693E2,1.4063449E0,1.4807423E0,1.2432569E2,1.2393705E0,9.772679E1,1.0615122E0,3.587862E1,2.2402312E3,2.5885029E1,5.9869644E1,1.1327313E2,3.0850353E1,2.6255587E1,3.6794605E1,3.9593733E3,1.9183503E0,8.264466E1,4.3072248E0,1.772728E2,4.2604485E1,9.540359E0,1.2497005E0,3.406505E2,1.21949835E1,4.62626E1,2.0823574E1,1.695106E0,1.3785226E0,3.9801895E1,4.9532475E0,1.7106112E1,1.7113687E0,4.7695795E2,1.2283556E2,1.4901301E0,9.653969E1,1.187101E0,2.2307056E3,9.525604E0],"tree_param":{"num_deleted":"0","num_feature":"187","num_nodes":"91","size_leaf_vector":"1"}},{"base_weights":[-1.5416915E-3,6.1061275E-1,-3.5701516E-1,-4.6552765E-1,6.959164E-1,-2.0756079E-2,-4.7539625E-1,4.4461063E-1,-5.7132643E-1,7.172175E-1,-2.26433E-1,3.1854358E-1,-3.0319002E-1,1.0079683E-1,-5.0187874E-1,7.4517E-1,-1.4950478E-1,-1.7286986E-1,-1.2483049E-2,2.8066602E-1,7.472593E-1,5.681235E-1,-4.986858E-1,1.4786099E-1,7.145841E-1,-4.0417457E-1,4.7844425E-1,-3.89317E-1,5.3946E-1,-5.2380663E-1,-5.8264483E-2,-1.142725E-2,2.4737765E-1,-3.6671394E-1,5.0395197E-1,7.5322413E-1,-4.1506022E-1,6.828069E-1,-1.025521E-1,-1.7171283E-1,2.1263133E-1,1.4001881E-2,8.010739E-1,-1.949494E-1,7.8491837E-1,-5.3085613E-1,5.7388194E-2,6.94763E-1,-4.348681E-1,-5.105462E-1,5.679322E-1,9.5405453E-1,2.1612123E-1,-5.307112E-1,-1.0665152E-2,5.85666E-1,-2.5107864E-1,1.5854388E-1,-1.661247E-1,1.9558859E-1,-1.5687239E-1,2.2757332E-1,-1.3598485E-1,-1.7190291E-1,1.3983572E-1,4.9668826E-2,2.1875207E-1,1.6975625E-1,-1.1229602E-1,-1.6021387E-1,5.9547465E-2,-1.3180727E-1,2.611752E-1,2.1356626E-1,-1.6295676E-1,2.4424283E-1,-1.5115103E-1,2.4016362E-1,-1.6316727E-1,-1.4507169E-1,2.6500955E-1,-1.13892056E-1,2.3150574E-1,-1.6099888E-1,6.695743E-3,-1.6705982E-1,1.5979846E-1,3.9017013E-1,-9.6195E-2,6.5168864E-3,3.033978E-1,-7.094881E-2,1.7430535E-1,-1.6517977E-1,-1.1521262E-1,2.9184568E-1,-1.535098E-1,2.4308875E-1,-7.404122E-2,-1.1151292E-1,1.3826238E-1],"categories":[],"categories_nodes":[],"categories_segments":[],"categories_sizes":[],"default_left":[0,0,0,0,0,0,0,0,0,0,0,0,0,0,0,0,0,0,0,0,0,0,0,0,0,0,0,0,0,0,0,0,0,0,0,0,0,0,0,0,0,0,0,0,0,0,0,0,0,0,0,0,0,0,0,0,0,0,0,0,0,0,0,0,0,0,0,0,0,0,0,0,0,0,0,0,0,0,0,0,0,0,0,0,0,0,0,0,0,0,0,0,0,0,0,0,0,0,0,0,0],"id":12,"left_children":[1,3,5,7,9,11,13,15,17,19,21,23,25,27,29,31,-1,-1,-1,33,35,37,39,41,43,45,47,49,51,53,55,-1,-1,57,59,61,63,65,-1,-1,67,69,71,73,75,77,79,81,83,85,87,89,91,93,95,97,99,-1,-1,-1,-1,-1,-1,-1,-1,-1,-1,-1,-1,-1,-1,-1,-1,-1,-1,-1,-1,-1,-1,-1,-1,-1,-1,-1,-1,-1,-1,-1,-1,-1,-1,-1,-1,-1,-1,-1,-1,-1,-1,-1,-1],"loss_changes":[1.5786259E3,2.449748E2,1.8268225E2,1.915981E1,4.8685425E1,1.1471594E2,5.1845886E1,6.3256135E0,4.3430328E-1,3.1452515E1,1.2507488E1,3.665546E1,5.1756115E1,3.245671E1,3.1539429E1,1.0473833E0,0E0,0E0,0E0,2.2885485E1,1.5968628E1,1.7871795E0,2.3557634E0,3.33291E1,1.0613976E1,3.388829E1,1.5158937E1,8.578063E0,1.0460209E1,1.0950806E1,1.9266338E1,0E0,0E0,7.132786E0,1.8152046E1,1.4857544E1,1.9615142E0,2.043891E-1,0E0,0E0,1.1924628E0,3.2205082E1,5.9723663E0,4.346403E0,6.134491E0,8.322067E0,5.6549473E1,5.349558E0,7.1077824E-1,3.3852634E0,5.951626E0,1.8239918E0,7.734123E0,8.689209E0,2.1232153E1,6.8916283E0,1.0409145E1,0E0,0E0,0E0,0E0,0E0,0E0,0E0,0E0,0E0,0E0,0E0,0E0,0E0,0E0,0E0,0E0,0E0,0E0,0E0,0E0,0E0,0E0,0E0,0E0,0E0,0E0,0E0,0E0,0E0,0E0,0E0,0E0,0E0,0E0,0E0,0E0,0E0,0E0,0E0,0E0,0E0,0E0,0E0,0E0],"parents":[2147483647,0,0,1,1,2,2,3,3,4,4,5,5,6,6,7,7,8,8,9,9,10,10,11,11,12,12,13,13,14,14,15,15,19,19,20,20,21,21,22,22,23,23,24,24,25,25,26,26,27,27,28,28,29,29,30,30,33,33,34,34,35,35,36,36,37,37,40,40,41,41,42,42,43,43,44,44,45,45,46,46,47,47,48,48,49,49,50,50,51,51,52,52,53,53,54,54,55,55,56,56],"right_children":[2,4,6,8,10,12,14,16,18,20,22,24,26,28,30,32,-1,-1,-1,34,36,38,40,42,44,46,48,50,52,54,56,-1,-1,58,60,62,64,66,-1,-1,68,70,72,74,76,78,80,82,84,86,88,90,92,94,96,98,100,-1,-1,-1,-1,-1,-1,-1,-1,-1,-1,-1,-1,-1,-1,-1,-1,-1,-1,-1,-1,-1,-1,-1,-1,-1,-1,-1,-1,-1,-1,-1,-1,-1,-1,-1,-1,-1,-1,-1,-1,-1,-1,-1,-1],"split_conditions":[1.437309E-1,6.1241096E-1,4.3769968E-1,1.7025271E-1,5.24359E-1,2.8136882E-1,1.0423547E-1,1.452844E-1,5.691574E-1,6.9027714E-2,3.4330708E-1,1.0830325E-2,6.959976E-1,1.825176E-2,3.9379084E-1,4.0983604E-3,-1.4950478E-1,-1.7286986E-1,-1.2483049E-2,1.24223605E-2,7.791057E-1,5.36193E-1,8.6351705E-1,2.8275862E-1,4.475043E-2,8.494451E-1,4.1229366E-3,3.0812325E-2,6.967213E-2,6.3829786E-1,2.8787878E-1,-1.142725E-2,2.4737765E-1,2.3302789E-1,4.6296296E-1,6.456422E-1,5.8046356E-2,1.0643468E-2,-1.025521E-1,-1.7171283E-1,9.694146E-1,5.808824E-1,1.1016949E-1,1.1220472E-1,4.1379312E-1,2.225741E-1,2.8760472E-1,9.5666665E-1,4.672619E-1,1.2741057E-3,6.283186E-1,1.755301E-2,1.3429393E-1,8.1922775E-3,2.4923077E-1,6.584795E-1,8.230452E-3,1.5854388E-1,-1.661247E-1,1.9558859E-1,-1.5687239E-1,2.2757332E-1,-1.3598485E-1,-1.7190291E-1,1.3983572E-1,4.9668826E-2,2.1875207E-1,1.6975625E-1,-1.1229602E-1,-1.6021387E-1,5.9547465E-2,-1.3180727E-1,2.611752E-1,2.1356626E-1,-1.6295676E-1,2.4424283E-1,-1.5115103E-1,2.4016362E-1,-1.6316727E-1,-1.4507169E-1,2.6500955E-1,-1.13892056E-1,2.3150574E-1,-1.6099888E-1,6.695743E-3,-1.6705982E-1,1.5979846E-1,3.9017013E-1,-9.6195E-2,6.5168864E-3,3.033978E-1,-7.094881E-2,1.7430535E-1,-1.6517977E-1,-1.1521262E-1,2.9184568E-1,-1.535098E-1,2.4308875E-1,-7.404122E-2,-1.1151292E-1,1.3826238E-1],"split_indices":[3,0,2,39,64,58,56,7,1,5,2,126,8,63,12,115,0,0,0,102,67,58,1,62,5,0,79,55,62,80,3,0,0,2,28,29,4,3,0,0,1,0,9,126,24,54,15,22,4,74,2,6,44,129,74,27,130,0,0,0,0,0,0,0,0,0,0,0,0,0,0,0,0,0,0,0,0,0,0,0,0,0,0,0,0,0,0,0,0,0,0,0,0,0,0,0,0,0,0,0,0],"split_type":[0,0,0,0,0,0,0,0,0,0,0,0,0,0,0,0,0,0,0,0,0,0,0,0,0,0,0,0,0,0,0,0,0,0,0,0,0,0,0,0,0,0,0,0,0,0,0,0,0,0,0,0,0,0,0,0,0,0,0,0,0,0,0,0,0,0,0,0,0,0,0,0,0,0,0,0,0,0,0,0,0,0,0,0,0,0,0,0,0,0,0,0,0,0,0,0,0,0,0,0,0],"sum_hessian":[7.252557E3,2.6640784E3,4.588479E3,1.9533908E2,2.4687393E3,1.195073E3,3.3934058E3,2.0008942E1,1.7533014E2,2.4132297E3,5.5509613E1,5.428258E2,6.5224713E2,1.4898817E2,3.2444177E3,1.5331825E1,4.677117E0,1.7363408E2,1.696059E0,1.5604285E2,2.2571868E3,1.3888871E1,4.1620743E1,3.803002E2,1.6252562E2,5.7804816E2,7.419899E1,7.042053E1,7.856764E1,3.0914272E3,1.5299046E2,1.4594207E0,1.3872405E1,3.985312E1,1.16189735E2,2.2460127E3,1.1174181E1,1.2556056E1,1.3328153E0,3.789071E1,3.730033E0,3.164694E2,6.383079E1,1.1538806E1,1.5098682E2,4.5344458E2,1.2460358E2,6.018372E1,1.4015268E1,6.2918922E1,7.501608E0,3.357112E1,4.4996517E1,3.050349E3,4.107809E1,3.4784653E1,1.1820581E2,6.5720716E0,3.3281048E1,1.0187127E2,1.4318465E1,2.2364602E3,9.552444E0,9.772251E0,1.4019302E0,1.4089717E0,1.1147084E1,2.3511019E0,1.378931E0,7.922565E1,2.3724376E2,3.1047444E0,6.0726044E1,2.9118726E0,8.626933E0,1.47999E2,2.9878216E0,3.8105443E0,4.4963403E2,7.5542656E1,4.9060917E1,3.758086E0,5.6425632E1,1.1320803E1,2.6944656E0,6.0690384E1,2.2285388E0,3.8574789E0,3.6441293E0,2.02269E0,3.1548431E1,2.0241219E1,2.47553E1,2.6836921E3,3.6665692E2,1.35463085E1,2.7531782E1,2.741402E1,7.3706336E0,1.0148792E2,1.6717892E1],"tree_param":{"num_deleted":"0","num_feature":"187","num_nodes":"101","size_leaf_vector":"1"}},{"base_weights":[1.1253241E-2,-1.8195525E-1,4.210749E-1,4.8468035E-1,-2.5768414E-1,7.2963774E-1,2.5234243E-1,-5.084146E-1,5.5586356E-1,2.7532092E-1,-3.7321544E-1,7.365968E-1,2.3902398E-2,-2.1734995E-1,5.8811706E-1,-1.7271009E-1,2.7394405E-1,6.2422985E-1,-4.7203898E-1,-1.9353946E-1,7.215847E-1,3.3242443E-1,-4.1457042E-1,1.6897938E-1,7.401873E-1,2.004011E-1,-1.4167084E-1,1.8363027E-1,-3.9521796E-1,7.848391E-1,-4.4238467E-2,1.1584545E-1,1.0752523E-2,6.8646204E-1,1.1489129E-1,-1.7037627E-1,1.80918E-1,-3.6786497E-1,5.688198E-1,3.897992E-2,7.9193103E-1,9.912592E-1,-7.751484E-2,-4.7814837E-1,-2.2063395E-1,2.1803959E-1,-1.4719573E-1,7.5142837E-1,5.4192996E-1,4.9728775E-1,-2.6316625E-1,6.796051E-1,-5.034868E-1,-3.6239934E-1,7.916868E-1,7.2961164E-1,-2.901879E-1,-3.8456462E-2,2.1619825E-1,-6.969205E-2,2.2098593E-1,-1.3803343E-1,2.105726E-1,-3.8482524E-2,2.2226048E-1,-1.4736731E-1,1.8301548E-1,2.2401966E-1,3.2959718E-1,3.125919E-1,3.5595063E-2,2.3651189E-1,-1.2621358E-1,8.914393E-2,-1.4955626E-1,1.6514258E-2,-1.5897605E-1,2.2607118E-1,-1.0917208E-1,2.2519074E-1,1.6141886E-2,5.7291817E-2,2.750555E-1,2.70547E-1,-1.2606458E-1,2.590592E-1,-4.975544E-2,-1.685546E-1,-6.326453E-2,-1.5954703E-1,2.3481011E-2,2.3886497E-1,-6.249503E-3,2.5253186E-1,-1.8022333E-1,4.794481E-3,-1.6071321E-1],"categories":[],"categories_nodes":[],"categories_segments":[],"categories_sizes":[],"default_left":[0,0,0,0,0,0,0,0,0,0,0,0,0,0,0,0,0,0,0,0,0,0,0,0,0,0,0,0,0,0,0,0,0,0,0,0,0,0,0,0,0,0,0,0,0,0,0,0,0,0,0,0,0,0,0,0,0,0,0,0,0,0,0,0,0,0,0,0,0,0,0,0,0,0,0,0,0,0,0,0,0,0,0,0,0,0,0,0,0,0,0,0,0,0,0,0,0],"id":13,"left_children":[1,3,5,7,9,11,13,15,17,19,21,23,25,27,29,-1,31,33,35,37,39,41,43,45,47,-1,-1,49,51,53,55,-1,-1,57,59,-1,-1,61,63,65,67,69,71,73,75,-1,-1,77,79,81,83,85,87,89,91,93,95,-1,-1,-1,-1,-1,-1,-1,-1,-1,-1,-1,-1,-1,-1,-1,-1,-1,-1,-1,-1,-1,-1,-1,-1,-1,-1,-1,-1,-1,-1,-1,-1,-1,-1,-1,-1,-1,-1,-1,-1],"loss_changes":[5.835226E2,2.5296506E2,1.2274771E2,3.6423897E1,2.7709088E2,4.0792236E0,2.4110434E2,1.9852619E0,3.3852905E1,1.6792055E2,1.080296E2,1.5583191E0,3.2486699E0,4.555376E1,1.1090753E2,0E0,7.7715814E-2,1.4127396E1,3.4710226E0,5.228247E1,1.97072E1,5.5508713E1,4.296344E1,2.7438335E0,1.4214172E0,0E0,0E0,2.7687126E1,5.1784607E1,5.627716E0,4.0642395E1,0E0,0E0,1.121373E1,1.0964085E1,0E0,0E0,3.185323E1,8.88802E0,1.2246076E1,4.3451385E0,3.3632965E0,3.820483E1,4.1684265E1,7.371857E1,0E0,0E0,2.123291E0,4.8101587E0,1.4717037E1,1.5337265E1,6.500099E0,6.749527E0,3.9400536E-1,2.505066E0,8.192659E0,1.217959E1,0E0,0E0,0E0,0E0,0E0,0E0,0E0,0E0,0E0,0E0,0E0,0E0,0E0,0E0,0E0,0E0,0E0,0E0,0E0,0E0,0E0,0E0,0E0,0E0,0E0,0E0,0E0,0E0,0E0,0E0,0E0,0E0,0E0,0E0,0E0,0E0,0E0,0E0,0E0,0E0],"parents":[2147483647,0,0,1,1,2,2,3,3,4,4,5,5,6,6,7,7,8,8,9,9,10,10,11,11,12,12,13,13,14,14,16,16,17,17,18,18,19,19,20,20,21,21,22,22,23,23,24,24,27,27,28,28,29,29,30,30,33,33,34,34,37,37,38,38,39,39,40,40,41,41,42,42,43,43,44,44,47,47,48,48,49,49,50,50,51,51,52,52,53,53,54,54,55,55,56,56],"right_children":[2,4,6,8,10,12,14,16,18,20,22,24,26,28,30,-1,32,34,36,38,40,42,44,46,48,-1,-1,50,52,54,56,-1,-1,58,60,-1,-1,62,64,66,68,70,72,74,76,-1,-1,78,80,82,84,86,88,90,92,94,96,-1,-1,-1,-1,-1,-1,-1,-1,-1,-1,-1,-1,-1,-1,-1,-1,-1,-1,-1,-1,-1,-1,-1,-1,-1,-1,-1,-1,-1,-1,-1,-1,-1,-1,-1,-1,-1,-1,-1,-1],"split_conditions":[2.6908168E-1,5.6810524E-2,1.0227273E-1,1.463964E-1,4.1093744E-2,7.037037E-1,6.359231E-1,6.5929204E-1,3.238255E-1,1.773585E-1,5.8957654E-1,2.9411766E-1,6.635421E-1,3.767387E-1,1.7713355E-1,-1.7271009E-1,3.633901E-2,1.0938071E-1,4.202254E-1,2.169271E-1,1.7711172E-1,1.1974808E-1,6.50641E-1,3.0912745E-1,6.9588315E-1,2.004011E-1,-1.4167084E-1,7.4545455E-1,4.4333708E-2,3.058637E-1,3.0167136E-1,1.1584545E-1,1.0752523E-2,1.9461997E-2,2E-1,-1.7037627E-1,1.80918E-1,1.1605723E-1,9.265256E-2,3.7761378E-1,3.4810282E-2,2.2473767E-1,2.901099E-1,6.7114094E-3,4.1584158E-1,2.1803959E-1,-1.4719573E-1,2.0646957E-1,4.3620178E-1,7.306338E-1,5.7228917E-1,4.1654587E-1,3.898305E-1,2.6263553E-1,4.2592594E-1,3.408002E-1,4.0778342E-1,-3.8456462E-2,2.1619825E-1,-6.969205E-2,2.2098593E-1,-1.3803343E-1,2.105726E-1,-3.8482524E-2,2.2226048E-1,-1.4736731E-1,1.8301548E-1,2.2401966E-1,3.2959718E-1,3.125919E-1,3.5595063E-2,2.3651189E-1,-1.2621358E-1,8.914393E-2,-1.4955626E-1,1.6514258E-2,-1.5897605E-1,2.2607118E-1,-1.0917208E-1,2.2519074E-1,1.6141886E-2,5.7291817E-2,2.750555E-1,2.70547E-1,-1.2606458E-1,2.590592E-1,-4.975544E-2,-1.685546E-1,-6.326453E-2,-1.5954703E-1,2.3481011E-2,2.3886497E-1,-6.249503E-3,2.5253186E-1,-1.8022333E-1,4.794481E-3,-1.6071321E-1],"split_indices":[9,5,1,33,24,7,2,2,10,84,0,12,68,0,26,0,23,7,25,43,49,4,2,17,74,0,0,35,4,4,5,0,0,10,104,0,0,122,10,3,25,9,0,4,54,0,0,0,5,24,49,18,58,16,40,128,102,0,0,0,0,0,0,0,0,0,0,0,0,0,0,0,0,0,0,0,0,0,0,0,0,0,0,0,0,0,0,0,0,0,0,0,0,0,0,0,0],"split_type":[0,0,0,0,0,0,0,0,0,0,0,0,0,0,0,0,0,0,0,0,0,0,0,0,0,0,0,0,0,0,0,0,0,0,0,0,0,0,0,0,0,0,0,0,0,0,0,0,0,0,0,0,0,0,0,0,0,0,0,0,0,0,0,0,0,0,0,0,0,0,0,0,0,0,0,0,0,0,0,0,0,0,0,0,0,0,0,0,0,0,0,0,0,0,0,0,0],"sum_hessian":[7.367507E3,5.0073643E3,2.3601423E3,5.1025232E2,4.497112E3,8.331775E2,1.5269648E3,3.371691E1,4.765354E2,8.0087616E2,3.6962358E3,8.249987E2,8.178819E0,6.36692E2,8.9027277E2,3.1290007E1,2.4269066E0,4.471856E2,2.9349792E1,3.9082648E2,4.1004968E2,2.0424074E2,3.491995E3,5.4878216E0,8.1951086E2,3.4080215E0,4.770797E0,1.9563226E2,4.4105978E2,6.788465E2,2.1142627E2,1.2269223E0,1.1999842E0,3.981865E2,4.899914E1,2.7379704E1,1.9700876E0,3.185113E2,7.231518E1,3.845512E1,3.7159457E2,7.779472E1,1.2644602E2,2.62875E3,8.6324506E2,2.9182076E0,2.569614E0,7.7289777E2,4.661307E1,1.1487522E2,8.0757034E1,3.987999E1,4.0117978E2,3.7197924E0,6.751267E2,5.051631E1,1.6090996E2,1.5931574E1,3.822549E2,3.1843056E1,1.7156086E1,2.9375107E2,2.4760221E1,1.4365274E1,5.7949905E1,2.0013582E1,1.8441538E1,3.2686288E2,4.4731693E1,7.3338394E1,4.4563293E0,3.552334E1,9.092268E1,6.695945E1,2.5617905E3,4.5685263E2,4.0639246E2,7.7173987E2,1.15793E0,3.227537E1,1.4337702E1,6.723991E1,4.763532E1,9.030024E0,7.172701E1,3.2736847E1,7.1431427E0,3.3370096E2,6.747883E1,2.5373893E0,1.182403E0,6.7140375E2,3.722999E0,4.692718E1,3.5891323E0,7.202675E1,8.888322E1],"tree_param":{"num_deleted":"0","num_feature":"187","num_nodes":"97","size_leaf_vector":"1"}},{"base_weights":[-4.747252E-3,4.4630876E-1,-4.9984017E-1,6.043912E-1,-2.888907E-1,-3.538353E-1,-5.4848623E-1,6.465329E-1,-4.8786095E-1,-4.7123057E-1,-1.2957606E-1,-1.8888415E-1,-5.1552165E-1,-5.6181127E-1,1.6580388E-2,-3.4625503E-1,6.682067E-1,-1.6207537E-1,-1.8108629E-1,-5.0626045E-1,-2.1191206E-2,5.592098E-1,-2.1879803E-1,-4.0635228E-1,2.6636493E-1,-5.2381647E-1,2.6083526E-1,-5.643234E-1,-2.1732916E-1,-4.2440394E-1,6.91866E-1,-5.833978E-1,2.5176993E-1,-2.9201713E-1,6.841147E-1,4.9319392E-1,-4.4843593E-1,-5.2212715E-1,2.7805084E-1,-1.5935741E-1,3.938821E-1,7.2749346E-1,-1.5523505E-1,-4.4612837E-1,-1.8299129E-2,-4.7370535E-1,4.4665077E-1,4.0787295E-1,1.07329205E-1,-2.7978924E-1,-5.5867016E-1,-3.0400333E-1,-5.6632775E-1,-1.6547967E-1,8.1322634E-1,2.9772383E-1,-5.3189784E-1,9.2208374E-1,-1.4595613E-1,-1.8779646E-1,1.7305878E-1,-1.5063375E-1,1.6323453E-1,-4.381188E-2,2.0953254E-1,-1.5687986E-1,2.3921984E-1,1.4906652E-1,-1.6075073E-1,-1.6647285E-1,-8.0757104E-2,-1.4668423E-1,2.6980194E-1,2.5664875E-1,-7.408163E-2,4.028176E-2,-1.6643134E-1,9.237226E-2,-1.4240485E-1,-1.5914474E-1,1.8616027E-1,-1.5893185E-1,2.3821515E-1,-9.49391E-2,1.4427574E-1,-1.4609683E-1,2.4518773E-1,-2.887843E-2,-1.724284E-1,-1.71102E-1,2.346644E-1,-1.7031454E-1,-8.722467E-2,-1.08193256E-1,4.430338E-1,-1.2462506E-1,2.524619E-1,4.844259E-2,-1.6808528E-1,2.9302934E-1,7.618517E-2],"categories":[],"categories_nodes":[],"categories_segments":[],"categories_sizes":[],"default_left":[0,0,0,0,0,0,0,0,0,0,0,0,0,0,0,0,0,0,0,0,0,0,0,0,0,0,0,0,0,0,0,0,0,0,0,0,0,0,0,0,0,0,0,0,0,0,0,0,0,0,0,0,0,0,0,0,0,0,0,0,0,0,0,0,0,0,0,0,0,0,0,0,0,0,0,0,0,0,0,0,0,0,0,0,0,0,0,0,0,0,0,0,0,0,0,0,0,0,0,0,0],"id":14,"left_children":[1,3,5,7,9,11,13,15,17,19,21,23,25,27,29,31,33,35,-1,37,39,41,43,45,47,49,-1,51,53,55,57,59,-1,61,63,65,67,69,-1,-1,71,73,-1,75,77,79,81,-1,83,85,87,89,91,-1,93,95,97,99,-1,-1,-1,-1,-1,-1,-1,-1,-1,-1,-1,-1,-1,-1,-1,-1,-1,-1,-1,-1,-1,-1,-1,-1,-1,-1,-1,-1,-1,-1,-1,-1,-1,-1,-1,-1,-1,-1,-1,-1,-1,-1,-1],"loss_changes":[1.6191648E3,4.411258E2,2.4356323E1,1.4406226E2,1.9463066E1,2.30168E1,1.951764E1,6.494202E1,4.2988987E0,4.924034E0,2.2250834E1,4.273638E1,5.476715E0,2.067871E0,1.8357813E1,1.8737795E1,4.516162E1,6.212979E0,0E0,7.0865936E0,5.21544E0,7.909154E0,1.455458E1,1.6975136E1,2.4159008E1,3.5443726E0,0E0,1.1386108E0,7.3216996E0,3.0550203E0,7.0528736E0,3.0631714E0,0E0,8.822961E0,3.4543335E1,3.5659373E0,2.1454563E0,2.2373123E0,0E0,0E0,6.513914E0,4.747755E0,0E0,9.513367E0,2.5575972E1,1.7160458E1,7.8384004E0,0E0,1.9646364E1,1.3214388E1,2.7700882E0,6.6239657E0,7.876587E-1,0E0,4.6536846E0,2.4733586E0,7.36845E-1,5.0860405E-1,0E0,0E0,0E0,0E0,0E0,0E0,0E0,0E0,0E0,0E0,0E0,0E0,0E0,0E0,0E0,0E0,0E0,0E0,0E0,0E0,0E0,0E0,0E0,0E0,0E0,0E0,0E0,0E0,0E0,0E0,0E0,0E0,0E0,0E0,0E0,0E0,0E0,0E0,0E0,0E0,0E0,0E0,0E0],"parents":[2147483647,0,0,1,1,2,2,3,3,4,4,5,5,6,6,7,7,8,8,9,9,10,10,11,11,12,12,13,13,14,14,15,15,16,16,17,17,19,19,20,20,21,21,22,22,23,23,24,24,25,25,27,27,28,28,29,29,30,30,31,31,33,33,34,34,35,35,36,36,37,37,40,40,41,41,43,43,44,44,45,45,46,46,48,48,49,49,50,50,51,51,52,52,54,54,55,55,56,56,57,57],"right_children":[2,4,6,8,10,12,14,16,18,20,22,24,26,28,30,32,34,36,-1,38,40,42,44,46,48,50,-1,52,54,56,58,60,-1,62,64,66,68,70,-1,-1,72,74,-1,76,78,80,82,-1,84,86,88,90,92,-1,94,96,98,100,-1,-1,-1,-1,-1,-1,-1,-1,-1,-1,-1,-1,-1,-1,-1,-1,-1,-1,-1,-1,-1,-1,-1,-1,-1,-1,-1,-1,-1,-1,-1,-1,-1,-1,-1,-1,-1,-1,-1,-1,-1,-1,-1],"split_conditions":[1.7021276E-2,1.9767305E-1,1.8413597E-1,3.091954E-1,1.8161437E-3,2.7599138E-1,6.1539716E-1,6.732348E-1,3.3840305E-1,7.3493975E-1,1.0677794E-1,2.2222222E-1,1.5364688E-2,7.38761E-1,4.8163265E-1,7.2948265E-1,7.535642E-2,1.5486726E-1,-1.8108629E-1,9.706546E-1,7.626016E-1,1.9095607E-2,4.1142234E-1,6.3226575E-1,1.1047851E-1,2.0790028E-3,2.6083526E-1,1.7439704E-1,9.7328246E-2,1.7080745E-1,3.909091E-1,3.6700338E-1,2.5176993E-1,2.6640835E-1,1.3752456E-2,3.0769232E-1,2.1671826E-2,6.101871E-1,2.7805084E-1,-1.5935741E-1,5.110294E-1,9.1346157E-1,-1.5523505E-1,2.4326323E-1,5.569583E-1,3.090909E-1,1.8373494E-1,4.0787295E-1,3.5582643E-2,2.622604E-1,2.576419E-1,5.055118E-1,5.743243E-1,-1.6547967E-1,3.2824796E-1,1.24668434E-1,2.268761E-1,6.585847E-1,-1.4595613E-1,-1.8779646E-1,1.7305878E-1,-1.5063375E-1,1.6323453E-1,-4.381188E-2,2.0953254E-1,-1.5687986E-1,2.3921984E-1,1.4906652E-1,-1.6075073E-1,-1.6647285E-1,-8.0757104E-2,-1.4668423E-1,2.6980194E-1,2.5664875E-1,-7.408163E-2,4.028176E-2,-1.6643134E-1,9.237226E-2,-1.4240485E-1,-1.5914474E-1,1.8616027E-1,-1.5893185E-1,2.3821515E-1,-9.49391E-2,1.4427574E-1,-1.4609683E-1,2.4518773E-1,-2.887843E-2,-1.724284E-1,-1.71102E-1,2.346644E-1,-1.7031454E-1,-8.722467E-2,-1.08193256E-1,4.430338E-1,-1.2462506E-1,2.524619E-1,4.844259E-2,-1.6808528E-1,2.9302934E-1,7.618517E-2],"split_indices":[96,8,104,43,72,62,146,1,43,7,69,82,143,130,6,69,3,69,0,2,16,80,30,87,74,0,0,103,151,124,4,56,0,37,25,55,4,55,0,0,3,1,0,8,36,26,3,0,103,2,50,100,147,0,2,0,141,160,0,0,0,0,0,0,0,0,0,0,0,0,0,0,0,0,0,0,0,0,0,0,0,0,0,0,0,0,0,0,0,0,0,0,0,0,0,0,0,0,0,0,0],"split_type":[0,0,0,0,0,0,0,0,0,0,0,0,0,0,0,0,0,0,0,0,0,0,0,0,0,0,0,0,0,0,0,0,0,0,0,0,0,0,0,0,0,0,0,0,0,0,0,0,0,0,0,0,0,0,0,0,0,0,0,0,0,0,0,0,0,0,0,0,0,0,0,0,0,0,0,0,0,0,0,0,0,0,0,0,0,0,0,0,0,0,0,0,0,0,0,0,0,0,0,0,0],"sum_hessian":[7.248599E3,3.793038E3,3.455561E3,3.1219375E3,6.711006E2,8.656618E2,2.5898994E3,3.0063533E3,1.15584206E2,3.1202347E2,3.590771E2,4.2957788E2,4.360839E2,2.5302385E3,5.9660732E1,6.391015E1,2.942443E3,3.0931938E1,8.465227E1,2.893744E2,2.2649076E1,4.0574883E1,3.185022E2,2.9078168E2,1.3879622E2,4.3410574E2,1.9781532E0,2.5112866E3,1.8951971E1,3.631641E1,2.3344324E1,5.367999E1,1.0230159E1,4.767009E1,2.894773E3,9.187106E0,2.1744833E1,2.8683435E2,2.5400472E0,1.00369425E1,1.2612134E1,3.5370693E1,5.204189E0,1.486895E2,1.6981271E2,2.6991394E2,2.086773E1,1.6668446E1,1.2212777E2,5.5381435E1,3.787243E2,2.0354458E1,2.4909321E3,1.4661228E1,4.290742E0,4.4762125E0,3.1840197E1,1.9710957E1,3.6333668E0,5.2223465E1,1.4565222E0,3.841661E1,9.25348E0,4.8955456E1,2.8458176E3,1.9510554E0,7.236051E0,1.4437604E0,2.0301071E1,2.5286716E2,3.3967182E1,4.60381E0,8.008324E0,3.1371733E1,3.9989624E0,2.3406939E1,1.25282555E2,9.9219505E1,7.059321E1,2.5708948E2,1.2824473E1,5.3383784E0,1.5529351E1,5.7290962E1,6.483681E1,4.705122E1,8.330216E0,1.2970685E1,3.657536E2,1.6727795E1,3.6266632E0,2.4774E3,1.3532195E1,1.7143809E0,2.5763612E0,2.0387611E0,2.4374514E0,1.067862E0,3.0772335E1,1.7792845E1,1.9181126E0],"tree_param":{"num_deleted":"0","num_feature":"187","num_nodes":"101","size_leaf_vector":"1"}},{"base_weights":[-5.205494E-3,-3.2106614E-1,4.8801383E-1,-4.0976062E-1,5.75109E-1,-3.9695472E-1,6.608167E-1,-4.687889E-1,1.9335833E-1,-2.6697204E-1,7.0417136E-1,5.2507514E-1,-5.039598E-1,-1.7353351E-1,6.8035203E-1,-1.8562345E-1,-4.9697295E-1,-3.2758042E-1,5.03803E-1,-5.3584766E-1,1.3945135E-1,-2.2211827E-1,7.314486E-1,-3.2405916E-1,7.594866E-1,-1.03643976E-1,-5.4790443E-1,2.1418378E-1,7.2492135E-1,9.090616E-2,-5.63579E-1,-5.2221465E-1,-1.3155074E-1,6.679824E-1,-4.4269547E-1,-3.5755295E-1,7.088417E-1,1.2777658E-1,-1.7543001E-1,-1.5722801E-1,7.1384895E-1,1.9319962E-1,-1.6447467E-1,-1.403156E-1,7.4756736E-1,1.3553211E-1,-1.6278903E-1,8.283291E-1,-1.1767671E-1,5.5537605E-1,-5.288518E-1,1.907675E-1,-5.573223E-1,7.50182E-1,-5.6329507E-1,7.4169314E-1,-1.7088196E-1,-4.207107E-2,2.5706512E-1,-1.7089243E-1,8.028467E-3,-1.6635351E-1,-1.1635225E-1,1.6912363E-1,-1.4738788E-1,2.885188E-1,7.5103757E-3,-1.5534902E-1,-1.8124579E-2,2.557607E-1,-1.83792E-1,-1.5623026E-1,2.4550524E-1,2.6259837E-1,5.298982E-2,2.2614005E-1,-1.1026645E-1,5.9603978E-2,2.5420722E-1,-1.1851992E-1,2.953651E-1,-1.6609888E-1,4.3908656E-3,-1.6800316E-1,-2.4799062E-2,-6.156167E-2,2.2901566E-1,1.10576496E-1,-1.7445785E-1,2.2369137E-1,-2.2442469E-1],"categories":[],"categories_nodes":[],"categories_segments":[],"categories_sizes":[],"default_left":[0,0,0,0,0,0,0,0,0,0,0,0,0,0,0,0,0,0,0,0,0,0,0,0,0,0,0,0,0,0,0,0,0,0,0,0,0,0,0,0,0,0,0,0,0,0,0,0,0,0,0,0,0,0,0,0,0,0,0,0,0,0,0,0,0,0,0,0,0,0,0,0,0,0,0,0,0,0,0,0,0,0,0,0,0,0,0,0,0,0,0],"id":15,"left_children":[1,3,5,7,9,11,13,15,17,19,21,23,25,-1,27,29,31,33,35,37,39,41,43,45,47,49,51,53,55,57,59,61,63,65,67,69,71,-1,-1,-1,73,-1,-1,-1,75,-1,-1,77,-1,79,81,-1,83,85,87,89,-1,-1,-1,-1,-1,-1,-1,-1,-1,-1,-1,-1,-1,-1,-1,-1,-1,-1,-1,-1,-1,-1,-1,-1,-1,-1,-1,-1,-1,-1,-1,-1,-1,-1,-1],"loss_changes":[1.1171023E3,3.4768738E2,4.283581E2,1.4171765E2,4.3016724E1,4.544642E1,5.7102295E1,2.8828552E1,5.763293E1,5.877018E0,8.803162E0,9.822187E0,7.170532E0,0E0,4.7767212E1,3.4503036E1,3.0325745E1,1.5571966E1,3.964708E1,1.7622719E0,8.734193E0,3.3329847E0,6.775238E0,2.128922E0,3.3379555E0,1.2027025E1,4.479103E0,8.489269E1,4.612207E1,3.3975536E1,5.141945E-1,1.3160095E1,5.3865883E1,2.6604114E0,3.417759E0,1.3965738E1,2.4731255E1,0E0,0E0,0E0,9.0202427E-1,0E0,0E0,0E0,2.5595856E0,0E0,0E0,2.6511192E-1,0E0,7.286168E0,3.5820055E-1,0E0,4.2271423E-1,1.6755753E0,1.6293335E0,1.2771851E1,0E0,0E0,0E0,0E0,0E0,0E0,0E0,0E0,0E0,0E0,0E0,0E0,0E0,0E0,0E0,0E0,0E0,0E0,0E0,0E0,0E0,0E0,0E0,0E0,0E0,0E0,0E0,0E0,0E0,0E0,0E0,0E0,0E0,0E0,0E0],"parents":[2147483647,0,0,1,1,2,2,3,3,4,4,5,5,6,6,7,7,8,8,9,9,10,10,11,11,12,12,14,14,15,15,16,16,17,17,18,18,19,19,20,20,21,21,22,22,23,23,24,24,25,25,26,26,27,27,28,28,29,29,30,30,31,31,32,32,33,33,34,34,35,35,36,36,40,40,44,44,47,47,49,49,50,50,52,52,53,53,54,54,55,55],"right_children":[2,4,6,8,10,12,14,16,18,20,22,24,26,-1,28,